digraph Tree {
node [shape=box] ;
0 [label="X[10] <= 0.684\nentropy = 0.843\nsamples = 5634\nvalue = [4108, 1526]"] ;
1 [label="X[16] <= 1.427\nentropy = 0.985\nsamples = 2827\nvalue = [1620, 1207]"] ;
0 -> 1 [labeldistance=2.5, labelangle=45, headlabel="True"] ;
2 [label="X[16] <= 0.944\nentropy = 0.996\nsamples = 2568\nvalue = [1380, 1188]"] ;
1 -> 2 ;
3 [label="X[9] <= 0.906\nentropy = 0.999\nsamples = 2130\nvalue = [1018, 1112]"] ;
2 -> 3 ;
4 [label="X[3] <= 534.337\nentropy = 0.952\nsamples = 681\nvalue = [428, 253]"] ;
3 -> 4 ;
5 [label="entropy = 0.999\nsamples = 413\nvalue = [214, 199]"] ;
4 -> 5 ;
6 [label="entropy = 0.725\nsamples = 268\nvalue = [214, 54]"] ;
4 -> 6 ;
7 [label="X[3] <= 491.417\nentropy = 0.975\nsamples = 1449\nvalue = [590, 859]"] ;
3 -> 7 ;
8 [label="entropy = 0.788\nsamples = 458\nvalue = [108, 350]"] ;
7 -> 8 ;
9 [label="entropy = 0.999\nsamples = 991\nvalue = [482, 509]"] ;
7 -> 9 ;
10 [label="X[15] <= 0.236\nentropy = 0.666\nsamples = 438\nvalue = [362, 76]"] ;
2 -> 10 ;
11 [label="X[18] <= 0.466\nentropy = 0.443\nsamples = 152\nvalue = [138, 14]"] ;
10 -> 11 ;
12 [label="entropy = 0.267\nsamples = 44\nvalue = [42, 2]"] ;
11 -> 12 ;
13 [label="entropy = 0.503\nsamples = 108\nvalue = [96, 12]"] ;
11 -> 13 ;
14 [label="X[18] <= 1.375\nentropy = 0.754\nsamples = 286\nvalue = [224, 62]"] ;
10 -> 14 ;
15 [label="entropy = 0.635\nsamples = 156\nvalue = [131, 25]"] ;
14 -> 15 ;
16 [label="entropy = 0.862\nsamples = 130\nvalue = [93, 37]"] ;
14 -> 16 ;
17 [label="X[9] <= 0.148\nentropy = 0.378\nsamples = 259\nvalue = [240, 19]"] ;
1 -> 17 ;
18 [label="X[13] <= 1.03\nentropy = 0.204\nsamples = 125\nvalue = [121, 4]"] ;
17 -> 18 ;
19 [label="X[14] <= 1.378\nentropy = 0.469\nsamples = 30\nvalue = [27, 3]"] ;
18 -> 19 ;
20 [label="entropy = 0.0\nsamples = 9\nvalue = [9, 0]"] ;
19 -> 20 ;
21 [label="entropy = 0.592\nsamples = 21\nvalue = [18, 3]"] ;
19 -> 21 ;
22 [label="X[3] <= 2761.359\nentropy = 0.084\nsamples = 95\nvalue = [94, 1]"] ;
18 -> 22 ;
23 [label="entropy = 0.276\nsamples = 21\nvalue = [20, 1]"] ;
22 -> 23 ;
24 [label="entropy = 0.0\nsamples = 74\nvalue = [74, 0]"] ;
22 -> 24 ;
25 [label="X[17] <= 0.766\nentropy = 0.506\nsamples = 134\nvalue = [119, 15]"] ;
17 -> 25 ;
26 [label="X[6] <= 0.491\nentropy = 0.191\nsamples = 34\nvalue = [33, 1]"] ;
25 -> 26 ;
27 [label="entropy = 0.0\nsamples = 26\nvalue = [26, 0]"] ;
26 -> 27 ;
28 [label="entropy = 0.544\nsamples = 8\nvalue = [7, 1]"] ;
26 -> 28 ;
29 [label="X[12] <= 0.239\nentropy = 0.584\nsamples = 100\nvalue = [86, 14]"] ;
25 -> 29 ;
30 [label="entropy = 0.242\nsamples = 25\nvalue = [24, 1]"] ;
29 -> 30 ;
31 [label="entropy = 0.665\nsamples = 75\nvalue = [62, 13]"] ;
29 -> 31 ;
32 [label="X[16] <= 1.251\nentropy = 0.511\nsamples = 2807\nvalue = [2488, 319]"] ;
0 -> 32 [labeldistance=2.5, labelangle=-45, headlabel="False"] ;
33 [label="X[16] <= 0.492\nentropy = 0.662\nsamples = 1712\nvalue = [1418, 294]"] ;
32 -> 33 ;
34 [label="X[13] <= 0.563\nentropy = 0.797\nsamples = 987\nvalue = [749, 238]"] ;
33 -> 34 ;
35 [label="X[9] <= 0.216\nentropy = 0.907\nsamples = 403\nvalue = [273, 130]"] ;
34 -> 35 ;
36 [label="entropy = 0.803\nsamples = 192\nvalue = [145, 47]"] ;
35 -> 36 ;
37 [label="entropy = 0.967\nsamples = 211\nvalue = [128, 83]"] ;
35 -> 37 ;
38 [label="X[0] <= 0.336\nentropy = 0.691\nsamples = 584\nvalue = [476, 108]"] ;
34 -> 38 ;
39 [label="entropy = 0.669\nsamples = 554\nvalue = [457, 97]"] ;
38 -> 39 ;
40 [label="entropy = 0.948\nsamples = 30\nvalue = [19, 11]"] ;
38 -> 40 ;
41 [label="X[15] <= 1.168\nentropy = 0.392\nsamples = 725\nvalue = [669, 56]"] ;
33 -> 41 ;
42 [label="X[2] <= 45.463\nentropy = 0.219\nsamples = 486\nvalue = [469, 17]"] ;
41 -> 42 ;
43 [label="entropy = 0.155\nsamples = 313\nvalue = [306, 7]"] ;
42 -> 43 ;
44 [label="entropy = 0.319\nsamples = 173\nvalue = [163, 10]"] ;
42 -> 44 ;
45 [label="X[2] <= 83.826\nentropy = 0.642\nsamples = 239\nvalue = [200, 39]"] ;
41 -> 45 ;
46 [label="entropy = 0.417\nsamples = 95\nvalue = [87, 8]"] ;
45 -> 46 ;
47 [label="entropy = 0.751\nsamples = 144\nvalue = [113, 31]"] ;
45 -> 47 ;
48 [label="X[11] <= 0.343\nentropy = 0.157\nsamples = 1095\nvalue = [1070, 25]"] ;
32 -> 48 ;
49 [label="X[3] <= 6828.947\nentropy = 0.323\nsamples = 170\nvalue = [160, 10]"] ;
48 -> 49 ;
50 [label="X[5] <= 0.122\nentropy = 0.182\nsamples = 145\nvalue = [141, 4]"] ;
49 -> 50 ;
51 [label="entropy = 0.0\nsamples = 48\nvalue = [48, 0]"] ;
50 -> 51 ;
52 [label="entropy = 0.248\nsamples = 97\nvalue = [93, 4]"] ;
50 -> 52 ;
53 [label="X[1] <= 63.547\nentropy = 0.795\nsamples = 25\nvalue = [19, 6]"] ;
49 -> 53 ;
54 [label="entropy = 0.0\nsamples = 1\nvalue = [0, 1]"] ;
53 -> 54 ;
55 [label="entropy = 0.738\nsamples = 24\nvalue = [19, 5]"] ;
53 -> 55 ;
56 [label="X[2] <= 98.281\nentropy = 0.12\nsamples = 925\nvalue = [910, 15]"] ;
48 -> 56 ;
57 [label="X[0] <= 0.412\nentropy = 0.09\nsamples = 785\nvalue = [776, 9]"] ;
56 -> 57 ;
58 [label="entropy = 0.068\nsamples = 739\nvalue = [733, 6]"] ;
57 -> 58 ;
59 [label="entropy = 0.348\nsamples = 46\nvalue = [43, 3]"] ;
57 -> 59 ;
60 [label="X[3] <= 7550.053\nentropy = 0.255\nsamples = 140\nvalue = [134, 6]"] ;
56 -> 60 ;
61 [label="entropy = 0.414\nsamples = 48\nvalue = [44, 4]"] ;
60 -> 61 ;
62 [label="entropy = 0.151\nsamples = 92\nvalue = [90, 2]"] ;
60 -> 62 ;
}
