digraph Tree {
node [shape=box] ;
0 [label="X[16] <= 0.5\ngini = 0.395\nsamples = 5634\nvalue = [4108, 1526]"] ;
1 [label="X[10] <= 0.5\ngini = 0.491\nsamples = 3117\nvalue = [1767, 1350]"] ;
0 -> 1 [labeldistance=2.5, labelangle=45, headlabel="True"] ;
2 [label="X[1] <= 10.5\ngini = 0.499\nsamples = 2130\nvalue = [1018, 1112]"] ;
1 -> 2 ;
3 [label="X[9] <= 0.5\ngini = 0.457\nsamples = 1025\nvalue = [362, 663]"] ;
2 -> 3 ;
4 [label="X[3] <= 225.625\ngini = 0.5\nsamples = 394\nvalue = [200, 194]"] ;
3 -> 4 ;
5 [label="X[17] <= 0.5\ngini = 0.491\nsamples = 278\nvalue = [120, 158]"] ;
4 -> 5 ;
6 [label="X[2] <= 45.625\ngini = 0.499\nsamples = 120\nvalue = [63, 57]"] ;
5 -> 6 ;
7 [label="X[18] <= 2.5\ngini = 0.465\nsamples = 68\nvalue = [43, 25]"] ;
6 -> 7 ;
8 [label="X[3] <= 42.825\ngini = 0.497\nsamples = 41\nvalue = [22, 19]"] ;
7 -> 8 ;
9 [label="X[15] <= 1.0\ngini = 0.346\nsamples = 9\nvalue = [2, 7]"] ;
8 -> 9 ;
10 [label="X[18] <= 1.0\ngini = 0.219\nsamples = 8\nvalue = [1, 7]"] ;
9 -> 10 ;
11 [label="X[4] <= 0.5\ngini = 0.5\nsamples = 2\nvalue = [1, 1]"] ;
10 -> 11 ;
12 [label="gini = 0.0\nsamples = 1\nvalue = [1, 0]"] ;
11 -> 12 ;
13 [label="gini = 0.0\nsamples = 1\nvalue = [0, 1]"] ;
11 -> 13 ;
14 [label="gini = 0.0\nsamples = 6\nvalue = [0, 6]"] ;
10 -> 14 ;
15 [label="gini = 0.0\nsamples = 1\nvalue = [1, 0]"] ;
9 -> 15 ;
16 [label="X[3] <= 44.625\ngini = 0.469\nsamples = 32\nvalue = [20, 12]"] ;
8 -> 16 ;
17 [label="gini = 0.0\nsamples = 6\nvalue = [6, 0]"] ;
16 -> 17 ;
18 [label="X[3] <= 147.3\ngini = 0.497\nsamples = 26\nvalue = [14, 12]"] ;
16 -> 18 ;
19 [label="X[3] <= 45.175\ngini = 0.496\nsamples = 22\nvalue = [10, 12]"] ;
18 -> 19 ;
20 [label="gini = 0.0\nsamples = 2\nvalue = [0, 2]"] ;
19 -> 20 ;
21 [label="X[14] <= 1.0\ngini = 0.5\nsamples = 20\nvalue = [10, 10]"] ;
19 -> 21 ;
22 [label="X[3] <= 81.7\ngini = 0.494\nsamples = 18\nvalue = [10, 8]"] ;
21 -> 22 ;
23 [label="X[3] <= 45.275\ngini = 0.48\nsamples = 10\nvalue = [4, 6]"] ;
22 -> 23 ;
24 [label="gini = 0.0\nsamples = 2\nvalue = [2, 0]"] ;
23 -> 24 ;
25 [label="X[2] <= 25.175\ngini = 0.375\nsamples = 8\nvalue = [2, 6]"] ;
23 -> 25 ;
26 [label="X[1] <= 2.5\ngini = 0.444\nsamples = 3\nvalue = [2, 1]"] ;
25 -> 26 ;
27 [label="gini = 0.0\nsamples = 1\nvalue = [1, 0]"] ;
26 -> 27 ;
28 [label="X[2] <= 24.925\ngini = 0.5\nsamples = 2\nvalue = [1, 1]"] ;
26 -> 28 ;
29 [label="gini = 0.0\nsamples = 1\nvalue = [0, 1]"] ;
28 -> 29 ;
30 [label="gini = 0.0\nsamples = 1\nvalue = [1, 0]"] ;
28 -> 30 ;
31 [label="gini = 0.0\nsamples = 5\nvalue = [0, 5]"] ;
25 -> 31 ;
32 [label="X[1] <= 4.5\ngini = 0.375\nsamples = 8\nvalue = [6, 2]"] ;
22 -> 32 ;
33 [label="X[2] <= 44.975\ngini = 0.245\nsamples = 7\nvalue = [6, 1]"] ;
32 -> 33 ;
34 [label="gini = 0.0\nsamples = 5\nvalue = [5, 0]"] ;
33 -> 34 ;
35 [label="X[3] <= 86.95\ngini = 0.5\nsamples = 2\nvalue = [1, 1]"] ;
33 -> 35 ;
36 [label="gini = 0.0\nsamples = 1\nvalue = [1, 0]"] ;
35 -> 36 ;
37 [label="gini = 0.0\nsamples = 1\nvalue = [0, 1]"] ;
35 -> 37 ;
38 [label="gini = 0.0\nsamples = 1\nvalue = [0, 1]"] ;
32 -> 38 ;
39 [label="gini = 0.0\nsamples = 2\nvalue = [0, 2]"] ;
21 -> 39 ;
40 [label="gini = 0.0\nsamples = 4\nvalue = [4, 0]"] ;
18 -> 40 ;
41 [label="X[0] <= 0.5\ngini = 0.346\nsamples = 27\nvalue = [21, 6]"] ;
7 -> 41 ;
42 [label="X[1] <= 6.5\ngini = 0.311\nsamples = 26\nvalue = [21, 5]"] ;
41 -> 42 ;
43 [label="X[8] <= 0.5\ngini = 0.269\nsamples = 25\nvalue = [21, 4]"] ;
42 -> 43 ;
44 [label="X[2] <= 44.425\ngini = 0.397\nsamples = 11\nvalue = [8, 3]"] ;
43 -> 44 ;
45 [label="gini = 0.0\nsamples = 2\nvalue = [0, 2]"] ;
44 -> 45 ;
46 [label="X[3] <= 45.1\ngini = 0.198\nsamples = 9\nvalue = [8, 1]"] ;
44 -> 46 ;
47 [label="X[3] <= 44.9\ngini = 0.444\nsamples = 3\nvalue = [2, 1]"] ;
46 -> 47 ;
48 [label="gini = 0.0\nsamples = 2\nvalue = [2, 0]"] ;
47 -> 48 ;
49 [label="gini = 0.0\nsamples = 1\nvalue = [0, 1]"] ;
47 -> 49 ;
50 [label="gini = 0.0\nsamples = 6\nvalue = [6, 0]"] ;
46 -> 50 ;
51 [label="X[3] <= 25.275\ngini = 0.133\nsamples = 14\nvalue = [13, 1]"] ;
43 -> 51 ;
52 [label="X[3] <= 24.8\ngini = 0.375\nsamples = 4\nvalue = [3, 1]"] ;
51 -> 52 ;
53 [label="gini = 0.0\nsamples = 3\nvalue = [3, 0]"] ;
52 -> 53 ;
54 [label="gini = 0.0\nsamples = 1\nvalue = [0, 1]"] ;
52 -> 54 ;
55 [label="gini = 0.0\nsamples = 10\nvalue = [10, 0]"] ;
51 -> 55 ;
56 [label="gini = 0.0\nsamples = 1\nvalue = [0, 1]"] ;
42 -> 56 ;
57 [label="gini = 0.0\nsamples = 1\nvalue = [0, 1]"] ;
41 -> 57 ;
58 [label="X[2] <= 47.95\ngini = 0.473\nsamples = 52\nvalue = [20, 32]"] ;
6 -> 58 ;
59 [label="gini = 0.0\nsamples = 10\nvalue = [0, 10]"] ;
58 -> 59 ;
60 [label="X[2] <= 50.0\ngini = 0.499\nsamples = 42\nvalue = [20, 22]"] ;
58 -> 60 ;
61 [label="X[12] <= 1.0\ngini = 0.245\nsamples = 7\nvalue = [6, 1]"] ;
60 -> 61 ;
62 [label="gini = 0.0\nsamples = 6\nvalue = [6, 0]"] ;
61 -> 62 ;
63 [label="gini = 0.0\nsamples = 1\nvalue = [0, 1]"] ;
61 -> 63 ;
64 [label="X[2] <= 51.4\ngini = 0.48\nsamples = 35\nvalue = [14, 21]"] ;
60 -> 64 ;
65 [label="X[8] <= 1.0\ngini = 0.337\nsamples = 14\nvalue = [3, 11]"] ;
64 -> 65 ;
66 [label="gini = 0.0\nsamples = 9\nvalue = [0, 9]"] ;
65 -> 66 ;
67 [label="X[2] <= 50.625\ngini = 0.48\nsamples = 5\nvalue = [3, 2]"] ;
65 -> 67 ;
68 [label="X[18] <= 1.5\ngini = 0.444\nsamples = 3\nvalue = [1, 2]"] ;
67 -> 68 ;
69 [label="gini = 0.0\nsamples = 1\nvalue = [1, 0]"] ;
68 -> 69 ;
70 [label="gini = 0.0\nsamples = 2\nvalue = [0, 2]"] ;
68 -> 70 ;
71 [label="gini = 0.0\nsamples = 2\nvalue = [2, 0]"] ;
67 -> 71 ;
72 [label="X[3] <= 55.125\ngini = 0.499\nsamples = 21\nvalue = [11, 10]"] ;
64 -> 72 ;
73 [label="gini = 0.0\nsamples = 2\nvalue = [2, 0]"] ;
72 -> 73 ;
74 [label="X[1] <= 1.5\ngini = 0.499\nsamples = 19\nvalue = [9, 10]"] ;
72 -> 74 ;
75 [label="X[2] <= 57.375\ngini = 0.32\nsamples = 5\nvalue = [1, 4]"] ;
74 -> 75 ;
76 [label="X[2] <= 55.375\ngini = 0.5\nsamples = 2\nvalue = [1, 1]"] ;
75 -> 76 ;
77 [label="gini = 0.0\nsamples = 1\nvalue = [0, 1]"] ;
76 -> 77 ;
78 [label="gini = 0.0\nsamples = 1\nvalue = [1, 0]"] ;
76 -> 78 ;
79 [label="gini = 0.0\nsamples = 3\nvalue = [0, 3]"] ;
75 -> 79 ;
80 [label="X[3] <= 114.85\ngini = 0.49\nsamples = 14\nvalue = [8, 6]"] ;
74 -> 80 ;
81 [label="gini = 0.0\nsamples = 3\nvalue = [3, 0]"] ;
80 -> 81 ;
82 [label="X[3] <= 161.125\ngini = 0.496\nsamples = 11\nvalue = [5, 6]"] ;
80 -> 82 ;
83 [label="X[18] <= 1.5\ngini = 0.32\nsamples = 5\nvalue = [1, 4]"] ;
82 -> 83 ;
84 [label="X[4] <= 0.5\ngini = 0.5\nsamples = 2\nvalue = [1, 1]"] ;
83 -> 84 ;
85 [label="gini = 0.0\nsamples = 1\nvalue = [1, 0]"] ;
84 -> 85 ;
86 [label="gini = 0.0\nsamples = 1\nvalue = [0, 1]"] ;
84 -> 86 ;
87 [label="gini = 0.0\nsamples = 3\nvalue = [0, 3]"] ;
83 -> 87 ;
88 [label="X[2] <= 54.475\ngini = 0.444\nsamples = 6\nvalue = [4, 2]"] ;
82 -> 88 ;
89 [label="gini = 0.0\nsamples = 2\nvalue = [0, 2]"] ;
88 -> 89 ;
90 [label="gini = 0.0\nsamples = 4\nvalue = [4, 0]"] ;
88 -> 90 ;
91 [label="X[1] <= 6.5\ngini = 0.461\nsamples = 158\nvalue = [57, 101]"] ;
5 -> 91 ;
92 [label="X[7] <= 0.5\ngini = 0.451\nsamples = 154\nvalue = [53, 101]"] ;
91 -> 92 ;
93 [label="X[2] <= 40.1\ngini = 0.295\nsamples = 50\nvalue = [9, 41]"] ;
92 -> 93 ;
94 [label="X[2] <= 39.85\ngini = 0.349\nsamples = 40\nvalue = [9, 31]"] ;
93 -> 94 ;
95 [label="X[18] <= 1.5\ngini = 0.326\nsamples = 39\nvalue = [8, 31]"] ;
94 -> 95 ;
96 [label="X[1] <= 3.5\ngini = 0.5\nsamples = 4\nvalue = [2, 2]"] ;
95 -> 96 ;
97 [label="gini = 0.0\nsamples = 2\nvalue = [2, 0]"] ;
96 -> 97 ;
98 [label="gini = 0.0\nsamples = 2\nvalue = [0, 2]"] ;
96 -> 98 ;
99 [label="X[11] <= 1.0\ngini = 0.284\nsamples = 35\nvalue = [6, 29]"] ;
95 -> 99 ;
100 [label="X[3] <= 96.45\ngini = 0.225\nsamples = 31\nvalue = [4, 27]"] ;
99 -> 100 ;
101 [label="X[3] <= 25.175\ngini = 0.142\nsamples = 26\nvalue = [2, 24]"] ;
100 -> 101 ;
102 [label="X[6] <= 0.5\ngini = 0.346\nsamples = 9\nvalue = [2, 7]"] ;
101 -> 102 ;
103 [label="X[2] <= 25.125\ngini = 0.219\nsamples = 8\nvalue = [1, 7]"] ;
102 -> 103 ;
104 [label="gini = 0.0\nsamples = 6\nvalue = [0, 6]"] ;
103 -> 104 ;
105 [label="X[18] <= 2.5\ngini = 0.5\nsamples = 2\nvalue = [1, 1]"] ;
103 -> 105 ;
106 [label="gini = 0.0\nsamples = 1\nvalue = [0, 1]"] ;
105 -> 106 ;
107 [label="gini = 0.0\nsamples = 1\nvalue = [1, 0]"] ;
105 -> 107 ;
108 [label="gini = 0.0\nsamples = 1\nvalue = [1, 0]"] ;
102 -> 108 ;
109 [label="gini = 0.0\nsamples = 17\nvalue = [0, 17]"] ;
101 -> 109 ;
110 [label="X[3] <= 100.175\ngini = 0.48\nsamples = 5\nvalue = [2, 3]"] ;
100 -> 110 ;
111 [label="X[15] <= 1.0\ngini = 0.444\nsamples = 3\nvalue = [2, 1]"] ;
110 -> 111 ;
112 [label="gini = 0.0\nsamples = 2\nvalue = [2, 0]"] ;
111 -> 112 ;
113 [label="gini = 0.0\nsamples = 1\nvalue = [0, 1]"] ;
111 -> 113 ;
114 [label="gini = 0.0\nsamples = 2\nvalue = [0, 2]"] ;
110 -> 114 ;
115 [label="X[4] <= 0.5\ngini = 0.5\nsamples = 4\nvalue = [2, 2]"] ;
99 -> 115 ;
116 [label="gini = 0.0\nsamples = 2\nvalue = [2, 0]"] ;
115 -> 116 ;
117 [label="gini = 0.0\nsamples = 2\nvalue = [0, 2]"] ;
115 -> 117 ;
118 [label="gini = 0.0\nsamples = 1\nvalue = [1, 0]"] ;
94 -> 118 ;
119 [label="gini = 0.0\nsamples = 10\nvalue = [0, 10]"] ;
93 -> 119 ;
120 [label="X[2] <= 56.4\ngini = 0.488\nsamples = 104\nvalue = [44, 60]"] ;
92 -> 120 ;
121 [label="X[3] <= 45.05\ngini = 0.477\nsamples = 94\nvalue = [37, 57]"] ;
120 -> 121 ;
122 [label="X[3] <= 44.5\ngini = 0.48\nsamples = 15\nvalue = [9, 6]"] ;
121 -> 122 ;
123 [label="X[3] <= 44.075\ngini = 0.494\nsamples = 9\nvalue = [4, 5]"] ;
122 -> 123 ;
124 [label="X[2] <= 43.375\ngini = 0.375\nsamples = 4\nvalue = [3, 1]"] ;
123 -> 124 ;
125 [label="gini = 0.0\nsamples = 1\nvalue = [0, 1]"] ;
124 -> 125 ;
126 [label="gini = 0.0\nsamples = 3\nvalue = [3, 0]"] ;
124 -> 126 ;
127 [label="X[4] <= 0.5\ngini = 0.32\nsamples = 5\nvalue = [1, 4]"] ;
123 -> 127 ;
128 [label="gini = 0.0\nsamples = 3\nvalue = [0, 3]"] ;
127 -> 128 ;
129 [label="X[2] <= 44.225\ngini = 0.5\nsamples = 2\nvalue = [1, 1]"] ;
127 -> 129 ;
130 [label="gini = 0.0\nsamples = 1\nvalue = [0, 1]"] ;
129 -> 130 ;
131 [label="gini = 0.0\nsamples = 1\nvalue = [1, 0]"] ;
129 -> 131 ;
132 [label="X[18] <= 0.5\ngini = 0.278\nsamples = 6\nvalue = [5, 1]"] ;
122 -> 132 ;
133 [label="gini = 0.0\nsamples = 1\nvalue = [0, 1]"] ;
132 -> 133 ;
134 [label="gini = 0.0\nsamples = 5\nvalue = [5, 0]"] ;
132 -> 134 ;
135 [label="X[0] <= 0.5\ngini = 0.458\nsamples = 79\nvalue = [28, 51]"] ;
121 -> 135 ;
136 [label="X[13] <= 1.0\ngini = 0.468\nsamples = 75\nvalue = [28, 47]"] ;
135 -> 136 ;
137 [label="X[3] <= 94.6\ngini = 0.448\nsamples = 65\nvalue = [22, 43]"] ;
136 -> 137 ;
138 [label="X[3] <= 49.725\ngini = 0.488\nsamples = 45\nvalue = [19, 26]"] ;
137 -> 138 ;
139 [label="X[18] <= 2.5\ngini = 0.337\nsamples = 14\nvalue = [3, 11]"] ;
138 -> 139 ;
140 [label="gini = 0.0\nsamples = 6\nvalue = [0, 6]"] ;
139 -> 140 ;
141 [label="X[2] <= 45.625\ngini = 0.469\nsamples = 8\nvalue = [3, 5]"] ;
139 -> 141 ;
142 [label="X[4] <= 0.5\ngini = 0.444\nsamples = 3\nvalue = [2, 1]"] ;
141 -> 142 ;
143 [label="gini = 0.5\nsamples = 2\nvalue = [1, 1]"] ;
142 -> 143 ;
144 [label="gini = 0.0\nsamples = 1\nvalue = [1, 0]"] ;
142 -> 144 ;
145 [label="X[3] <= 45.75\ngini = 0.32\nsamples = 5\nvalue = [1, 4]"] ;
141 -> 145 ;
146 [label="gini = 0.0\nsamples = 2\nvalue = [0, 2]"] ;
145 -> 146 ;
147 [label="X[2] <= 45.825\ngini = 0.444\nsamples = 3\nvalue = [1, 2]"] ;
145 -> 147 ;
148 [label="gini = 0.0\nsamples = 1\nvalue = [1, 0]"] ;
147 -> 148 ;
149 [label="gini = 0.0\nsamples = 2\nvalue = [0, 2]"] ;
147 -> 149 ;
150 [label="X[2] <= 50.375\ngini = 0.499\nsamples = 31\nvalue = [16, 15]"] ;
138 -> 150 ;
151 [label="X[18] <= 1.5\ngini = 0.375\nsamples = 16\nvalue = [12, 4]"] ;
150 -> 151 ;
152 [label="X[4] <= 0.5\ngini = 0.48\nsamples = 5\nvalue = [2, 3]"] ;
151 -> 152 ;
153 [label="gini = 0.0\nsamples = 2\nvalue = [0, 2]"] ;
152 -> 153 ;
154 [label="X[2] <= 46.3\ngini = 0.444\nsamples = 3\nvalue = [2, 1]"] ;
152 -> 154 ;
155 [label="gini = 0.0\nsamples = 1\nvalue = [0, 1]"] ;
154 -> 155 ;
156 [label="gini = 0.0\nsamples = 2\nvalue = [2, 0]"] ;
154 -> 156 ;
157 [label="X[8] <= 1.0\ngini = 0.165\nsamples = 11\nvalue = [10, 1]"] ;
151 -> 157 ;
158 [label="gini = 0.0\nsamples = 8\nvalue = [8, 0]"] ;
157 -> 158 ;
159 [label="X[18] <= 2.5\ngini = 0.444\nsamples = 3\nvalue = [2, 1]"] ;
157 -> 159 ;
160 [label="gini = 0.0\nsamples = 2\nvalue = [2, 0]"] ;
159 -> 160 ;
161 [label="gini = 0.0\nsamples = 1\nvalue = [0, 1]"] ;
159 -> 161 ;
162 [label="X[3] <= 54.1\ngini = 0.391\nsamples = 15\nvalue = [4, 11]"] ;
150 -> 162 ;
163 [label="gini = 0.0\nsamples = 6\nvalue = [0, 6]"] ;
162 -> 163 ;
164 [label="X[15] <= 1.0\ngini = 0.494\nsamples = 9\nvalue = [4, 5]"] ;
162 -> 164 ;
165 [label="gini = 0.0\nsamples = 2\nvalue = [2, 0]"] ;
164 -> 165 ;
166 [label="X[2] <= 55.125\ngini = 0.408\nsamples = 7\nvalue = [2, 5]"] ;
164 -> 166 ;
167 [label="gini = 0.0\nsamples = 2\nvalue = [0, 2]"] ;
166 -> 167 ;
168 [label="X[2] <= 55.575\ngini = 0.48\nsamples = 5\nvalue = [2, 3]"] ;
166 -> 168 ;
169 [label="X[3] <= 55.325\ngini = 0.444\nsamples = 3\nvalue = [2, 1]"] ;
168 -> 169 ;
170 [label="gini = 0.0\nsamples = 1\nvalue = [1, 0]"] ;
169 -> 170 ;
171 [label="X[3] <= 55.425\ngini = 0.5\nsamples = 2\nvalue = [1, 1]"] ;
169 -> 171 ;
172 [label="gini = 0.0\nsamples = 1\nvalue = [0, 1]"] ;
171 -> 172 ;
173 [label="gini = 0.0\nsamples = 1\nvalue = [1, 0]"] ;
171 -> 173 ;
174 [label="gini = 0.0\nsamples = 2\nvalue = [0, 2]"] ;
168 -> 174 ;
175 [label="X[2] <= 44.9\ngini = 0.255\nsamples = 20\nvalue = [3, 17]"] ;
137 -> 175 ;
176 [label="X[2] <= 43.675\ngini = 0.444\nsamples = 3\nvalue = [2, 1]"] ;
175 -> 176 ;
177 [label="gini = 0.0\nsamples = 1\nvalue = [0, 1]"] ;
176 -> 177 ;
178 [label="gini = 0.0\nsamples = 2\nvalue = [2, 0]"] ;
176 -> 178 ;
179 [label="X[5] <= 0.5\ngini = 0.111\nsamples = 17\nvalue = [1, 16]"] ;
175 -> 179 ;
180 [label="gini = 0.0\nsamples = 13\nvalue = [0, 13]"] ;
179 -> 180 ;
181 [label="X[2] <= 48.125\ngini = 0.375\nsamples = 4\nvalue = [1, 3]"] ;
179 -> 181 ;
182 [label="gini = 0.0\nsamples = 1\nvalue = [1, 0]"] ;
181 -> 182 ;
183 [label="gini = 0.0\nsamples = 3\nvalue = [0, 3]"] ;
181 -> 183 ;
184 [label="X[1] <= 1.5\ngini = 0.48\nsamples = 10\nvalue = [6, 4]"] ;
136 -> 184 ;
185 [label="X[3] <= 50.35\ngini = 0.48\nsamples = 5\nvalue = [2, 3]"] ;
184 -> 185 ;
186 [label="X[6] <= 0.5\ngini = 0.444\nsamples = 3\nvalue = [2, 1]"] ;
185 -> 186 ;
187 [label="gini = 0.0\nsamples = 2\nvalue = [2, 0]"] ;
186 -> 187 ;
188 [label="gini = 0.0\nsamples = 1\nvalue = [0, 1]"] ;
186 -> 188 ;
189 [label="gini = 0.0\nsamples = 2\nvalue = [0, 2]"] ;
185 -> 189 ;
190 [label="X[2] <= 49.725\ngini = 0.32\nsamples = 5\nvalue = [4, 1]"] ;
184 -> 190 ;
191 [label="gini = 0.0\nsamples = 1\nvalue = [0, 1]"] ;
190 -> 191 ;
192 [label="gini = 0.0\nsamples = 4\nvalue = [4, 0]"] ;
190 -> 192 ;
193 [label="gini = 0.0\nsamples = 4\nvalue = [0, 4]"] ;
135 -> 193 ;
194 [label="X[11] <= 1.0\ngini = 0.42\nsamples = 10\nvalue = [7, 3]"] ;
120 -> 194 ;
195 [label="X[18] <= 2.5\ngini = 0.49\nsamples = 7\nvalue = [4, 3]"] ;
194 -> 195 ;
196 [label="X[12] <= 1.0\ngini = 0.48\nsamples = 5\nvalue = [2, 3]"] ;
195 -> 196 ;
197 [label="X[2] <= 61.925\ngini = 0.375\nsamples = 4\nvalue = [1, 3]"] ;
196 -> 197 ;
198 [label="X[2] <= 60.2\ngini = 0.5\nsamples = 2\nvalue = [1, 1]"] ;
197 -> 198 ;
199 [label="gini = 0.0\nsamples = 1\nvalue = [0, 1]"] ;
198 -> 199 ;
200 [label="gini = 0.0\nsamples = 1\nvalue = [1, 0]"] ;
198 -> 200 ;
201 [label="gini = 0.0\nsamples = 2\nvalue = [0, 2]"] ;
197 -> 201 ;
202 [label="gini = 0.0\nsamples = 1\nvalue = [1, 0]"] ;
196 -> 202 ;
203 [label="gini = 0.0\nsamples = 2\nvalue = [2, 0]"] ;
195 -> 203 ;
204 [label="gini = 0.0\nsamples = 3\nvalue = [3, 0]"] ;
194 -> 204 ;
205 [label="gini = 0.0\nsamples = 4\nvalue = [4, 0]"] ;
91 -> 205 ;
206 [label="X[2] <= 67.875\ngini = 0.428\nsamples = 116\nvalue = [80, 36]"] ;
4 -> 206 ;
207 [label="X[2] <= 51.1\ngini = 0.4\nsamples = 105\nvalue = [76, 29]"] ;
206 -> 207 ;
208 [label="X[3] <= 309.325\ngini = 0.481\nsamples = 57\nvalue = [34, 23]"] ;
207 -> 208 ;
209 [label="X[3] <= 236.225\ngini = 0.497\nsamples = 26\nvalue = [12, 14]"] ;
208 -> 209 ;
210 [label="gini = 0.0\nsamples = 3\nvalue = [3, 0]"] ;
209 -> 210 ;
211 [label="X[17] <= 0.5\ngini = 0.476\nsamples = 23\nvalue = [9, 14]"] ;
209 -> 211 ;
212 [label="X[3] <= 273.725\ngini = 0.48\nsamples = 10\nvalue = [6, 4]"] ;
211 -> 212 ;
213 [label="X[18] <= 1.0\ngini = 0.32\nsamples = 5\nvalue = [1, 4]"] ;
212 -> 213 ;
214 [label="gini = 0.0\nsamples = 1\nvalue = [1, 0]"] ;
213 -> 214 ;
215 [label="gini = 0.0\nsamples = 4\nvalue = [0, 4]"] ;
213 -> 215 ;
216 [label="gini = 0.0\nsamples = 5\nvalue = [5, 0]"] ;
212 -> 216 ;
217 [label="X[6] <= 0.5\ngini = 0.355\nsamples = 13\nvalue = [3, 10]"] ;
211 -> 217 ;
218 [label="X[3] <= 265.2\ngini = 0.18\nsamples = 10\nvalue = [1, 9]"] ;
217 -> 218 ;
219 [label="X[18] <= 2.5\ngini = 0.5\nsamples = 2\nvalue = [1, 1]"] ;
218 -> 219 ;
220 [label="gini = 0.0\nsamples = 1\nvalue = [1, 0]"] ;
219 -> 220 ;
221 [label="gini = 0.0\nsamples = 1\nvalue = [0, 1]"] ;
219 -> 221 ;
222 [label="gini = 0.0\nsamples = 8\nvalue = [0, 8]"] ;
218 -> 222 ;
223 [label="X[2] <= 46.7\ngini = 0.444\nsamples = 3\nvalue = [2, 1]"] ;
217 -> 223 ;
224 [label="gini = 0.0\nsamples = 1\nvalue = [0, 1]"] ;
223 -> 224 ;
225 [label="gini = 0.0\nsamples = 2\nvalue = [2, 0]"] ;
223 -> 225 ;
226 [label="X[14] <= 1.0\ngini = 0.412\nsamples = 31\nvalue = [22, 9]"] ;
208 -> 226 ;
227 [label="X[2] <= 48.75\ngini = 0.366\nsamples = 29\nvalue = [22, 7]"] ;
226 -> 227 ;
228 [label="X[2] <= 44.8\ngini = 0.444\nsamples = 21\nvalue = [14, 7]"] ;
227 -> 228 ;
229 [label="X[2] <= 35.225\ngini = 0.153\nsamples = 12\nvalue = [11, 1]"] ;
228 -> 229 ;
230 [label="X[4] <= 0.5\ngini = 0.5\nsamples = 2\nvalue = [1, 1]"] ;
229 -> 230 ;
231 [label="gini = 0.0\nsamples = 1\nvalue = [0, 1]"] ;
230 -> 231 ;
232 [label="gini = 0.0\nsamples = 1\nvalue = [1, 0]"] ;
230 -> 232 ;
233 [label="gini = 0.0\nsamples = 10\nvalue = [10, 0]"] ;
229 -> 233 ;
234 [label="X[2] <= 45.2\ngini = 0.444\nsamples = 9\nvalue = [3, 6]"] ;
228 -> 234 ;
235 [label="gini = 0.0\nsamples = 4\nvalue = [0, 4]"] ;
234 -> 235 ;
236 [label="X[18] <= 2.5\ngini = 0.48\nsamples = 5\nvalue = [3, 2]"] ;
234 -> 236 ;
237 [label="X[3] <= 419.4\ngini = 0.444\nsamples = 3\nvalue = [1, 2]"] ;
236 -> 237 ;
238 [label="gini = 0.0\nsamples = 2\nvalue = [0, 2]"] ;
237 -> 238 ;
239 [label="gini = 0.0\nsamples = 1\nvalue = [1, 0]"] ;
237 -> 239 ;
240 [label="gini = 0.0\nsamples = 2\nvalue = [2, 0]"] ;
236 -> 240 ;
241 [label="gini = 0.0\nsamples = 8\nvalue = [8, 0]"] ;
227 -> 241 ;
242 [label="gini = 0.0\nsamples = 2\nvalue = [0, 2]"] ;
226 -> 242 ;
243 [label="X[6] <= 0.5\ngini = 0.219\nsamples = 48\nvalue = [42, 6]"] ;
207 -> 243 ;
244 [label="X[18] <= 2.5\ngini = 0.105\nsamples = 36\nvalue = [34, 2]"] ;
243 -> 244 ;
245 [label="gini = 0.0\nsamples = 26\nvalue = [26, 0]"] ;
244 -> 245 ;
246 [label="X[2] <= 65.9\ngini = 0.32\nsamples = 10\nvalue = [8, 2]"] ;
244 -> 246 ;
247 [label="X[4] <= 0.5\ngini = 0.198\nsamples = 9\nvalue = [8, 1]"] ;
246 -> 247 ;
248 [label="X[0] <= 0.5\ngini = 0.444\nsamples = 3\nvalue = [2, 1]"] ;
247 -> 248 ;
249 [label="X[8] <= 1.0\ngini = 0.5\nsamples = 2\nvalue = [1, 1]"] ;
248 -> 249 ;
250 [label="gini = 0.0\nsamples = 1\nvalue = [0, 1]"] ;
249 -> 250 ;
251 [label="gini = 0.0\nsamples = 1\nvalue = [1, 0]"] ;
249 -> 251 ;
252 [label="gini = 0.0\nsamples = 1\nvalue = [1, 0]"] ;
248 -> 252 ;
253 [label="gini = 0.0\nsamples = 6\nvalue = [6, 0]"] ;
247 -> 253 ;
254 [label="gini = 0.0\nsamples = 1\nvalue = [0, 1]"] ;
246 -> 254 ;
255 [label="X[1] <= 4.5\ngini = 0.444\nsamples = 12\nvalue = [8, 4]"] ;
243 -> 255 ;
256 [label="gini = 0.0\nsamples = 2\nvalue = [0, 2]"] ;
255 -> 256 ;
257 [label="X[5] <= 0.5\ngini = 0.32\nsamples = 10\nvalue = [8, 2]"] ;
255 -> 257 ;
258 [label="gini = 0.0\nsamples = 1\nvalue = [0, 1]"] ;
257 -> 258 ;
259 [label="X[18] <= 1.5\ngini = 0.198\nsamples = 9\nvalue = [8, 1]"] ;
257 -> 259 ;
260 [label="X[12] <= 1.0\ngini = 0.5\nsamples = 2\nvalue = [1, 1]"] ;
259 -> 260 ;
261 [label="gini = 0.0\nsamples = 1\nvalue = [1, 0]"] ;
260 -> 261 ;
262 [label="gini = 0.0\nsamples = 1\nvalue = [0, 1]"] ;
260 -> 262 ;
263 [label="gini = 0.0\nsamples = 7\nvalue = [7, 0]"] ;
259 -> 263 ;
264 [label="X[3] <= 252.675\ngini = 0.463\nsamples = 11\nvalue = [4, 7]"] ;
206 -> 264 ;
265 [label="gini = 0.0\nsamples = 2\nvalue = [2, 0]"] ;
264 -> 265 ;
266 [label="X[2] <= 74.9\ngini = 0.346\nsamples = 9\nvalue = [2, 7]"] ;
264 -> 266 ;
267 [label="X[5] <= 0.5\ngini = 0.219\nsamples = 8\nvalue = [1, 7]"] ;
266 -> 267 ;
268 [label="gini = 0.0\nsamples = 6\nvalue = [0, 6]"] ;
267 -> 268 ;
269 [label="X[18] <= 1.5\ngini = 0.5\nsamples = 2\nvalue = [1, 1]"] ;
267 -> 269 ;
270 [label="gini = 0.0\nsamples = 1\nvalue = [0, 1]"] ;
269 -> 270 ;
271 [label="gini = 0.0\nsamples = 1\nvalue = [1, 0]"] ;
269 -> 271 ;
272 [label="gini = 0.0\nsamples = 1\nvalue = [1, 0]"] ;
266 -> 272 ;
273 [label="X[3] <= 120.0\ngini = 0.382\nsamples = 631\nvalue = [162, 469]"] ;
3 -> 273 ;
274 [label="X[13] <= 1.0\ngini = 0.218\nsamples = 185\nvalue = [23, 162]"] ;
273 -> 274 ;
275 [label="X[2] <= 69.875\ngini = 0.191\nsamples = 178\nvalue = [19, 159]"] ;
274 -> 275 ;
276 [label="gini = 0.0\nsamples = 33\nvalue = [0, 33]"] ;
275 -> 276 ;
277 [label="X[2] <= 71.3\ngini = 0.228\nsamples = 145\nvalue = [19, 126]"] ;
275 -> 277 ;
278 [label="X[18] <= 1.5\ngini = 0.375\nsamples = 40\nvalue = [10, 30]"] ;
277 -> 278 ;
279 [label="gini = 0.0\nsamples = 1\nvalue = [1, 0]"] ;
278 -> 279 ;
280 [label="X[2] <= 71.2\ngini = 0.355\nsamples = 39\nvalue = [9, 30]"] ;
278 -> 280 ;
281 [label="X[5] <= 0.5\ngini = 0.332\nsamples = 38\nvalue = [8, 30]"] ;
280 -> 281 ;
282 [label="X[4] <= 0.5\ngini = 0.375\nsamples = 32\nvalue = [8, 24]"] ;
281 -> 282 ;
283 [label="X[17] <= 0.5\ngini = 0.308\nsamples = 21\nvalue = [4, 17]"] ;
282 -> 283 ;
284 [label="X[2] <= 70.3\ngini = 0.48\nsamples = 5\nvalue = [2, 3]"] ;
283 -> 284 ;
285 [label="gini = 0.0\nsamples = 1\nvalue = [1, 0]"] ;
284 -> 285 ;
286 [label="X[2] <= 71.0\ngini = 0.375\nsamples = 4\nvalue = [1, 3]"] ;
284 -> 286 ;
287 [label="gini = 0.0\nsamples = 2\nvalue = [0, 2]"] ;
286 -> 287 ;
288 [label="gini = 0.5\nsamples = 2\nvalue = [1, 1]"] ;
286 -> 288 ;
289 [label="X[2] <= 70.175\ngini = 0.219\nsamples = 16\nvalue = [2, 14]"] ;
283 -> 289 ;
290 [label="gini = 0.0\nsamples = 7\nvalue = [0, 7]"] ;
289 -> 290 ;
291 [label="X[2] <= 70.225\ngini = 0.346\nsamples = 9\nvalue = [2, 7]"] ;
289 -> 291 ;
292 [label="gini = 0.0\nsamples = 1\nvalue = [1, 0]"] ;
291 -> 292 ;
293 [label="X[18] <= 2.5\ngini = 0.219\nsamples = 8\nvalue = [1, 7]"] ;
291 -> 293 ;
294 [label="gini = 0.0\nsamples = 7\nvalue = [0, 7]"] ;
293 -> 294 ;
295 [label="gini = 0.0\nsamples = 1\nvalue = [1, 0]"] ;
293 -> 295 ;
296 [label="X[17] <= 0.5\ngini = 0.463\nsamples = 11\nvalue = [4, 7]"] ;
282 -> 296 ;
297 [label="gini = 0.0\nsamples = 3\nvalue = [0, 3]"] ;
296 -> 297 ;
298 [label="X[3] <= 70.525\ngini = 0.5\nsamples = 8\nvalue = [4, 4]"] ;
296 -> 298 ;
299 [label="X[0] <= 0.5\ngini = 0.49\nsamples = 7\nvalue = [3, 4]"] ;
298 -> 299 ;
300 [label="X[2] <= 70.4\ngini = 0.444\nsamples = 6\nvalue = [2, 4]"] ;
299 -> 300 ;
301 [label="X[3] <= 70.325\ngini = 0.48\nsamples = 5\nvalue = [2, 3]"] ;
300 -> 301 ;
302 [label="X[2] <= 70.1\ngini = 0.375\nsamples = 4\nvalue = [1, 3]"] ;
301 -> 302 ;
303 [label="gini = 0.444\nsamples = 3\nvalue = [1, 2]"] ;
302 -> 303 ;
304 [label="gini = 0.0\nsamples = 1\nvalue = [0, 1]"] ;
302 -> 304 ;
305 [label="gini = 0.0\nsamples = 1\nvalue = [1, 0]"] ;
301 -> 305 ;
306 [label="gini = 0.0\nsamples = 1\nvalue = [0, 1]"] ;
300 -> 306 ;
307 [label="gini = 0.0\nsamples = 1\nvalue = [1, 0]"] ;
299 -> 307 ;
308 [label="gini = 0.0\nsamples = 1\nvalue = [1, 0]"] ;
298 -> 308 ;
309 [label="gini = 0.0\nsamples = 6\nvalue = [0, 6]"] ;
281 -> 309 ;
310 [label="gini = 0.0\nsamples = 1\nvalue = [1, 0]"] ;
280 -> 310 ;
311 [label="X[4] <= 0.5\ngini = 0.157\nsamples = 105\nvalue = [9, 96]"] ;
277 -> 311 ;
312 [label="X[6] <= 0.5\ngini = 0.075\nsamples = 51\nvalue = [2, 49]"] ;
311 -> 312 ;
313 [label="X[18] <= 2.5\ngini = 0.043\nsamples = 46\nvalue = [1, 45]"] ;
312 -> 313 ;
314 [label="gini = 0.0\nsamples = 39\nvalue = [0, 39]"] ;
313 -> 314 ;
315 [label="X[11] <= 1.0\ngini = 0.245\nsamples = 7\nvalue = [1, 6]"] ;
313 -> 315 ;
316 [label="gini = 0.0\nsamples = 5\nvalue = [0, 5]"] ;
315 -> 316 ;
317 [label="X[3] <= 79.675\ngini = 0.5\nsamples = 2\nvalue = [1, 1]"] ;
315 -> 317 ;
318 [label="gini = 0.0\nsamples = 1\nvalue = [1, 0]"] ;
317 -> 318 ;
319 [label="gini = 0.0\nsamples = 1\nvalue = [0, 1]"] ;
317 -> 319 ;
320 [label="X[3] <= 84.7\ngini = 0.32\nsamples = 5\nvalue = [1, 4]"] ;
312 -> 320 ;
321 [label="gini = 0.0\nsamples = 4\nvalue = [0, 4]"] ;
320 -> 321 ;
322 [label="gini = 0.0\nsamples = 1\nvalue = [1, 0]"] ;
320 -> 322 ;
323 [label="X[18] <= 1.5\ngini = 0.226\nsamples = 54\nvalue = [7, 47]"] ;
311 -> 323 ;
324 [label="X[17] <= 0.5\ngini = 0.5\nsamples = 4\nvalue = [2, 2]"] ;
323 -> 324 ;
325 [label="gini = 0.0\nsamples = 2\nvalue = [2, 0]"] ;
324 -> 325 ;
326 [label="gini = 0.0\nsamples = 2\nvalue = [0, 2]"] ;
324 -> 326 ;
327 [label="X[11] <= 1.0\ngini = 0.18\nsamples = 50\nvalue = [5, 45]"] ;
323 -> 327 ;
328 [label="X[3] <= 75.2\ngini = 0.156\nsamples = 47\nvalue = [4, 43]"] ;
327 -> 328 ;
329 [label="X[17] <= 0.5\ngini = 0.278\nsamples = 12\nvalue = [2, 10]"] ;
328 -> 329 ;
330 [label="gini = 0.0\nsamples = 1\nvalue = [1, 0]"] ;
329 -> 330 ;
331 [label="X[3] <= 75.0\ngini = 0.165\nsamples = 11\nvalue = [1, 10]"] ;
329 -> 331 ;
332 [label="gini = 0.0\nsamples = 10\nvalue = [0, 10]"] ;
331 -> 332 ;
333 [label="gini = 0.0\nsamples = 1\nvalue = [1, 0]"] ;
331 -> 333 ;
334 [label="X[2] <= 80.525\ngini = 0.108\nsamples = 35\nvalue = [2, 33]"] ;
328 -> 334 ;
335 [label="gini = 0.0\nsamples = 15\nvalue = [0, 15]"] ;
334 -> 335 ;
336 [label="X[3] <= 80.675\ngini = 0.18\nsamples = 20\nvalue = [2, 18]"] ;
334 -> 336 ;
337 [label="X[5] <= 0.5\ngini = 0.5\nsamples = 2\nvalue = [1, 1]"] ;
336 -> 337 ;
338 [label="gini = 0.0\nsamples = 1\nvalue = [1, 0]"] ;
337 -> 338 ;
339 [label="gini = 0.0\nsamples = 1\nvalue = [0, 1]"] ;
337 -> 339 ;
340 [label="X[8] <= 1.0\ngini = 0.105\nsamples = 18\nvalue = [1, 17]"] ;
336 -> 340 ;
341 [label="X[2] <= 89.2\ngini = 0.198\nsamples = 9\nvalue = [1, 8]"] ;
340 -> 341 ;
342 [label="gini = 0.0\nsamples = 5\nvalue = [0, 5]"] ;
341 -> 342 ;
343 [label="X[2] <= 89.4\ngini = 0.375\nsamples = 4\nvalue = [1, 3]"] ;
341 -> 343 ;
344 [label="gini = 0.0\nsamples = 1\nvalue = [1, 0]"] ;
343 -> 344 ;
345 [label="gini = 0.0\nsamples = 3\nvalue = [0, 3]"] ;
343 -> 345 ;
346 [label="gini = 0.0\nsamples = 9\nvalue = [0, 9]"] ;
340 -> 346 ;
347 [label="X[15] <= 1.0\ngini = 0.444\nsamples = 3\nvalue = [1, 2]"] ;
327 -> 347 ;
348 [label="gini = 0.0\nsamples = 2\nvalue = [0, 2]"] ;
347 -> 348 ;
349 [label="gini = 0.0\nsamples = 1\nvalue = [1, 0]"] ;
347 -> 349 ;
350 [label="X[3] <= 75.3\ngini = 0.49\nsamples = 7\nvalue = [4, 3]"] ;
274 -> 350 ;
351 [label="gini = 0.0\nsamples = 3\nvalue = [3, 0]"] ;
350 -> 351 ;
352 [label="X[3] <= 93.775\ngini = 0.375\nsamples = 4\nvalue = [1, 3]"] ;
350 -> 352 ;
353 [label="gini = 0.0\nsamples = 3\nvalue = [0, 3]"] ;
352 -> 353 ;
354 [label="gini = 0.0\nsamples = 1\nvalue = [1, 0]"] ;
352 -> 354 ;
355 [label="X[2] <= 75.7\ngini = 0.429\nsamples = 446\nvalue = [139, 307]"] ;
273 -> 355 ;
356 [label="X[8] <= 1.0\ngini = 0.498\nsamples = 134\nvalue = [63, 71]"] ;
355 -> 356 ;
357 [label="X[3] <= 658.575\ngini = 0.496\nsamples = 90\nvalue = [49, 41]"] ;
356 -> 357 ;
358 [label="X[3] <= 561.775\ngini = 0.488\nsamples = 85\nvalue = [49, 36]"] ;
357 -> 358 ;
359 [label="X[11] <= 1.0\ngini = 0.496\nsamples = 79\nvalue = [43, 36]"] ;
358 -> 359 ;
360 [label="X[3] <= 522.475\ngini = 0.5\nsamples = 71\nvalue = [36, 35]"] ;
359 -> 360 ;
361 [label="X[18] <= 0.5\ngini = 0.497\nsamples = 67\nvalue = [36, 31]"] ;
360 -> 361 ;
362 [label="X[1] <= 5.5\ngini = 0.375\nsamples = 8\nvalue = [2, 6]"] ;
361 -> 362 ;
363 [label="gini = 0.0\nsamples = 5\nvalue = [0, 5]"] ;
362 -> 363 ;
364 [label="X[12] <= 1.0\ngini = 0.444\nsamples = 3\nvalue = [2, 1]"] ;
362 -> 364 ;
365 [label="gini = 0.0\nsamples = 2\nvalue = [2, 0]"] ;
364 -> 365 ;
366 [label="gini = 0.0\nsamples = 1\nvalue = [0, 1]"] ;
364 -> 366 ;
367 [label="X[3] <= 309.75\ngini = 0.488\nsamples = 59\nvalue = [34, 25]"] ;
361 -> 367 ;
368 [label="X[2] <= 70.375\ngini = 0.444\nsamples = 39\nvalue = [26, 13]"] ;
367 -> 368 ;
369 [label="X[5] <= 0.5\ngini = 0.33\nsamples = 24\nvalue = [19, 5]"] ;
368 -> 369 ;
370 [label="X[3] <= 265.0\ngini = 0.43\nsamples = 16\nvalue = [11, 5]"] ;
369 -> 370 ;
371 [label="X[0] <= 0.5\ngini = 0.391\nsamples = 15\nvalue = [11, 4]"] ;
370 -> 371 ;
372 [label="X[3] <= 233.825\ngini = 0.278\nsamples = 12\nvalue = [10, 2]"] ;
371 -> 372 ;
373 [label="X[17] <= 0.5\ngini = 0.165\nsamples = 11\nvalue = [10, 1]"] ;
372 -> 373 ;
374 [label="X[3] <= 142.2\ngini = 0.5\nsamples = 2\nvalue = [1, 1]"] ;
373 -> 374 ;
375 [label="gini = 0.0\nsamples = 1\nvalue = [1, 0]"] ;
374 -> 375 ;
376 [label="gini = 0.0\nsamples = 1\nvalue = [0, 1]"] ;
374 -> 376 ;
377 [label="gini = 0.0\nsamples = 9\nvalue = [9, 0]"] ;
373 -> 377 ;
378 [label="gini = 0.0\nsamples = 1\nvalue = [0, 1]"] ;
372 -> 378 ;
379 [label="X[4] <= 0.5\ngini = 0.444\nsamples = 3\nvalue = [1, 2]"] ;
371 -> 379 ;
380 [label="gini = 0.0\nsamples = 2\nvalue = [0, 2]"] ;
379 -> 380 ;
381 [label="gini = 0.0\nsamples = 1\nvalue = [1, 0]"] ;
379 -> 381 ;
382 [label="gini = 0.0\nsamples = 1\nvalue = [0, 1]"] ;
370 -> 382 ;
383 [label="gini = 0.0\nsamples = 8\nvalue = [8, 0]"] ;
369 -> 383 ;
384 [label="X[4] <= 0.5\ngini = 0.498\nsamples = 15\nvalue = [7, 8]"] ;
368 -> 384 ;
385 [label="X[12] <= 1.0\ngini = 0.375\nsamples = 8\nvalue = [2, 6]"] ;
384 -> 385 ;
386 [label="X[18] <= 1.5\ngini = 0.245\nsamples = 7\nvalue = [1, 6]"] ;
385 -> 386 ;
387 [label="gini = 0.0\nsamples = 1\nvalue = [1, 0]"] ;
386 -> 387 ;
388 [label="gini = 0.0\nsamples = 6\nvalue = [0, 6]"] ;
386 -> 388 ;
389 [label="gini = 0.0\nsamples = 1\nvalue = [1, 0]"] ;
385 -> 389 ;
390 [label="X[2] <= 70.675\ngini = 0.408\nsamples = 7\nvalue = [5, 2]"] ;
384 -> 390 ;
391 [label="gini = 0.0\nsamples = 2\nvalue = [2, 0]"] ;
390 -> 391 ;
392 [label="X[3] <= 140.4\ngini = 0.48\nsamples = 5\nvalue = [3, 2]"] ;
390 -> 392 ;
393 [label="gini = 0.0\nsamples = 2\nvalue = [2, 0]"] ;
392 -> 393 ;
394 [label="X[1] <= 3.0\ngini = 0.444\nsamples = 3\nvalue = [1, 2]"] ;
392 -> 394 ;
395 [label="X[2] <= 71.0\ngini = 0.5\nsamples = 2\nvalue = [1, 1]"] ;
394 -> 395 ;
396 [label="gini = 0.0\nsamples = 1\nvalue = [0, 1]"] ;
395 -> 396 ;
397 [label="gini = 0.0\nsamples = 1\nvalue = [1, 0]"] ;
395 -> 397 ;
398 [label="gini = 0.0\nsamples = 1\nvalue = [0, 1]"] ;
394 -> 398 ;
399 [label="X[3] <= 350.575\ngini = 0.48\nsamples = 20\nvalue = [8, 12]"] ;
367 -> 399 ;
400 [label="gini = 0.0\nsamples = 7\nvalue = [0, 7]"] ;
399 -> 400 ;
401 [label="X[5] <= 0.5\ngini = 0.473\nsamples = 13\nvalue = [8, 5]"] ;
399 -> 401 ;
402 [label="X[3] <= 434.55\ngini = 0.346\nsamples = 9\nvalue = [7, 2]"] ;
401 -> 402 ;
403 [label="X[3] <= 408.925\ngini = 0.48\nsamples = 5\nvalue = [3, 2]"] ;
402 -> 403 ;
404 [label="gini = 0.0\nsamples = 2\nvalue = [2, 0]"] ;
403 -> 404 ;
405 [label="X[18] <= 1.5\ngini = 0.444\nsamples = 3\nvalue = [1, 2]"] ;
403 -> 405 ;
406 [label="gini = 0.0\nsamples = 1\nvalue = [1, 0]"] ;
405 -> 406 ;
407 [label="gini = 0.0\nsamples = 2\nvalue = [0, 2]"] ;
405 -> 407 ;
408 [label="gini = 0.0\nsamples = 4\nvalue = [4, 0]"] ;
402 -> 408 ;
409 [label="X[1] <= 6.0\ngini = 0.375\nsamples = 4\nvalue = [1, 3]"] ;
401 -> 409 ;
410 [label="gini = 0.0\nsamples = 1\nvalue = [1, 0]"] ;
409 -> 410 ;
411 [label="gini = 0.0\nsamples = 3\nvalue = [0, 3]"] ;
409 -> 411 ;
412 [label="gini = 0.0\nsamples = 4\nvalue = [0, 4]"] ;
360 -> 412 ;
413 [label="X[0] <= 0.5\ngini = 0.219\nsamples = 8\nvalue = [7, 1]"] ;
359 -> 413 ;
414 [label="gini = 0.0\nsamples = 5\nvalue = [5, 0]"] ;
413 -> 414 ;
415 [label="X[2] <= 74.65\ngini = 0.444\nsamples = 3\nvalue = [2, 1]"] ;
413 -> 415 ;
416 [label="gini = 0.0\nsamples = 2\nvalue = [2, 0]"] ;
415 -> 416 ;
417 [label="gini = 0.0\nsamples = 1\nvalue = [0, 1]"] ;
415 -> 417 ;
418 [label="gini = 0.0\nsamples = 6\nvalue = [6, 0]"] ;
358 -> 418 ;
419 [label="gini = 0.0\nsamples = 5\nvalue = [0, 5]"] ;
357 -> 419 ;
420 [label="X[3] <= 530.475\ngini = 0.434\nsamples = 44\nvalue = [14, 30]"] ;
356 -> 420 ;
421 [label="X[2] <= 75.575\ngini = 0.334\nsamples = 33\nvalue = [7, 26]"] ;
420 -> 421 ;
422 [label="X[2] <= 74.975\ngini = 0.271\nsamples = 31\nvalue = [5, 26]"] ;
421 -> 422 ;
423 [label="X[2] <= 74.925\ngini = 0.375\nsamples = 20\nvalue = [5, 15]"] ;
422 -> 423 ;
424 [label="X[3] <= 368.05\ngini = 0.332\nsamples = 19\nvalue = [4, 15]"] ;
423 -> 424 ;
425 [label="X[0] <= 0.5\ngini = 0.231\nsamples = 15\nvalue = [2, 13]"] ;
424 -> 425 ;
426 [label="gini = 0.0\nsamples = 9\nvalue = [0, 9]"] ;
425 -> 426 ;
427 [label="X[3] <= 300.525\ngini = 0.444\nsamples = 6\nvalue = [2, 4]"] ;
425 -> 427 ;
428 [label="X[2] <= 74.65\ngini = 0.444\nsamples = 3\nvalue = [2, 1]"] ;
427 -> 428 ;
429 [label="gini = 0.0\nsamples = 2\nvalue = [2, 0]"] ;
428 -> 429 ;
430 [label="gini = 0.0\nsamples = 1\nvalue = [0, 1]"] ;
428 -> 430 ;
431 [label="gini = 0.0\nsamples = 3\nvalue = [0, 3]"] ;
427 -> 431 ;
432 [label="X[3] <= 502.625\ngini = 0.5\nsamples = 4\nvalue = [2, 2]"] ;
424 -> 432 ;
433 [label="gini = 0.0\nsamples = 2\nvalue = [2, 0]"] ;
432 -> 433 ;
434 [label="gini = 0.0\nsamples = 2\nvalue = [0, 2]"] ;
432 -> 434 ;
435 [label="gini = 0.0\nsamples = 1\nvalue = [1, 0]"] ;
423 -> 435 ;
436 [label="gini = 0.0\nsamples = 11\nvalue = [0, 11]"] ;
422 -> 436 ;
437 [label="gini = 0.0\nsamples = 2\nvalue = [2, 0]"] ;
421 -> 437 ;
438 [label="X[3] <= 792.975\ngini = 0.463\nsamples = 11\nvalue = [7, 4]"] ;
420 -> 438 ;
439 [label="X[4] <= 0.5\ngini = 0.346\nsamples = 9\nvalue = [7, 2]"] ;
438 -> 439 ;
440 [label="X[2] <= 74.675\ngini = 0.48\nsamples = 5\nvalue = [3, 2]"] ;
439 -> 440 ;
441 [label="gini = 0.0\nsamples = 2\nvalue = [2, 0]"] ;
440 -> 441 ;
442 [label="X[2] <= 75.05\ngini = 0.444\nsamples = 3\nvalue = [1, 2]"] ;
440 -> 442 ;
443 [label="gini = 0.0\nsamples = 2\nvalue = [0, 2]"] ;
442 -> 443 ;
444 [label="gini = 0.0\nsamples = 1\nvalue = [1, 0]"] ;
442 -> 444 ;
445 [label="gini = 0.0\nsamples = 4\nvalue = [4, 0]"] ;
439 -> 445 ;
446 [label="gini = 0.0\nsamples = 2\nvalue = [0, 2]"] ;
438 -> 446 ;
447 [label="X[2] <= 106.925\ngini = 0.369\nsamples = 312\nvalue = [76, 236]"] ;
355 -> 447 ;
448 [label="X[18] <= 2.5\ngini = 0.363\nsamples = 310\nvalue = [74, 236]"] ;
447 -> 448 ;
449 [label="X[13] <= 1.0\ngini = 0.346\nsamples = 283\nvalue = [63, 220]"] ;
448 -> 449 ;
450 [label="X[3] <= 138.7\ngini = 0.323\nsamples = 252\nvalue = [51, 201]"] ;
449 -> 450 ;
451 [label="gini = 0.0\nsamples = 1\nvalue = [1, 0]"] ;
450 -> 451 ;
452 [label="X[2] <= 96.575\ngini = 0.319\nsamples = 251\nvalue = [50, 201]"] ;
450 -> 452 ;
453 [label="X[2] <= 96.525\ngini = 0.339\nsamples = 222\nvalue = [48, 174]"] ;
452 -> 453 ;
454 [label="X[3] <= 817.425\ngini = 0.335\nsamples = 221\nvalue = [47, 174]"] ;
453 -> 454 ;
455 [label="X[3] <= 779.75\ngini = 0.352\nsamples = 202\nvalue = [46, 156]"] ;
454 -> 455 ;
456 [label="X[3] <= 727.3\ngini = 0.336\nsamples = 192\nvalue = [41, 151]"] ;
455 -> 456 ;
457 [label="X[3] <= 682.45\ngini = 0.353\nsamples = 179\nvalue = [41, 138]"] ;
456 -> 457 ;
458 [label="X[2] <= 79.425\ngini = 0.326\nsamples = 171\nvalue = [35, 136]"] ;
457 -> 458 ;
459 [label="X[3] <= 662.4\ngini = 0.121\nsamples = 31\nvalue = [2, 29]"] ;
458 -> 459 ;
460 [label="X[11] <= 1.0\ngini = 0.064\nsamples = 30\nvalue = [1, 29]"] ;
459 -> 460 ;
461 [label="gini = 0.0\nsamples = 25\nvalue = [0, 25]"] ;
460 -> 461 ;
462 [label="X[1] <= 5.5\ngini = 0.32\nsamples = 5\nvalue = [1, 4]"] ;
460 -> 462 ;
463 [label="gini = 0.0\nsamples = 4\nvalue = [0, 4]"] ;
462 -> 463 ;
464 [label="gini = 0.0\nsamples = 1\nvalue = [1, 0]"] ;
462 -> 464 ;
465 [label="gini = 0.0\nsamples = 1\nvalue = [1, 0]"] ;
459 -> 465 ;
466 [label="X[8] <= 1.0\ngini = 0.36\nsamples = 140\nvalue = [33, 107]"] ;
458 -> 466 ;
467 [label="X[0] <= 0.5\ngini = 0.424\nsamples = 72\nvalue = [22, 50]"] ;
466 -> 467 ;
468 [label="X[3] <= 386.925\ngini = 0.361\nsamples = 55\nvalue = [13, 42]"] ;
467 -> 468 ;
469 [label="X[3] <= 215.025\ngini = 0.464\nsamples = 30\nvalue = [11, 19]"] ;
468 -> 469 ;
470 [label="X[2] <= 80.075\ngini = 0.142\nsamples = 13\nvalue = [1, 12]"] ;
469 -> 470 ;
471 [label="X[2] <= 79.85\ngini = 0.444\nsamples = 3\nvalue = [1, 2]"] ;
470 -> 471 ;
472 [label="gini = 0.0\nsamples = 2\nvalue = [0, 2]"] ;
471 -> 472 ;
473 [label="gini = 0.0\nsamples = 1\nvalue = [1, 0]"] ;
471 -> 473 ;
474 [label="gini = 0.0\nsamples = 10\nvalue = [0, 10]"] ;
470 -> 474 ;
475 [label="X[12] <= 1.0\ngini = 0.484\nsamples = 17\nvalue = [10, 7]"] ;
469 -> 475 ;
476 [label="X[3] <= 239.95\ngini = 0.5\nsamples = 14\nvalue = [7, 7]"] ;
475 -> 476 ;
477 [label="gini = 0.0\nsamples = 3\nvalue = [3, 0]"] ;
476 -> 477 ;
478 [label="X[3] <= 340.2\ngini = 0.463\nsamples = 11\nvalue = [4, 7]"] ;
476 -> 478 ;
479 [label="X[2] <= 90.725\ngini = 0.346\nsamples = 9\nvalue = [2, 7]"] ;
478 -> 479 ;
480 [label="gini = 0.0\nsamples = 6\nvalue = [0, 6]"] ;
479 -> 480 ;
481 [label="X[3] <= 300.275\ngini = 0.444\nsamples = 3\nvalue = [2, 1]"] ;
479 -> 481 ;
482 [label="gini = 0.0\nsamples = 2\nvalue = [2, 0]"] ;
481 -> 482 ;
483 [label="gini = 0.0\nsamples = 1\nvalue = [0, 1]"] ;
481 -> 483 ;
484 [label="gini = 0.0\nsamples = 2\nvalue = [2, 0]"] ;
478 -> 484 ;
485 [label="gini = 0.0\nsamples = 3\nvalue = [3, 0]"] ;
475 -> 485 ;
486 [label="X[1] <= 8.5\ngini = 0.147\nsamples = 25\nvalue = [2, 23]"] ;
468 -> 486 ;
487 [label="X[2] <= 80.05\ngini = 0.08\nsamples = 24\nvalue = [1, 23]"] ;
486 -> 487 ;
488 [label="X[18] <= 1.0\ngini = 0.444\nsamples = 3\nvalue = [1, 2]"] ;
487 -> 488 ;
489 [label="gini = 0.0\nsamples = 1\nvalue = [1, 0]"] ;
488 -> 489 ;
490 [label="gini = 0.0\nsamples = 2\nvalue = [0, 2]"] ;
488 -> 490 ;
491 [label="gini = 0.0\nsamples = 21\nvalue = [0, 21]"] ;
487 -> 491 ;
492 [label="gini = 0.0\nsamples = 1\nvalue = [1, 0]"] ;
486 -> 492 ;
493 [label="X[12] <= 1.0\ngini = 0.498\nsamples = 17\nvalue = [9, 8]"] ;
467 -> 493 ;
494 [label="X[5] <= 0.5\ngini = 0.49\nsamples = 14\nvalue = [6, 8]"] ;
493 -> 494 ;
495 [label="X[2] <= 89.425\ngini = 0.48\nsamples = 10\nvalue = [6, 4]"] ;
494 -> 495 ;
496 [label="X[1] <= 4.0\ngini = 0.375\nsamples = 8\nvalue = [6, 2]"] ;
495 -> 496 ;
497 [label="X[11] <= 1.0\ngini = 0.444\nsamples = 3\nvalue = [1, 2]"] ;
496 -> 497 ;
498 [label="gini = 0.0\nsamples = 2\nvalue = [0, 2]"] ;
497 -> 498 ;
499 [label="gini = 0.0\nsamples = 1\nvalue = [1, 0]"] ;
497 -> 499 ;
500 [label="gini = 0.0\nsamples = 5\nvalue = [5, 0]"] ;
496 -> 500 ;
501 [label="gini = 0.0\nsamples = 2\nvalue = [0, 2]"] ;
495 -> 501 ;
502 [label="gini = 0.0\nsamples = 4\nvalue = [0, 4]"] ;
494 -> 502 ;
503 [label="gini = 0.0\nsamples = 3\nvalue = [3, 0]"] ;
493 -> 503 ;
504 [label="X[2] <= 79.675\ngini = 0.271\nsamples = 68\nvalue = [11, 57]"] ;
466 -> 504 ;
505 [label="gini = 0.0\nsamples = 1\nvalue = [1, 0]"] ;
504 -> 505 ;
506 [label="X[2] <= 96.1\ngini = 0.254\nsamples = 67\nvalue = [10, 57]"] ;
504 -> 506 ;
507 [label="X[3] <= 654.55\ngini = 0.236\nsamples = 66\nvalue = [9, 57]"] ;
506 -> 507 ;
508 [label="X[14] <= 1.0\ngini = 0.219\nsamples = 64\nvalue = [8, 56]"] ;
507 -> 508 ;
509 [label="X[2] <= 90.4\ngini = 0.117\nsamples = 32\nvalue = [2, 30]"] ;
508 -> 509 ;
510 [label="X[1] <= 2.5\ngini = 0.067\nsamples = 29\nvalue = [1, 28]"] ;
509 -> 510 ;
511 [label="X[3] <= 185.35\ngini = 0.32\nsamples = 5\nvalue = [1, 4]"] ;
510 -> 511 ;
512 [label="gini = 0.0\nsamples = 4\nvalue = [0, 4]"] ;
511 -> 512 ;
513 [label="gini = 0.0\nsamples = 1\nvalue = [1, 0]"] ;
511 -> 513 ;
514 [label="gini = 0.0\nsamples = 24\nvalue = [0, 24]"] ;
510 -> 514 ;
515 [label="X[1] <= 4.5\ngini = 0.444\nsamples = 3\nvalue = [1, 2]"] ;
509 -> 515 ;
516 [label="gini = 0.0\nsamples = 2\nvalue = [0, 2]"] ;
515 -> 516 ;
517 [label="gini = 0.0\nsamples = 1\nvalue = [1, 0]"] ;
515 -> 517 ;
518 [label="X[2] <= 84.4\ngini = 0.305\nsamples = 32\nvalue = [6, 26]"] ;
508 -> 518 ;
519 [label="X[2] <= 83.2\ngini = 0.5\nsamples = 4\nvalue = [2, 2]"] ;
518 -> 519 ;
520 [label="gini = 0.0\nsamples = 2\nvalue = [0, 2]"] ;
519 -> 520 ;
521 [label="gini = 0.0\nsamples = 2\nvalue = [2, 0]"] ;
519 -> 521 ;
522 [label="X[5] <= 0.5\ngini = 0.245\nsamples = 28\nvalue = [4, 24]"] ;
518 -> 522 ;
523 [label="X[11] <= 1.0\ngini = 0.165\nsamples = 22\nvalue = [2, 20]"] ;
522 -> 523 ;
524 [label="X[2] <= 94.575\ngini = 0.1\nsamples = 19\nvalue = [1, 18]"] ;
523 -> 524 ;
525 [label="gini = 0.0\nsamples = 15\nvalue = [0, 15]"] ;
524 -> 525 ;
526 [label="X[4] <= 0.5\ngini = 0.375\nsamples = 4\nvalue = [1, 3]"] ;
524 -> 526 ;
527 [label="gini = 0.0\nsamples = 2\nvalue = [0, 2]"] ;
526 -> 527 ;
528 [label="X[3] <= 399.275\ngini = 0.5\nsamples = 2\nvalue = [1, 1]"] ;
526 -> 528 ;
529 [label="gini = 0.0\nsamples = 1\nvalue = [1, 0]"] ;
528 -> 529 ;
530 [label="gini = 0.0\nsamples = 1\nvalue = [0, 1]"] ;
528 -> 530 ;
531 [label="X[3] <= 536.975\ngini = 0.444\nsamples = 3\nvalue = [1, 2]"] ;
523 -> 531 ;
532 [label="gini = 0.0\nsamples = 2\nvalue = [0, 2]"] ;
531 -> 532 ;
533 [label="gini = 0.0\nsamples = 1\nvalue = [1, 0]"] ;
531 -> 533 ;
534 [label="X[3] <= 276.375\ngini = 0.444\nsamples = 6\nvalue = [2, 4]"] ;
522 -> 534 ;
535 [label="gini = 0.0\nsamples = 2\nvalue = [2, 0]"] ;
534 -> 535 ;
536 [label="gini = 0.0\nsamples = 4\nvalue = [0, 4]"] ;
534 -> 536 ;
537 [label="X[2] <= 85.075\ngini = 0.5\nsamples = 2\nvalue = [1, 1]"] ;
507 -> 537 ;
538 [label="gini = 0.0\nsamples = 1\nvalue = [0, 1]"] ;
537 -> 538 ;
539 [label="gini = 0.0\nsamples = 1\nvalue = [1, 0]"] ;
537 -> 539 ;
540 [label="gini = 0.0\nsamples = 1\nvalue = [1, 0]"] ;
506 -> 540 ;
541 [label="X[8] <= 1.0\ngini = 0.375\nsamples = 8\nvalue = [6, 2]"] ;
457 -> 541 ;
542 [label="X[0] <= 0.5\ngini = 0.5\nsamples = 4\nvalue = [2, 2]"] ;
541 -> 542 ;
543 [label="gini = 0.0\nsamples = 2\nvalue = [0, 2]"] ;
542 -> 543 ;
544 [label="gini = 0.0\nsamples = 2\nvalue = [2, 0]"] ;
542 -> 544 ;
545 [label="gini = 0.0\nsamples = 4\nvalue = [4, 0]"] ;
541 -> 545 ;
546 [label="gini = 0.0\nsamples = 13\nvalue = [0, 13]"] ;
456 -> 546 ;
547 [label="X[12] <= 1.0\ngini = 0.5\nsamples = 10\nvalue = [5, 5]"] ;
455 -> 547 ;
548 [label="X[17] <= 0.5\ngini = 0.408\nsamples = 7\nvalue = [2, 5]"] ;
547 -> 548 ;
549 [label="gini = 0.0\nsamples = 1\nvalue = [1, 0]"] ;
548 -> 549 ;
550 [label="X[3] <= 792.625\ngini = 0.278\nsamples = 6\nvalue = [1, 5]"] ;
548 -> 550 ;
551 [label="X[3] <= 790.25\ngini = 0.5\nsamples = 2\nvalue = [1, 1]"] ;
550 -> 551 ;
552 [label="gini = 0.0\nsamples = 1\nvalue = [0, 1]"] ;
551 -> 552 ;
553 [label="gini = 0.0\nsamples = 1\nvalue = [1, 0]"] ;
551 -> 553 ;
554 [label="gini = 0.0\nsamples = 4\nvalue = [0, 4]"] ;
550 -> 554 ;
555 [label="gini = 0.0\nsamples = 3\nvalue = [3, 0]"] ;
547 -> 555 ;
556 [label="X[6] <= 0.5\ngini = 0.1\nsamples = 19\nvalue = [1, 18]"] ;
454 -> 556 ;
557 [label="gini = 0.0\nsamples = 17\nvalue = [0, 17]"] ;
556 -> 557 ;
558 [label="X[4] <= 0.5\ngini = 0.5\nsamples = 2\nvalue = [1, 1]"] ;
556 -> 558 ;
559 [label="gini = 0.0\nsamples = 1\nvalue = [1, 0]"] ;
558 -> 559 ;
560 [label="gini = 0.0\nsamples = 1\nvalue = [0, 1]"] ;
558 -> 560 ;
561 [label="gini = 0.0\nsamples = 1\nvalue = [1, 0]"] ;
453 -> 561 ;
562 [label="X[18] <= 1.5\ngini = 0.128\nsamples = 29\nvalue = [2, 27]"] ;
452 -> 562 ;
563 [label="X[11] <= 1.0\ngini = 0.375\nsamples = 8\nvalue = [2, 6]"] ;
562 -> 563 ;
564 [label="gini = 0.0\nsamples = 3\nvalue = [0, 3]"] ;
563 -> 564 ;
565 [label="X[3] <= 919.075\ngini = 0.48\nsamples = 5\nvalue = [2, 3]"] ;
563 -> 565 ;
566 [label="X[18] <= 0.5\ngini = 0.444\nsamples = 3\nvalue = [2, 1]"] ;
565 -> 566 ;
567 [label="gini = 0.0\nsamples = 1\nvalue = [0, 1]"] ;
566 -> 567 ;
568 [label="gini = 0.0\nsamples = 2\nvalue = [2, 0]"] ;
566 -> 568 ;
569 [label="gini = 0.0\nsamples = 2\nvalue = [0, 2]"] ;
565 -> 569 ;
570 [label="gini = 0.0\nsamples = 21\nvalue = [0, 21]"] ;
562 -> 570 ;
571 [label="X[1] <= 5.5\ngini = 0.475\nsamples = 31\nvalue = [12, 19]"] ;
449 -> 571 ;
572 [label="X[2] <= 84.075\ngini = 0.266\nsamples = 19\nvalue = [3, 16]"] ;
571 -> 572 ;
573 [label="X[4] <= 0.5\ngini = 0.48\nsamples = 5\nvalue = [2, 3]"] ;
572 -> 573 ;
574 [label="gini = 0.0\nsamples = 2\nvalue = [2, 0]"] ;
573 -> 574 ;
575 [label="gini = 0.0\nsamples = 3\nvalue = [0, 3]"] ;
573 -> 575 ;
576 [label="X[12] <= 1.0\ngini = 0.133\nsamples = 14\nvalue = [1, 13]"] ;
572 -> 576 ;
577 [label="gini = 0.0\nsamples = 9\nvalue = [0, 9]"] ;
576 -> 577 ;
578 [label="X[2] <= 92.75\ngini = 0.32\nsamples = 5\nvalue = [1, 4]"] ;
576 -> 578 ;
579 [label="X[6] <= 0.5\ngini = 0.5\nsamples = 2\nvalue = [1, 1]"] ;
578 -> 579 ;
580 [label="gini = 0.0\nsamples = 1\nvalue = [1, 0]"] ;
579 -> 580 ;
581 [label="gini = 0.0\nsamples = 1\nvalue = [0, 1]"] ;
579 -> 581 ;
582 [label="gini = 0.0\nsamples = 3\nvalue = [0, 3]"] ;
578 -> 582 ;
583 [label="X[3] <= 977.625\ngini = 0.375\nsamples = 12\nvalue = [9, 3]"] ;
571 -> 583 ;
584 [label="X[11] <= 1.0\ngini = 0.18\nsamples = 10\nvalue = [9, 1]"] ;
583 -> 584 ;
585 [label="gini = 0.0\nsamples = 8\nvalue = [8, 0]"] ;
584 -> 585 ;
586 [label="X[1] <= 8.0\ngini = 0.5\nsamples = 2\nvalue = [1, 1]"] ;
584 -> 586 ;
587 [label="gini = 0.0\nsamples = 1\nvalue = [0, 1]"] ;
586 -> 587 ;
588 [label="gini = 0.0\nsamples = 1\nvalue = [1, 0]"] ;
586 -> 588 ;
589 [label="gini = 0.0\nsamples = 2\nvalue = [0, 2]"] ;
583 -> 589 ;
590 [label="X[2] <= 79.275\ngini = 0.483\nsamples = 27\nvalue = [11, 16]"] ;
448 -> 590 ;
591 [label="gini = 0.0\nsamples = 2\nvalue = [2, 0]"] ;
590 -> 591 ;
592 [label="X[3] <= 522.725\ngini = 0.461\nsamples = 25\nvalue = [9, 16]"] ;
590 -> 592 ;
593 [label="X[3] <= 500.725\ngini = 0.494\nsamples = 18\nvalue = [8, 10]"] ;
592 -> 593 ;
594 [label="X[5] <= 0.5\ngini = 0.469\nsamples = 16\nvalue = [6, 10]"] ;
593 -> 594 ;
595 [label="X[4] <= 0.5\ngini = 0.5\nsamples = 12\nvalue = [6, 6]"] ;
594 -> 595 ;
596 [label="X[2] <= 97.375\ngini = 0.469\nsamples = 8\nvalue = [3, 5]"] ;
595 -> 596 ;
597 [label="X[2] <= 85.75\ngini = 0.408\nsamples = 7\nvalue = [2, 5]"] ;
596 -> 597 ;
598 [label="X[3] <= 157.625\ngini = 0.5\nsamples = 4\nvalue = [2, 2]"] ;
597 -> 598 ;
599 [label="gini = 0.0\nsamples = 1\nvalue = [0, 1]"] ;
598 -> 599 ;
600 [label="X[12] <= 1.0\ngini = 0.444\nsamples = 3\nvalue = [2, 1]"] ;
598 -> 600 ;
601 [label="gini = 0.0\nsamples = 2\nvalue = [2, 0]"] ;
600 -> 601 ;
602 [label="gini = 0.0\nsamples = 1\nvalue = [0, 1]"] ;
600 -> 602 ;
603 [label="gini = 0.0\nsamples = 3\nvalue = [0, 3]"] ;
597 -> 603 ;
604 [label="gini = 0.0\nsamples = 1\nvalue = [1, 0]"] ;
596 -> 604 ;
605 [label="X[12] <= 1.0\ngini = 0.375\nsamples = 4\nvalue = [3, 1]"] ;
595 -> 605 ;
606 [label="gini = 0.0\nsamples = 2\nvalue = [2, 0]"] ;
605 -> 606 ;
607 [label="X[2] <= 89.1\ngini = 0.5\nsamples = 2\nvalue = [1, 1]"] ;
605 -> 607 ;
608 [label="gini = 0.0\nsamples = 1\nvalue = [0, 1]"] ;
607 -> 608 ;
609 [label="gini = 0.0\nsamples = 1\nvalue = [1, 0]"] ;
607 -> 609 ;
610 [label="gini = 0.0\nsamples = 4\nvalue = [0, 4]"] ;
594 -> 610 ;
611 [label="gini = 0.0\nsamples = 2\nvalue = [2, 0]"] ;
593 -> 611 ;
612 [label="X[1] <= 8.0\ngini = 0.245\nsamples = 7\nvalue = [1, 6]"] ;
592 -> 612 ;
613 [label="gini = 0.0\nsamples = 5\nvalue = [0, 5]"] ;
612 -> 613 ;
614 [label="X[11] <= 1.0\ngini = 0.5\nsamples = 2\nvalue = [1, 1]"] ;
612 -> 614 ;
615 [label="gini = 0.0\nsamples = 1\nvalue = [1, 0]"] ;
614 -> 615 ;
616 [label="gini = 0.0\nsamples = 1\nvalue = [0, 1]"] ;
614 -> 616 ;
617 [label="gini = 0.0\nsamples = 2\nvalue = [2, 0]"] ;
447 -> 617 ;
618 [label="X[9] <= 0.5\ngini = 0.482\nsamples = 1105\nvalue = [656, 449]"] ;
2 -> 618 ;
619 [label="X[7] <= 0.5\ngini = 0.327\nsamples = 287\nvalue = [228, 59]"] ;
618 -> 619 ;
620 [label="X[18] <= 2.5\ngini = 0.416\nsamples = 112\nvalue = [79, 33]"] ;
619 -> 620 ;
621 [label="X[2] <= 29.6\ngini = 0.449\nsamples = 94\nvalue = [62, 32]"] ;
620 -> 621 ;
622 [label="X[2] <= 24.025\ngini = 0.266\nsamples = 19\nvalue = [16, 3]"] ;
621 -> 622 ;
623 [label="gini = 0.0\nsamples = 1\nvalue = [0, 1]"] ;
622 -> 623 ;
624 [label="X[4] <= 0.5\ngini = 0.198\nsamples = 18\nvalue = [16, 2]"] ;
622 -> 624 ;
625 [label="X[1] <= 24.5\ngini = 0.408\nsamples = 7\nvalue = [5, 2]"] ;
624 -> 625 ;
626 [label="gini = 0.0\nsamples = 3\nvalue = [3, 0]"] ;
625 -> 626 ;
627 [label="X[1] <= 32.0\ngini = 0.5\nsamples = 4\nvalue = [2, 2]"] ;
625 -> 627 ;
628 [label="gini = 0.0\nsamples = 1\nvalue = [0, 1]"] ;
627 -> 628 ;
629 [label="X[1] <= 36.0\ngini = 0.444\nsamples = 3\nvalue = [2, 1]"] ;
627 -> 629 ;
630 [label="gini = 0.0\nsamples = 1\nvalue = [1, 0]"] ;
629 -> 630 ;
631 [label="X[17] <= 0.5\ngini = 0.5\nsamples = 2\nvalue = [1, 1]"] ;
629 -> 631 ;
632 [label="gini = 0.0\nsamples = 1\nvalue = [0, 1]"] ;
631 -> 632 ;
633 [label="gini = 0.0\nsamples = 1\nvalue = [1, 0]"] ;
631 -> 633 ;
634 [label="gini = 0.0\nsamples = 11\nvalue = [11, 0]"] ;
624 -> 634 ;
635 [label="X[3] <= 2987.875\ngini = 0.474\nsamples = 75\nvalue = [46, 29]"] ;
621 -> 635 ;
636 [label="X[2] <= 50.7\ngini = 0.487\nsamples = 69\nvalue = [40, 29]"] ;
635 -> 636 ;
637 [label="X[2] <= 31.125\ngini = 0.468\nsamples = 59\nvalue = [37, 22]"] ;
636 -> 637 ;
638 [label="X[5] <= 0.5\ngini = 0.444\nsamples = 9\nvalue = [3, 6]"] ;
637 -> 638 ;
639 [label="X[6] <= 0.5\ngini = 0.278\nsamples = 6\nvalue = [1, 5]"] ;
638 -> 639 ;
640 [label="gini = 0.0\nsamples = 4\nvalue = [0, 4]"] ;
639 -> 640 ;
641 [label="X[18] <= 1.5\ngini = 0.5\nsamples = 2\nvalue = [1, 1]"] ;
639 -> 641 ;
642 [label="gini = 0.0\nsamples = 1\nvalue = [0, 1]"] ;
641 -> 642 ;
643 [label="gini = 0.0\nsamples = 1\nvalue = [1, 0]"] ;
641 -> 643 ;
644 [label="X[18] <= 1.5\ngini = 0.444\nsamples = 3\nvalue = [2, 1]"] ;
638 -> 644 ;
645 [label="gini = 0.0\nsamples = 2\nvalue = [2, 0]"] ;
644 -> 645 ;
646 [label="gini = 0.0\nsamples = 1\nvalue = [0, 1]"] ;
644 -> 646 ;
647 [label="X[4] <= 0.5\ngini = 0.435\nsamples = 50\nvalue = [34, 16]"] ;
637 -> 647 ;
648 [label="X[11] <= 1.0\ngini = 0.36\nsamples = 34\nvalue = [26, 8]"] ;
647 -> 648 ;
649 [label="X[1] <= 41.0\ngini = 0.434\nsamples = 22\nvalue = [15, 7]"] ;
648 -> 649 ;
650 [label="X[3] <= 1178.375\ngini = 0.408\nsamples = 21\nvalue = [15, 6]"] ;
649 -> 650 ;
651 [label="X[3] <= 487.275\ngini = 0.48\nsamples = 15\nvalue = [9, 6]"] ;
650 -> 651 ;
652 [label="gini = 0.0\nsamples = 1\nvalue = [0, 1]"] ;
651 -> 652 ;
653 [label="X[1] <= 15.0\ngini = 0.459\nsamples = 14\nvalue = [9, 5]"] ;
651 -> 653 ;
654 [label="gini = 0.0\nsamples = 4\nvalue = [4, 0]"] ;
653 -> 654 ;
655 [label="X[5] <= 0.5\ngini = 0.5\nsamples = 10\nvalue = [5, 5]"] ;
653 -> 655 ;
656 [label="X[0] <= 0.5\ngini = 0.444\nsamples = 6\nvalue = [4, 2]"] ;
655 -> 656 ;
657 [label="X[6] <= 0.5\ngini = 0.32\nsamples = 5\nvalue = [4, 1]"] ;
656 -> 657 ;
658 [label="gini = 0.0\nsamples = 4\nvalue = [4, 0]"] ;
657 -> 658 ;
659 [label="gini = 0.0\nsamples = 1\nvalue = [0, 1]"] ;
657 -> 659 ;
660 [label="gini = 0.0\nsamples = 1\nvalue = [0, 1]"] ;
656 -> 660 ;
661 [label="X[1] <= 26.0\ngini = 0.375\nsamples = 4\nvalue = [1, 3]"] ;
655 -> 661 ;
662 [label="gini = 0.0\nsamples = 3\nvalue = [0, 3]"] ;
661 -> 662 ;
663 [label="gini = 0.0\nsamples = 1\nvalue = [1, 0]"] ;
661 -> 663 ;
664 [label="gini = 0.0\nsamples = 6\nvalue = [6, 0]"] ;
650 -> 664 ;
665 [label="gini = 0.0\nsamples = 1\nvalue = [0, 1]"] ;
649 -> 665 ;
666 [label="X[0] <= 0.5\ngini = 0.153\nsamples = 12\nvalue = [11, 1]"] ;
648 -> 666 ;
667 [label="gini = 0.0\nsamples = 9\nvalue = [9, 0]"] ;
666 -> 667 ;
668 [label="X[3] <= 2101.85\ngini = 0.444\nsamples = 3\nvalue = [2, 1]"] ;
666 -> 668 ;
669 [label="gini = 0.0\nsamples = 1\nvalue = [0, 1]"] ;
668 -> 669 ;
670 [label="gini = 0.0\nsamples = 2\nvalue = [2, 0]"] ;
668 -> 670 ;
671 [label="X[2] <= 36.075\ngini = 0.5\nsamples = 16\nvalue = [8, 8]"] ;
647 -> 671 ;
672 [label="X[2] <= 33.9\ngini = 0.32\nsamples = 5\nvalue = [4, 1]"] ;
671 -> 672 ;
673 [label="gini = 0.0\nsamples = 1\nvalue = [0, 1]"] ;
672 -> 673 ;
674 [label="gini = 0.0\nsamples = 4\nvalue = [4, 0]"] ;
672 -> 674 ;
675 [label="X[2] <= 43.975\ngini = 0.463\nsamples = 11\nvalue = [4, 7]"] ;
671 -> 675 ;
676 [label="gini = 0.0\nsamples = 5\nvalue = [0, 5]"] ;
675 -> 676 ;
677 [label="X[1] <= 21.5\ngini = 0.444\nsamples = 6\nvalue = [4, 2]"] ;
675 -> 677 ;
678 [label="gini = 0.0\nsamples = 1\nvalue = [0, 1]"] ;
677 -> 678 ;
679 [label="X[0] <= 0.5\ngini = 0.32\nsamples = 5\nvalue = [4, 1]"] ;
677 -> 679 ;
680 [label="gini = 0.0\nsamples = 4\nvalue = [4, 0]"] ;
679 -> 680 ;
681 [label="gini = 0.0\nsamples = 1\nvalue = [0, 1]"] ;
679 -> 681 ;
682 [label="X[0] <= 0.5\ngini = 0.42\nsamples = 10\nvalue = [3, 7]"] ;
636 -> 682 ;
683 [label="gini = 0.0\nsamples = 5\nvalue = [0, 5]"] ;
682 -> 683 ;
684 [label="X[3] <= 2278.8\ngini = 0.48\nsamples = 5\nvalue = [3, 2]"] ;
682 -> 684 ;
685 [label="gini = 0.0\nsamples = 3\nvalue = [3, 0]"] ;
684 -> 685 ;
686 [label="gini = 0.0\nsamples = 2\nvalue = [0, 2]"] ;
684 -> 686 ;
687 [label="gini = 0.0\nsamples = 6\nvalue = [6, 0]"] ;
635 -> 687 ;
688 [label="X[2] <= 37.5\ngini = 0.105\nsamples = 18\nvalue = [17, 1]"] ;
620 -> 688 ;
689 [label="gini = 0.0\nsamples = 16\nvalue = [16, 0]"] ;
688 -> 689 ;
690 [label="X[3] <= 758.1\ngini = 0.5\nsamples = 2\nvalue = [1, 1]"] ;
688 -> 690 ;
691 [label="gini = 0.0\nsamples = 1\nvalue = [0, 1]"] ;
690 -> 691 ;
692 [label="gini = 0.0\nsamples = 1\nvalue = [1, 0]"] ;
690 -> 692 ;
693 [label="X[3] <= 487.85\ngini = 0.253\nsamples = 175\nvalue = [149, 26]"] ;
619 -> 693 ;
694 [label="gini = 0.0\nsamples = 2\nvalue = [0, 2]"] ;
693 -> 694 ;
695 [label="X[2] <= 66.375\ngini = 0.239\nsamples = 173\nvalue = [149, 24]"] ;
693 -> 695 ;
696 [label="X[2] <= 54.95\ngini = 0.275\nsamples = 146\nvalue = [122, 24]"] ;
695 -> 696 ;
697 [label="X[3] <= 904.625\ngini = 0.185\nsamples = 87\nvalue = [78, 9]"] ;
696 -> 697 ;
698 [label="X[3] <= 765.475\ngini = 0.326\nsamples = 39\nvalue = [31, 8]"] ;
697 -> 698 ;
699 [label="X[3] <= 609.375\ngini = 0.18\nsamples = 30\nvalue = [27, 3]"] ;
698 -> 699 ;
700 [label="X[3] <= 593.4\ngini = 0.375\nsamples = 12\nvalue = [9, 3]"] ;
699 -> 700 ;
701 [label="X[3] <= 520.4\ngini = 0.198\nsamples = 9\nvalue = [8, 1]"] ;
700 -> 701 ;
702 [label="X[17] <= 0.5\ngini = 0.444\nsamples = 3\nvalue = [2, 1]"] ;
701 -> 702 ;
703 [label="gini = 0.0\nsamples = 2\nvalue = [2, 0]"] ;
702 -> 703 ;
704 [label="gini = 0.0\nsamples = 1\nvalue = [0, 1]"] ;
702 -> 704 ;
705 [label="gini = 0.0\nsamples = 6\nvalue = [6, 0]"] ;
701 -> 705 ;
706 [label="X[11] <= 1.0\ngini = 0.444\nsamples = 3\nvalue = [1, 2]"] ;
700 -> 706 ;
707 [label="gini = 0.0\nsamples = 2\nvalue = [0, 2]"] ;
706 -> 707 ;
708 [label="gini = 0.0\nsamples = 1\nvalue = [1, 0]"] ;
706 -> 708 ;
709 [label="gini = 0.0\nsamples = 18\nvalue = [18, 0]"] ;
699 -> 709 ;
710 [label="X[2] <= 50.75\ngini = 0.494\nsamples = 9\nvalue = [4, 5]"] ;
698 -> 710 ;
711 [label="X[18] <= 1.5\ngini = 0.444\nsamples = 6\nvalue = [4, 2]"] ;
710 -> 711 ;
712 [label="gini = 0.0\nsamples = 2\nvalue = [2, 0]"] ;
711 -> 712 ;
713 [label="X[5] <= 0.5\ngini = 0.5\nsamples = 4\nvalue = [2, 2]"] ;
711 -> 713 ;
714 [label="X[3] <= 784.8\ngini = 0.444\nsamples = 3\nvalue = [2, 1]"] ;
713 -> 714 ;
715 [label="gini = 0.0\nsamples = 1\nvalue = [0, 1]"] ;
714 -> 715 ;
716 [label="gini = 0.0\nsamples = 2\nvalue = [2, 0]"] ;
714 -> 716 ;
717 [label="gini = 0.0\nsamples = 1\nvalue = [0, 1]"] ;
713 -> 717 ;
718 [label="gini = 0.0\nsamples = 3\nvalue = [0, 3]"] ;
710 -> 718 ;
719 [label="X[0] <= 0.5\ngini = 0.041\nsamples = 48\nvalue = [47, 1]"] ;
697 -> 719 ;
720 [label="gini = 0.0\nsamples = 42\nvalue = [42, 0]"] ;
719 -> 720 ;
721 [label="X[2] <= 51.0\ngini = 0.278\nsamples = 6\nvalue = [5, 1]"] ;
719 -> 721 ;
722 [label="gini = 0.0\nsamples = 1\nvalue = [0, 1]"] ;
721 -> 722 ;
723 [label="gini = 0.0\nsamples = 5\nvalue = [5, 0]"] ;
721 -> 723 ;
724 [label="X[2] <= 55.025\ngini = 0.379\nsamples = 59\nvalue = [44, 15]"] ;
696 -> 724 ;
725 [label="gini = 0.0\nsamples = 3\nvalue = [0, 3]"] ;
724 -> 725 ;
726 [label="X[2] <= 65.1\ngini = 0.337\nsamples = 56\nvalue = [44, 12]"] ;
724 -> 726 ;
727 [label="X[2] <= 61.625\ngini = 0.306\nsamples = 53\nvalue = [43, 10]"] ;
726 -> 727 ;
728 [label="X[15] <= 1.0\ngini = 0.369\nsamples = 41\nvalue = [31, 10]"] ;
727 -> 728 ;
729 [label="X[2] <= 55.275\ngini = 0.298\nsamples = 33\nvalue = [27, 6]"] ;
728 -> 729 ;
730 [label="X[1] <= 20.0\ngini = 0.5\nsamples = 4\nvalue = [2, 2]"] ;
729 -> 730 ;
731 [label="gini = 0.0\nsamples = 2\nvalue = [2, 0]"] ;
730 -> 731 ;
732 [label="gini = 0.0\nsamples = 2\nvalue = [0, 2]"] ;
730 -> 732 ;
733 [label="X[2] <= 59.975\ngini = 0.238\nsamples = 29\nvalue = [25, 4]"] ;
729 -> 733 ;
734 [label="X[1] <= 42.5\ngini = 0.159\nsamples = 23\nvalue = [21, 2]"] ;
733 -> 734 ;
735 [label="X[11] <= 1.0\ngini = 0.091\nsamples = 21\nvalue = [20, 1]"] ;
734 -> 735 ;
736 [label="gini = 0.0\nsamples = 15\nvalue = [15, 0]"] ;
735 -> 736 ;
737 [label="X[2] <= 57.725\ngini = 0.278\nsamples = 6\nvalue = [5, 1]"] ;
735 -> 737 ;
738 [label="gini = 0.0\nsamples = 4\nvalue = [4, 0]"] ;
737 -> 738 ;
739 [label="X[13] <= 1.0\ngini = 0.5\nsamples = 2\nvalue = [1, 1]"] ;
737 -> 739 ;
740 [label="gini = 0.0\nsamples = 1\nvalue = [1, 0]"] ;
739 -> 740 ;
741 [label="gini = 0.0\nsamples = 1\nvalue = [0, 1]"] ;
739 -> 741 ;
742 [label="X[17] <= 0.5\ngini = 0.5\nsamples = 2\nvalue = [1, 1]"] ;
734 -> 742 ;
743 [label="gini = 0.0\nsamples = 1\nvalue = [0, 1]"] ;
742 -> 743 ;
744 [label="gini = 0.0\nsamples = 1\nvalue = [1, 0]"] ;
742 -> 744 ;
745 [label="X[2] <= 60.2\ngini = 0.444\nsamples = 6\nvalue = [4, 2]"] ;
733 -> 745 ;
746 [label="gini = 0.0\nsamples = 2\nvalue = [0, 2]"] ;
745 -> 746 ;
747 [label="gini = 0.0\nsamples = 4\nvalue = [4, 0]"] ;
745 -> 747 ;
748 [label="X[6] <= 0.5\ngini = 0.5\nsamples = 8\nvalue = [4, 4]"] ;
728 -> 748 ;
749 [label="X[12] <= 1.0\ngini = 0.444\nsamples = 6\nvalue = [4, 2]"] ;
748 -> 749 ;
750 [label="X[2] <= 60.8\ngini = 0.32\nsamples = 5\nvalue = [4, 1]"] ;
749 -> 750 ;
751 [label="gini = 0.0\nsamples = 4\nvalue = [4, 0]"] ;
750 -> 751 ;
752 [label="gini = 0.0\nsamples = 1\nvalue = [0, 1]"] ;
750 -> 752 ;
753 [label="gini = 0.0\nsamples = 1\nvalue = [0, 1]"] ;
749 -> 753 ;
754 [label="gini = 0.0\nsamples = 2\nvalue = [0, 2]"] ;
748 -> 754 ;
755 [label="gini = 0.0\nsamples = 12\nvalue = [12, 0]"] ;
727 -> 755 ;
756 [label="X[0] <= 0.5\ngini = 0.444\nsamples = 3\nvalue = [1, 2]"] ;
726 -> 756 ;
757 [label="gini = 0.0\nsamples = 2\nvalue = [0, 2]"] ;
756 -> 757 ;
758 [label="gini = 0.0\nsamples = 1\nvalue = [1, 0]"] ;
756 -> 758 ;
759 [label="gini = 0.0\nsamples = 27\nvalue = [27, 0]"] ;
695 -> 759 ;
760 [label="X[3] <= 3083.6\ngini = 0.499\nsamples = 818\nvalue = [428, 390]"] ;
618 -> 760 ;
761 [label="X[18] <= 1.5\ngini = 0.497\nsamples = 507\nvalue = [235, 272]"] ;
760 -> 761 ;
762 [label="X[12] <= 1.0\ngini = 0.488\nsamples = 168\nvalue = [97, 71]"] ;
761 -> 762 ;
763 [label="X[3] <= 858.8\ngini = 0.499\nsamples = 112\nvalue = [58, 54]"] ;
762 -> 763 ;
764 [label="gini = 0.0\nsamples = 4\nvalue = [4, 0]"] ;
763 -> 764 ;
765 [label="X[3] <= 936.125\ngini = 0.5\nsamples = 108\nvalue = [54, 54]"] ;
763 -> 765 ;
766 [label="gini = 0.0\nsamples = 6\nvalue = [0, 6]"] ;
765 -> 766 ;
767 [label="X[0] <= 0.5\ngini = 0.498\nsamples = 102\nvalue = [54, 48]"] ;
765 -> 767 ;
768 [label="X[1] <= 30.5\ngini = 0.478\nsamples = 71\nvalue = [43, 28]"] ;
767 -> 768 ;
769 [label="X[2] <= 85.55\ngini = 0.444\nsamples = 57\nvalue = [38, 19]"] ;
768 -> 769 ;
770 [label="X[2] <= 75.675\ngini = 0.375\nsamples = 36\nvalue = [27, 9]"] ;
769 -> 770 ;
771 [label="X[3] <= 1209.775\ngini = 0.498\nsamples = 17\nvalue = [9, 8]"] ;
770 -> 771 ;
772 [label="X[2] <= 69.475\ngini = 0.245\nsamples = 7\nvalue = [6, 1]"] ;
771 -> 772 ;
773 [label="gini = 0.0\nsamples = 1\nvalue = [0, 1]"] ;
772 -> 773 ;
774 [label="gini = 0.0\nsamples = 6\nvalue = [6, 0]"] ;
772 -> 774 ;
775 [label="X[5] <= 0.5\ngini = 0.42\nsamples = 10\nvalue = [3, 7]"] ;
771 -> 775 ;
776 [label="X[2] <= 72.2\ngini = 0.5\nsamples = 6\nvalue = [3, 3]"] ;
775 -> 776 ;
777 [label="gini = 0.0\nsamples = 2\nvalue = [2, 0]"] ;
776 -> 777 ;
778 [label="X[1] <= 18.5\ngini = 0.375\nsamples = 4\nvalue = [1, 3]"] ;
776 -> 778 ;
779 [label="gini = 0.0\nsamples = 1\nvalue = [1, 0]"] ;
778 -> 779 ;
780 [label="gini = 0.0\nsamples = 3\nvalue = [0, 3]"] ;
778 -> 780 ;
781 [label="gini = 0.0\nsamples = 4\nvalue = [0, 4]"] ;
775 -> 781 ;
782 [label="X[3] <= 2240.25\ngini = 0.1\nsamples = 19\nvalue = [18, 1]"] ;
770 -> 782 ;
783 [label="gini = 0.0\nsamples = 17\nvalue = [17, 0]"] ;
782 -> 783 ;
784 [label="X[2] <= 81.85\ngini = 0.5\nsamples = 2\nvalue = [1, 1]"] ;
782 -> 784 ;
785 [label="gini = 0.0\nsamples = 1\nvalue = [0, 1]"] ;
784 -> 785 ;
786 [label="gini = 0.0\nsamples = 1\nvalue = [1, 0]"] ;
784 -> 786 ;
787 [label="X[2] <= 94.85\ngini = 0.499\nsamples = 21\nvalue = [11, 10]"] ;
769 -> 787 ;
788 [label="X[18] <= 0.5\ngini = 0.459\nsamples = 14\nvalue = [5, 9]"] ;
787 -> 788 ;
789 [label="X[2] <= 92.775\ngini = 0.245\nsamples = 7\nvalue = [1, 6]"] ;
788 -> 789 ;
790 [label="gini = 0.0\nsamples = 5\nvalue = [0, 5]"] ;
789 -> 790 ;
791 [label="X[3] <= 1911.625\ngini = 0.5\nsamples = 2\nvalue = [1, 1]"] ;
789 -> 791 ;
792 [label="gini = 0.0\nsamples = 1\nvalue = [1, 0]"] ;
791 -> 792 ;
793 [label="gini = 0.0\nsamples = 1\nvalue = [0, 1]"] ;
791 -> 793 ;
794 [label="X[2] <= 90.225\ngini = 0.49\nsamples = 7\nvalue = [4, 3]"] ;
788 -> 794 ;
795 [label="gini = 0.0\nsamples = 4\nvalue = [4, 0]"] ;
794 -> 795 ;
796 [label="gini = 0.0\nsamples = 3\nvalue = [0, 3]"] ;
794 -> 796 ;
797 [label="X[1] <= 19.5\ngini = 0.245\nsamples = 7\nvalue = [6, 1]"] ;
787 -> 797 ;
798 [label="gini = 0.0\nsamples = 1\nvalue = [0, 1]"] ;
797 -> 798 ;
799 [label="gini = 0.0\nsamples = 6\nvalue = [6, 0]"] ;
797 -> 799 ;
800 [label="X[1] <= 36.5\ngini = 0.459\nsamples = 14\nvalue = [5, 9]"] ;
768 -> 800 ;
801 [label="X[3] <= 2650.175\ngini = 0.32\nsamples = 10\nvalue = [2, 8]"] ;
800 -> 801 ;
802 [label="gini = 0.0\nsamples = 5\nvalue = [0, 5]"] ;
801 -> 802 ;
803 [label="X[6] <= 0.5\ngini = 0.48\nsamples = 5\nvalue = [2, 3]"] ;
801 -> 803 ;
804 [label="X[3] <= 2876.7\ngini = 0.444\nsamples = 3\nvalue = [2, 1]"] ;
803 -> 804 ;
805 [label="gini = 0.0\nsamples = 2\nvalue = [2, 0]"] ;
804 -> 805 ;
806 [label="gini = 0.0\nsamples = 1\nvalue = [0, 1]"] ;
804 -> 806 ;
807 [label="gini = 0.0\nsamples = 2\nvalue = [0, 2]"] ;
803 -> 807 ;
808 [label="X[18] <= 0.5\ngini = 0.375\nsamples = 4\nvalue = [3, 1]"] ;
800 -> 808 ;
809 [label="gini = 0.0\nsamples = 1\nvalue = [0, 1]"] ;
808 -> 809 ;
810 [label="gini = 0.0\nsamples = 3\nvalue = [3, 0]"] ;
808 -> 810 ;
811 [label="X[1] <= 33.5\ngini = 0.458\nsamples = 31\nvalue = [11, 20]"] ;
767 -> 811 ;
812 [label="X[3] <= 1219.8\ngini = 0.393\nsamples = 26\nvalue = [7, 19]"] ;
811 -> 812 ;
813 [label="gini = 0.0\nsamples = 6\nvalue = [0, 6]"] ;
812 -> 813 ;
814 [label="X[3] <= 2222.325\ngini = 0.455\nsamples = 20\nvalue = [7, 13]"] ;
812 -> 814 ;
815 [label="X[11] <= 1.0\ngini = 0.498\nsamples = 15\nvalue = [7, 8]"] ;
814 -> 815 ;
816 [label="X[3] <= 1924.75\ngini = 0.444\nsamples = 12\nvalue = [4, 8]"] ;
815 -> 816 ;
817 [label="X[1] <= 23.0\ngini = 0.32\nsamples = 10\nvalue = [2, 8]"] ;
816 -> 817 ;
818 [label="X[3] <= 1263.725\ngini = 0.198\nsamples = 9\nvalue = [1, 8]"] ;
817 -> 818 ;
819 [label="gini = 0.0\nsamples = 1\nvalue = [1, 0]"] ;
818 -> 819 ;
820 [label="gini = 0.0\nsamples = 8\nvalue = [0, 8]"] ;
818 -> 820 ;
821 [label="gini = 0.0\nsamples = 1\nvalue = [1, 0]"] ;
817 -> 821 ;
822 [label="gini = 0.0\nsamples = 2\nvalue = [2, 0]"] ;
816 -> 822 ;
823 [label="gini = 0.0\nsamples = 3\nvalue = [3, 0]"] ;
815 -> 823 ;
824 [label="gini = 0.0\nsamples = 5\nvalue = [0, 5]"] ;
814 -> 824 ;
825 [label="X[3] <= 2764.65\ngini = 0.32\nsamples = 5\nvalue = [4, 1]"] ;
811 -> 825 ;
826 [label="gini = 0.0\nsamples = 4\nvalue = [4, 0]"] ;
825 -> 826 ;
827 [label="gini = 0.0\nsamples = 1\nvalue = [0, 1]"] ;
825 -> 827 ;
828 [label="X[2] <= 97.225\ngini = 0.423\nsamples = 56\nvalue = [39, 17]"] ;
762 -> 828 ;
829 [label="X[1] <= 35.5\ngini = 0.32\nsamples = 40\nvalue = [32, 8]"] ;
828 -> 829 ;
830 [label="X[2] <= 89.05\ngini = 0.295\nsamples = 39\nvalue = [32, 7]"] ;
829 -> 830 ;
831 [label="X[3] <= 2434.4\ngini = 0.165\nsamples = 22\nvalue = [20, 2]"] ;
830 -> 831 ;
832 [label="gini = 0.0\nsamples = 14\nvalue = [14, 0]"] ;
831 -> 832 ;
833 [label="X[1] <= 28.5\ngini = 0.375\nsamples = 8\nvalue = [6, 2]"] ;
831 -> 833 ;
834 [label="gini = 0.0\nsamples = 1\nvalue = [0, 1]"] ;
833 -> 834 ;
835 [label="X[0] <= 0.5\ngini = 0.245\nsamples = 7\nvalue = [6, 1]"] ;
833 -> 835 ;
836 [label="gini = 0.0\nsamples = 4\nvalue = [4, 0]"] ;
835 -> 836 ;
837 [label="X[11] <= 1.0\ngini = 0.444\nsamples = 3\nvalue = [2, 1]"] ;
835 -> 837 ;
838 [label="gini = 0.0\nsamples = 2\nvalue = [2, 0]"] ;
837 -> 838 ;
839 [label="gini = 0.0\nsamples = 1\nvalue = [0, 1]"] ;
837 -> 839 ;
840 [label="X[2] <= 89.675\ngini = 0.415\nsamples = 17\nvalue = [12, 5]"] ;
830 -> 840 ;
841 [label="gini = 0.0\nsamples = 2\nvalue = [0, 2]"] ;
840 -> 841 ;
842 [label="X[3] <= 1915.55\ngini = 0.32\nsamples = 15\nvalue = [12, 3]"] ;
840 -> 842 ;
843 [label="X[3] <= 1761.7\ngini = 0.444\nsamples = 9\nvalue = [6, 3]"] ;
842 -> 843 ;
844 [label="X[11] <= 1.0\ngini = 0.245\nsamples = 7\nvalue = [6, 1]"] ;
843 -> 844 ;
845 [label="gini = 0.0\nsamples = 5\nvalue = [5, 0]"] ;
844 -> 845 ;
846 [label="X[6] <= 0.5\ngini = 0.5\nsamples = 2\nvalue = [1, 1]"] ;
844 -> 846 ;
847 [label="gini = 0.0\nsamples = 1\nvalue = [0, 1]"] ;
846 -> 847 ;
848 [label="gini = 0.0\nsamples = 1\nvalue = [1, 0]"] ;
846 -> 848 ;
849 [label="gini = 0.0\nsamples = 2\nvalue = [0, 2]"] ;
843 -> 849 ;
850 [label="gini = 0.0\nsamples = 6\nvalue = [6, 0]"] ;
842 -> 850 ;
851 [label="gini = 0.0\nsamples = 1\nvalue = [0, 1]"] ;
829 -> 851 ;
852 [label="X[1] <= 25.5\ngini = 0.492\nsamples = 16\nvalue = [7, 9]"] ;
828 -> 852 ;
853 [label="X[17] <= 0.5\ngini = 0.32\nsamples = 10\nvalue = [2, 8]"] ;
852 -> 853 ;
854 [label="gini = 0.0\nsamples = 1\nvalue = [1, 0]"] ;
853 -> 854 ;
855 [label="X[6] <= 0.5\ngini = 0.198\nsamples = 9\nvalue = [1, 8]"] ;
853 -> 855 ;
856 [label="gini = 0.0\nsamples = 7\nvalue = [0, 7]"] ;
855 -> 856 ;
857 [label="X[2] <= 105.6\ngini = 0.5\nsamples = 2\nvalue = [1, 1]"] ;
855 -> 857 ;
858 [label="gini = 0.0\nsamples = 1\nvalue = [1, 0]"] ;
857 -> 858 ;
859 [label="gini = 0.0\nsamples = 1\nvalue = [0, 1]"] ;
857 -> 859 ;
860 [label="X[18] <= 0.5\ngini = 0.278\nsamples = 6\nvalue = [5, 1]"] ;
852 -> 860 ;
861 [label="gini = 0.0\nsamples = 4\nvalue = [4, 0]"] ;
860 -> 861 ;
862 [label="X[13] <= 1.0\ngini = 0.5\nsamples = 2\nvalue = [1, 1]"] ;
860 -> 862 ;
863 [label="gini = 0.0\nsamples = 1\nvalue = [0, 1]"] ;
862 -> 863 ;
864 [label="gini = 0.0\nsamples = 1\nvalue = [1, 0]"] ;
862 -> 864 ;
865 [label="X[3] <= 3002.2\ngini = 0.483\nsamples = 339\nvalue = [138, 201]"] ;
761 -> 865 ;
866 [label="X[3] <= 2893.6\ngini = 0.487\nsamples = 329\nvalue = [138, 191]"] ;
865 -> 866 ;
867 [label="X[2] <= 97.175\ngini = 0.481\nsamples = 310\nvalue = [125, 185]"] ;
866 -> 867 ;
868 [label="X[2] <= 96.75\ngini = 0.49\nsamples = 263\nvalue = [113, 150]"] ;
867 -> 868 ;
869 [label="X[2] <= 95.85\ngini = 0.487\nsamples = 259\nvalue = [109, 150]"] ;
868 -> 869 ;
870 [label="X[2] <= 95.575\ngini = 0.491\nsamples = 252\nvalue = [109, 143]"] ;
869 -> 870 ;
871 [label="X[18] <= 2.5\ngini = 0.489\nsamples = 249\nvalue = [106, 143]"] ;
870 -> 871 ;
872 [label="X[1] <= 31.5\ngini = 0.481\nsamples = 223\nvalue = [90, 133]"] ;
871 -> 872 ;
873 [label="X[3] <= 1556.35\ngini = 0.487\nsamples = 207\nvalue = [87, 120]"] ;
872 -> 873 ;
874 [label="X[1] <= 12.5\ngini = 0.447\nsamples = 98\nvalue = [33, 65]"] ;
873 -> 874 ;
875 [label="X[3] <= 834.45\ngini = 0.499\nsamples = 29\nvalue = [15, 14]"] ;
874 -> 875 ;
876 [label="gini = 0.0\nsamples = 4\nvalue = [0, 4]"] ;
875 -> 876 ;
877 [label="X[3] <= 905.05\ngini = 0.48\nsamples = 25\nvalue = [15, 10]"] ;
875 -> 877 ;
878 [label="X[3] <= 856.075\ngini = 0.245\nsamples = 7\nvalue = [6, 1]"] ;
877 -> 878 ;
879 [label="X[2] <= 73.35\ngini = 0.5\nsamples = 2\nvalue = [1, 1]"] ;
878 -> 879 ;
880 [label="gini = 0.0\nsamples = 1\nvalue = [1, 0]"] ;
879 -> 880 ;
881 [label="gini = 0.0\nsamples = 1\nvalue = [0, 1]"] ;
879 -> 881 ;
882 [label="gini = 0.0\nsamples = 5\nvalue = [5, 0]"] ;
878 -> 882 ;
883 [label="X[0] <= 0.5\ngini = 0.5\nsamples = 18\nvalue = [9, 9]"] ;
877 -> 883 ;
884 [label="X[3] <= 946.4\ngini = 0.48\nsamples = 15\nvalue = [9, 6]"] ;
883 -> 884 ;
885 [label="gini = 0.0\nsamples = 2\nvalue = [0, 2]"] ;
884 -> 885 ;
886 [label="X[14] <= 1.0\ngini = 0.426\nsamples = 13\nvalue = [9, 4]"] ;
884 -> 886 ;
887 [label="gini = 0.0\nsamples = 4\nvalue = [4, 0]"] ;
886 -> 887 ;
888 [label="X[3] <= 1033.925\ngini = 0.494\nsamples = 9\nvalue = [5, 4]"] ;
886 -> 888 ;
889 [label="X[13] <= 1.0\ngini = 0.32\nsamples = 5\nvalue = [4, 1]"] ;
888 -> 889 ;
890 [label="gini = 0.0\nsamples = 4\nvalue = [4, 0]"] ;
889 -> 890 ;
891 [label="gini = 0.0\nsamples = 1\nvalue = [0, 1]"] ;
889 -> 891 ;
892 [label="X[2] <= 94.375\ngini = 0.375\nsamples = 4\nvalue = [1, 3]"] ;
888 -> 892 ;
893 [label="gini = 0.0\nsamples = 3\nvalue = [0, 3]"] ;
892 -> 893 ;
894 [label="gini = 0.0\nsamples = 1\nvalue = [1, 0]"] ;
892 -> 894 ;
895 [label="gini = 0.0\nsamples = 3\nvalue = [0, 3]"] ;
883 -> 895 ;
896 [label="X[2] <= 78.85\ngini = 0.386\nsamples = 69\nvalue = [18, 51]"] ;
874 -> 896 ;
897 [label="X[1] <= 18.5\ngini = 0.486\nsamples = 24\nvalue = [10, 14]"] ;
896 -> 897 ;
898 [label="X[3] <= 1200.65\ngini = 0.5\nsamples = 20\nvalue = [10, 10]"] ;
897 -> 898 ;
899 [label="X[4] <= 0.5\ngini = 0.444\nsamples = 12\nvalue = [4, 8]"] ;
898 -> 899 ;
900 [label="gini = 0.0\nsamples = 5\nvalue = [0, 5]"] ;
899 -> 900 ;
901 [label="X[3] <= 1025.05\ngini = 0.49\nsamples = 7\nvalue = [4, 3]"] ;
899 -> 901 ;
902 [label="gini = 0.0\nsamples = 2\nvalue = [2, 0]"] ;
901 -> 902 ;
903 [label="X[0] <= 0.5\ngini = 0.48\nsamples = 5\nvalue = [2, 3]"] ;
901 -> 903 ;
904 [label="X[1] <= 16.5\ngini = 0.444\nsamples = 3\nvalue = [2, 1]"] ;
903 -> 904 ;
905 [label="gini = 0.0\nsamples = 2\nvalue = [2, 0]"] ;
904 -> 905 ;
906 [label="gini = 0.0\nsamples = 1\nvalue = [0, 1]"] ;
904 -> 906 ;
907 [label="gini = 0.0\nsamples = 2\nvalue = [0, 2]"] ;
903 -> 907 ;
908 [label="X[2] <= 75.4\ngini = 0.375\nsamples = 8\nvalue = [6, 2]"] ;
898 -> 908 ;
909 [label="gini = 0.0\nsamples = 4\nvalue = [4, 0]"] ;
908 -> 909 ;
910 [label="X[13] <= 1.0\ngini = 0.5\nsamples = 4\nvalue = [2, 2]"] ;
908 -> 910 ;
911 [label="X[2] <= 78.65\ngini = 0.444\nsamples = 3\nvalue = [1, 2]"] ;
910 -> 911 ;
912 [label="gini = 0.0\nsamples = 2\nvalue = [0, 2]"] ;
911 -> 912 ;
913 [label="gini = 0.0\nsamples = 1\nvalue = [1, 0]"] ;
911 -> 913 ;
914 [label="gini = 0.0\nsamples = 1\nvalue = [1, 0]"] ;
910 -> 914 ;
915 [label="gini = 0.0\nsamples = 4\nvalue = [0, 4]"] ;
897 -> 915 ;
916 [label="X[3] <= 1181.7\ngini = 0.292\nsamples = 45\nvalue = [8, 37]"] ;
896 -> 916 ;
917 [label="gini = 0.0\nsamples = 14\nvalue = [0, 14]"] ;
916 -> 917 ;
918 [label="X[3] <= 1219.225\ngini = 0.383\nsamples = 31\nvalue = [8, 23]"] ;
916 -> 918 ;
919 [label="X[2] <= 88.225\ngini = 0.48\nsamples = 5\nvalue = [3, 2]"] ;
918 -> 919 ;
920 [label="gini = 0.0\nsamples = 3\nvalue = [3, 0]"] ;
919 -> 920 ;
921 [label="gini = 0.0\nsamples = 2\nvalue = [0, 2]"] ;
919 -> 921 ;
922 [label="X[8] <= 1.0\ngini = 0.311\nsamples = 26\nvalue = [5, 21]"] ;
918 -> 922 ;
923 [label="X[0] <= 0.5\ngini = 0.496\nsamples = 11\nvalue = [5, 6]"] ;
922 -> 923 ;
924 [label="X[11] <= 1.0\ngini = 0.278\nsamples = 6\nvalue = [1, 5]"] ;
923 -> 924 ;
925 [label="gini = 0.0\nsamples = 5\nvalue = [0, 5]"] ;
924 -> 925 ;
926 [label="gini = 0.0\nsamples = 1\nvalue = [1, 0]"] ;
924 -> 926 ;
927 [label="X[2] <= 93.0\ngini = 0.32\nsamples = 5\nvalue = [4, 1]"] ;
923 -> 927 ;
928 [label="gini = 0.0\nsamples = 3\nvalue = [3, 0]"] ;
927 -> 928 ;
929 [label="X[2] <= 94.55\ngini = 0.5\nsamples = 2\nvalue = [1, 1]"] ;
927 -> 929 ;
930 [label="gini = 0.0\nsamples = 1\nvalue = [0, 1]"] ;
929 -> 930 ;
931 [label="gini = 0.0\nsamples = 1\nvalue = [1, 0]"] ;
929 -> 931 ;
932 [label="gini = 0.0\nsamples = 15\nvalue = [0, 15]"] ;
922 -> 932 ;
933 [label="X[3] <= 1679.775\ngini = 0.5\nsamples = 109\nvalue = [54, 55]"] ;
873 -> 933 ;
934 [label="X[13] <= 1.0\ngini = 0.278\nsamples = 12\nvalue = [10, 2]"] ;
933 -> 934 ;
935 [label="gini = 0.0\nsamples = 9\nvalue = [9, 0]"] ;
934 -> 935 ;
936 [label="X[5] <= 0.5\ngini = 0.444\nsamples = 3\nvalue = [1, 2]"] ;
934 -> 936 ;
937 [label="gini = 0.0\nsamples = 2\nvalue = [0, 2]"] ;
936 -> 937 ;
938 [label="gini = 0.0\nsamples = 1\nvalue = [1, 0]"] ;
936 -> 938 ;
939 [label="X[2] <= 88.85\ngini = 0.496\nsamples = 97\nvalue = [44, 53]"] ;
933 -> 939 ;
940 [label="X[2] <= 85.35\ngini = 0.499\nsamples = 55\nvalue = [29, 26]"] ;
939 -> 940 ;
941 [label="X[2] <= 84.925\ngini = 0.498\nsamples = 45\nvalue = [21, 24]"] ;
940 -> 941 ;
942 [label="X[13] <= 1.0\ngini = 0.499\nsamples = 40\nvalue = [21, 19]"] ;
941 -> 942 ;
943 [label="X[3] <= 2406.625\ngini = 0.486\nsamples = 36\nvalue = [21, 15]"] ;
942 -> 943 ;
944 [label="X[3] <= 1733.9\ngini = 0.498\nsamples = 32\nvalue = [17, 15]"] ;
943 -> 944 ;
945 [label="gini = 0.0\nsamples = 2\nvalue = [0, 2]"] ;
944 -> 945 ;
946 [label="X[3] <= 1829.5\ngini = 0.491\nsamples = 30\nvalue = [17, 13]"] ;
944 -> 946 ;
947 [label="gini = 0.0\nsamples = 5\nvalue = [5, 0]"] ;
946 -> 947 ;
948 [label="X[1] <= 22.5\ngini = 0.499\nsamples = 25\nvalue = [12, 13]"] ;
946 -> 948 ;
949 [label="gini = 0.0\nsamples = 2\nvalue = [0, 2]"] ;
948 -> 949 ;
950 [label="X[11] <= 1.0\ngini = 0.499\nsamples = 23\nvalue = [12, 11]"] ;
948 -> 950 ;
951 [label="X[2] <= 70.65\ngini = 0.494\nsamples = 18\nvalue = [8, 10]"] ;
950 -> 951 ;
952 [label="gini = 0.0\nsamples = 1\nvalue = [1, 0]"] ;
951 -> 952 ;
953 [label="X[3] <= 2142.275\ngini = 0.484\nsamples = 17\nvalue = [7, 10]"] ;
951 -> 953 ;
954 [label="X[4] <= 0.5\ngini = 0.375\nsamples = 8\nvalue = [2, 6]"] ;
953 -> 954 ;
955 [label="X[12] <= 1.0\ngini = 0.444\nsamples = 3\nvalue = [2, 1]"] ;
954 -> 955 ;
956 [label="gini = 0.0\nsamples = 2\nvalue = [2, 0]"] ;
955 -> 956 ;
957 [label="gini = 0.0\nsamples = 1\nvalue = [0, 1]"] ;
955 -> 957 ;
958 [label="gini = 0.0\nsamples = 5\nvalue = [0, 5]"] ;
954 -> 958 ;
959 [label="X[12] <= 1.0\ngini = 0.494\nsamples = 9\nvalue = [5, 4]"] ;
953 -> 959 ;
960 [label="X[2] <= 84.125\ngini = 0.49\nsamples = 7\nvalue = [3, 4]"] ;
959 -> 960 ;
961 [label="X[3] <= 2183.1\ngini = 0.444\nsamples = 6\nvalue = [2, 4]"] ;
960 -> 961 ;
962 [label="gini = 0.0\nsamples = 1\nvalue = [1, 0]"] ;
961 -> 962 ;
963 [label="X[15] <= 1.0\ngini = 0.32\nsamples = 5\nvalue = [1, 4]"] ;
961 -> 963 ;
964 [label="gini = 0.0\nsamples = 2\nvalue = [0, 2]"] ;
963 -> 964 ;
965 [label="X[2] <= 80.825\ngini = 0.444\nsamples = 3\nvalue = [1, 2]"] ;
963 -> 965 ;
966 [label="gini = 0.0\nsamples = 1\nvalue = [1, 0]"] ;
965 -> 966 ;
967 [label="gini = 0.0\nsamples = 2\nvalue = [0, 2]"] ;
965 -> 967 ;
968 [label="gini = 0.0\nsamples = 1\nvalue = [1, 0]"] ;
960 -> 968 ;
969 [label="gini = 0.0\nsamples = 2\nvalue = [2, 0]"] ;
959 -> 969 ;
970 [label="X[3] <= 2107.725\ngini = 0.32\nsamples = 5\nvalue = [4, 1]"] ;
950 -> 970 ;
971 [label="gini = 0.0\nsamples = 4\nvalue = [4, 0]"] ;
970 -> 971 ;
972 [label="gini = 0.0\nsamples = 1\nvalue = [0, 1]"] ;
970 -> 972 ;
973 [label="gini = 0.0\nsamples = 4\nvalue = [4, 0]"] ;
943 -> 973 ;
974 [label="gini = 0.0\nsamples = 4\nvalue = [0, 4]"] ;
942 -> 974 ;
975 [label="gini = 0.0\nsamples = 5\nvalue = [0, 5]"] ;
941 -> 975 ;
976 [label="X[3] <= 1813.8\ngini = 0.32\nsamples = 10\nvalue = [8, 2]"] ;
940 -> 976 ;
977 [label="gini = 0.0\nsamples = 2\nvalue = [0, 2]"] ;
976 -> 977 ;
978 [label="gini = 0.0\nsamples = 8\nvalue = [8, 0]"] ;
976 -> 978 ;
979 [label="X[0] <= 0.5\ngini = 0.459\nsamples = 42\nvalue = [15, 27]"] ;
939 -> 979 ;
980 [label="X[2] <= 90.9\ngini = 0.5\nsamples = 24\nvalue = [12, 12]"] ;
979 -> 980 ;
981 [label="X[14] <= 1.0\ngini = 0.391\nsamples = 15\nvalue = [4, 11]"] ;
980 -> 981 ;
982 [label="X[3] <= 2504.575\ngini = 0.49\nsamples = 7\nvalue = [4, 3]"] ;
981 -> 982 ;
983 [label="gini = 0.0\nsamples = 4\nvalue = [4, 0]"] ;
982 -> 983 ;
984 [label="gini = 0.0\nsamples = 3\nvalue = [0, 3]"] ;
982 -> 984 ;
985 [label="gini = 0.0\nsamples = 8\nvalue = [0, 8]"] ;
981 -> 985 ;
986 [label="X[3] <= 1689.925\ngini = 0.198\nsamples = 9\nvalue = [8, 1]"] ;
980 -> 986 ;
987 [label="gini = 0.0\nsamples = 1\nvalue = [0, 1]"] ;
986 -> 987 ;
988 [label="gini = 0.0\nsamples = 8\nvalue = [8, 0]"] ;
986 -> 988 ;
989 [label="X[3] <= 2749.4\ngini = 0.278\nsamples = 18\nvalue = [3, 15]"] ;
979 -> 989 ;
990 [label="X[3] <= 2152.4\ngini = 0.208\nsamples = 17\nvalue = [2, 15]"] ;
989 -> 990 ;
991 [label="X[1] <= 22.0\ngini = 0.408\nsamples = 7\nvalue = [2, 5]"] ;
990 -> 991 ;
992 [label="X[2] <= 94.75\ngini = 0.278\nsamples = 6\nvalue = [1, 5]"] ;
991 -> 992 ;
993 [label="gini = 0.0\nsamples = 4\nvalue = [0, 4]"] ;
992 -> 993 ;
994 [label="X[2] <= 95.2\ngini = 0.5\nsamples = 2\nvalue = [1, 1]"] ;
992 -> 994 ;
995 [label="gini = 0.0\nsamples = 1\nvalue = [1, 0]"] ;
994 -> 995 ;
996 [label="gini = 0.0\nsamples = 1\nvalue = [0, 1]"] ;
994 -> 996 ;
997 [label="gini = 0.0\nsamples = 1\nvalue = [1, 0]"] ;
991 -> 997 ;
998 [label="gini = 0.0\nsamples = 10\nvalue = [0, 10]"] ;
990 -> 998 ;
999 [label="gini = 0.0\nsamples = 1\nvalue = [1, 0]"] ;
989 -> 999 ;
1000 [label="X[2] <= 89.25\ngini = 0.305\nsamples = 16\nvalue = [3, 13]"] ;
872 -> 1000 ;
1001 [label="X[0] <= 0.5\ngini = 0.231\nsamples = 15\nvalue = [2, 13]"] ;
1000 -> 1001 ;
1002 [label="gini = 0.0\nsamples = 7\nvalue = [0, 7]"] ;
1001 -> 1002 ;
1003 [label="X[2] <= 75.225\ngini = 0.375\nsamples = 8\nvalue = [2, 6]"] ;
1001 -> 1003 ;
1004 [label="gini = 0.0\nsamples = 2\nvalue = [0, 2]"] ;
1003 -> 1004 ;
1005 [label="X[8] <= 1.0\ngini = 0.444\nsamples = 6\nvalue = [2, 4]"] ;
1003 -> 1005 ;
1006 [label="gini = 0.0\nsamples = 1\nvalue = [1, 0]"] ;
1005 -> 1006 ;
1007 [label="X[2] <= 75.9\ngini = 0.32\nsamples = 5\nvalue = [1, 4]"] ;
1005 -> 1007 ;
1008 [label="gini = 0.0\nsamples = 1\nvalue = [1, 0]"] ;
1007 -> 1008 ;
1009 [label="gini = 0.0\nsamples = 4\nvalue = [0, 4]"] ;
1007 -> 1009 ;
1010 [label="gini = 0.0\nsamples = 1\nvalue = [1, 0]"] ;
1000 -> 1010 ;
1011 [label="X[2] <= 79.475\ngini = 0.473\nsamples = 26\nvalue = [16, 10]"] ;
871 -> 1011 ;
1012 [label="X[3] <= 1780.3\ngini = 0.278\nsamples = 12\nvalue = [10, 2]"] ;
1011 -> 1012 ;
1013 [label="X[1] <= 23.5\ngini = 0.408\nsamples = 7\nvalue = [5, 2]"] ;
1012 -> 1013 ;
1014 [label="X[2] <= 75.95\ngini = 0.278\nsamples = 6\nvalue = [5, 1]"] ;
1013 -> 1014 ;
1015 [label="gini = 0.0\nsamples = 4\nvalue = [4, 0]"] ;
1014 -> 1015 ;
1016 [label="X[3] <= 991.325\ngini = 0.5\nsamples = 2\nvalue = [1, 1]"] ;
1014 -> 1016 ;
1017 [label="gini = 0.0\nsamples = 1\nvalue = [1, 0]"] ;
1016 -> 1017 ;
1018 [label="gini = 0.0\nsamples = 1\nvalue = [0, 1]"] ;
1016 -> 1018 ;
1019 [label="gini = 0.0\nsamples = 1\nvalue = [0, 1]"] ;
1013 -> 1019 ;
1020 [label="gini = 0.0\nsamples = 5\nvalue = [5, 0]"] ;
1012 -> 1020 ;
1021 [label="X[13] <= 1.0\ngini = 0.49\nsamples = 14\nvalue = [6, 8]"] ;
1011 -> 1021 ;
1022 [label="X[1] <= 13.5\ngini = 0.444\nsamples = 12\nvalue = [4, 8]"] ;
1021 -> 1022 ;
1023 [label="gini = 0.0\nsamples = 1\nvalue = [1, 0]"] ;
1022 -> 1023 ;
1024 [label="X[3] <= 1892.175\ngini = 0.397\nsamples = 11\nvalue = [3, 8]"] ;
1022 -> 1024 ;
1025 [label="gini = 0.0\nsamples = 5\nvalue = [0, 5]"] ;
1024 -> 1025 ;
1026 [label="X[3] <= 2161.175\ngini = 0.5\nsamples = 6\nvalue = [3, 3]"] ;
1024 -> 1026 ;
1027 [label="gini = 0.0\nsamples = 2\nvalue = [2, 0]"] ;
1026 -> 1027 ;
1028 [label="X[2] <= 91.9\ngini = 0.375\nsamples = 4\nvalue = [1, 3]"] ;
1026 -> 1028 ;
1029 [label="gini = 0.0\nsamples = 3\nvalue = [0, 3]"] ;
1028 -> 1029 ;
1030 [label="gini = 0.0\nsamples = 1\nvalue = [1, 0]"] ;
1028 -> 1030 ;
1031 [label="gini = 0.0\nsamples = 2\nvalue = [2, 0]"] ;
1021 -> 1031 ;
1032 [label="gini = 0.0\nsamples = 3\nvalue = [3, 0]"] ;
870 -> 1032 ;
1033 [label="gini = 0.0\nsamples = 7\nvalue = [0, 7]"] ;
869 -> 1033 ;
1034 [label="gini = 0.0\nsamples = 4\nvalue = [4, 0]"] ;
868 -> 1034 ;
1035 [label="X[3] <= 2217.4\ngini = 0.38\nsamples = 47\nvalue = [12, 35]"] ;
867 -> 1035 ;
1036 [label="X[2] <= 101.575\ngini = 0.452\nsamples = 29\nvalue = [10, 19]"] ;
1035 -> 1036 ;
1037 [label="X[17] <= 0.5\ngini = 0.291\nsamples = 17\nvalue = [3, 14]"] ;
1036 -> 1037 ;
1038 [label="gini = 0.0\nsamples = 1\nvalue = [1, 0]"] ;
1037 -> 1038 ;
1039 [label="X[3] <= 1981.85\ngini = 0.219\nsamples = 16\nvalue = [2, 14]"] ;
1037 -> 1039 ;
1040 [label="X[4] <= 0.5\ngini = 0.133\nsamples = 14\nvalue = [1, 13]"] ;
1039 -> 1040 ;
1041 [label="X[5] <= 0.5\ngini = 0.278\nsamples = 6\nvalue = [1, 5]"] ;
1040 -> 1041 ;
1042 [label="X[8] <= 1.0\ngini = 0.5\nsamples = 2\nvalue = [1, 1]"] ;
1041 -> 1042 ;
1043 [label="gini = 0.0\nsamples = 1\nvalue = [0, 1]"] ;
1042 -> 1043 ;
1044 [label="gini = 0.0\nsamples = 1\nvalue = [1, 0]"] ;
1042 -> 1044 ;
1045 [label="gini = 0.0\nsamples = 4\nvalue = [0, 4]"] ;
1041 -> 1045 ;
1046 [label="gini = 0.0\nsamples = 8\nvalue = [0, 8]"] ;
1040 -> 1046 ;
1047 [label="X[2] <= 97.95\ngini = 0.5\nsamples = 2\nvalue = [1, 1]"] ;
1039 -> 1047 ;
1048 [label="gini = 0.0\nsamples = 1\nvalue = [0, 1]"] ;
1047 -> 1048 ;
1049 [label="gini = 0.0\nsamples = 1\nvalue = [1, 0]"] ;
1047 -> 1049 ;
1050 [label="X[1] <= 14.0\ngini = 0.486\nsamples = 12\nvalue = [7, 5]"] ;
1036 -> 1050 ;
1051 [label="X[6] <= 0.5\ngini = 0.444\nsamples = 6\nvalue = [2, 4]"] ;
1050 -> 1051 ;
1052 [label="X[0] <= 0.5\ngini = 0.32\nsamples = 5\nvalue = [1, 4]"] ;
1051 -> 1052 ;
1053 [label="gini = 0.0\nsamples = 3\nvalue = [0, 3]"] ;
1052 -> 1053 ;
1054 [label="X[3] <= 1273.675\ngini = 0.5\nsamples = 2\nvalue = [1, 1]"] ;
1052 -> 1054 ;
1055 [label="gini = 0.0\nsamples = 1\nvalue = [1, 0]"] ;
1054 -> 1055 ;
1056 [label="gini = 0.0\nsamples = 1\nvalue = [0, 1]"] ;
1054 -> 1056 ;
1057 [label="gini = 0.0\nsamples = 1\nvalue = [1, 0]"] ;
1051 -> 1057 ;
1058 [label="X[6] <= 0.5\ngini = 0.278\nsamples = 6\nvalue = [5, 1]"] ;
1050 -> 1058 ;
1059 [label="gini = 0.0\nsamples = 5\nvalue = [5, 0]"] ;
1058 -> 1059 ;
1060 [label="gini = 0.0\nsamples = 1\nvalue = [0, 1]"] ;
1058 -> 1060 ;
1061 [label="X[1] <= 22.5\ngini = 0.198\nsamples = 18\nvalue = [2, 16]"] ;
1035 -> 1061 ;
1062 [label="X[2] <= 103.375\ngini = 0.444\nsamples = 3\nvalue = [1, 2]"] ;
1061 -> 1062 ;
1063 [label="gini = 0.0\nsamples = 1\nvalue = [1, 0]"] ;
1062 -> 1063 ;
1064 [label="gini = 0.0\nsamples = 2\nvalue = [0, 2]"] ;
1062 -> 1064 ;
1065 [label="X[4] <= 0.5\ngini = 0.124\nsamples = 15\nvalue = [1, 14]"] ;
1061 -> 1065 ;
1066 [label="X[2] <= 103.725\ngini = 0.278\nsamples = 6\nvalue = [1, 5]"] ;
1065 -> 1066 ;
1067 [label="gini = 0.0\nsamples = 5\nvalue = [0, 5]"] ;
1066 -> 1067 ;
1068 [label="gini = 0.0\nsamples = 1\nvalue = [1, 0]"] ;
1066 -> 1068 ;
1069 [label="gini = 0.0\nsamples = 9\nvalue = [0, 9]"] ;
1065 -> 1069 ;
1070 [label="X[4] <= 0.5\ngini = 0.432\nsamples = 19\nvalue = [13, 6]"] ;
866 -> 1070 ;
1071 [label="X[17] <= 0.5\ngini = 0.5\nsamples = 10\nvalue = [5, 5]"] ;
1070 -> 1071 ;
1072 [label="gini = 0.0\nsamples = 3\nvalue = [3, 0]"] ;
1071 -> 1072 ;
1073 [label="X[2] <= 100.75\ngini = 0.408\nsamples = 7\nvalue = [2, 5]"] ;
1071 -> 1073 ;
1074 [label="X[15] <= 1.0\ngini = 0.278\nsamples = 6\nvalue = [1, 5]"] ;
1073 -> 1074 ;
1075 [label="gini = 0.0\nsamples = 1\nvalue = [1, 0]"] ;
1074 -> 1075 ;
1076 [label="gini = 0.0\nsamples = 5\nvalue = [0, 5]"] ;
1074 -> 1076 ;
1077 [label="gini = 0.0\nsamples = 1\nvalue = [1, 0]"] ;
1073 -> 1077 ;
1078 [label="X[1] <= 28.5\ngini = 0.198\nsamples = 9\nvalue = [8, 1]"] ;
1070 -> 1078 ;
1079 [label="X[0] <= 0.5\ngini = 0.5\nsamples = 2\nvalue = [1, 1]"] ;
1078 -> 1079 ;
1080 [label="gini = 0.0\nsamples = 1\nvalue = [0, 1]"] ;
1079 -> 1080 ;
1081 [label="gini = 0.0\nsamples = 1\nvalue = [1, 0]"] ;
1079 -> 1081 ;
1082 [label="gini = 0.0\nsamples = 7\nvalue = [7, 0]"] ;
1078 -> 1082 ;
1083 [label="gini = 0.0\nsamples = 10\nvalue = [0, 10]"] ;
865 -> 1083 ;
1084 [label="X[2] <= 95.6\ngini = 0.471\nsamples = 311\nvalue = [193, 118]"] ;
760 -> 1084 ;
1085 [label="X[0] <= 0.5\ngini = 0.403\nsamples = 161\nvalue = [116, 45]"] ;
1084 -> 1085 ;
1086 [label="X[1] <= 37.5\ngini = 0.322\nsamples = 104\nvalue = [83, 21]"] ;
1085 -> 1086 ;
1087 [label="gini = 0.0\nsamples = 15\nvalue = [15, 0]"] ;
1086 -> 1087 ;
1088 [label="X[1] <= 56.5\ngini = 0.361\nsamples = 89\nvalue = [68, 21]"] ;
1086 -> 1088 ;
1089 [label="X[3] <= 3256.95\ngini = 0.398\nsamples = 73\nvalue = [53, 20]"] ;
1088 -> 1089 ;
1090 [label="gini = 0.0\nsamples = 7\nvalue = [7, 0]"] ;
1089 -> 1090 ;
1091 [label="X[3] <= 3279.15\ngini = 0.422\nsamples = 66\nvalue = [46, 20]"] ;
1089 -> 1091 ;
1092 [label="gini = 0.0\nsamples = 2\nvalue = [0, 2]"] ;
1091 -> 1092 ;
1093 [label="X[8] <= 1.0\ngini = 0.404\nsamples = 64\nvalue = [46, 18]"] ;
1091 -> 1093 ;
1094 [label="X[1] <= 55.5\ngini = 0.208\nsamples = 17\nvalue = [15, 2]"] ;
1093 -> 1094 ;
1095 [label="X[15] <= 1.0\ngini = 0.124\nsamples = 15\nvalue = [14, 1]"] ;
1094 -> 1095 ;
1096 [label="gini = 0.0\nsamples = 11\nvalue = [11, 0]"] ;
1095 -> 1096 ;
1097 [label="X[14] <= 1.0\ngini = 0.375\nsamples = 4\nvalue = [3, 1]"] ;
1095 -> 1097 ;
1098 [label="X[5] <= 0.5\ngini = 0.5\nsamples = 2\nvalue = [1, 1]"] ;
1097 -> 1098 ;
1099 [label="gini = 0.0\nsamples = 1\nvalue = [1, 0]"] ;
1098 -> 1099 ;
1100 [label="gini = 0.0\nsamples = 1\nvalue = [0, 1]"] ;
1098 -> 1100 ;
1101 [label="gini = 0.0\nsamples = 2\nvalue = [2, 0]"] ;
1097 -> 1101 ;
1102 [label="X[17] <= 0.5\ngini = 0.5\nsamples = 2\nvalue = [1, 1]"] ;
1094 -> 1102 ;
1103 [label="gini = 0.0\nsamples = 1\nvalue = [1, 0]"] ;
1102 -> 1103 ;
1104 [label="gini = 0.0\nsamples = 1\nvalue = [0, 1]"] ;
1102 -> 1104 ;
1105 [label="X[1] <= 41.5\ngini = 0.449\nsamples = 47\nvalue = [31, 16]"] ;
1093 -> 1105 ;
1106 [label="X[13] <= 1.0\ngini = 0.198\nsamples = 9\nvalue = [8, 1]"] ;
1105 -> 1106 ;
1107 [label="gini = 0.0\nsamples = 8\nvalue = [8, 0]"] ;
1106 -> 1107 ;
1108 [label="gini = 0.0\nsamples = 1\nvalue = [0, 1]"] ;
1106 -> 1108 ;
1109 [label="X[1] <= 53.5\ngini = 0.478\nsamples = 38\nvalue = [23, 15]"] ;
1105 -> 1109 ;
1110 [label="X[2] <= 78.875\ngini = 0.497\nsamples = 28\nvalue = [15, 13]"] ;
1109 -> 1110 ;
1111 [label="gini = 0.0\nsamples = 2\nvalue = [0, 2]"] ;
1110 -> 1111 ;
1112 [label="X[14] <= 1.0\ngini = 0.488\nsamples = 26\nvalue = [15, 11]"] ;
1110 -> 1112 ;
1113 [label="X[12] <= 1.0\ngini = 0.415\nsamples = 17\nvalue = [12, 5]"] ;
1112 -> 1113 ;
1114 [label="gini = 0.0\nsamples = 7\nvalue = [7, 0]"] ;
1113 -> 1114 ;
1115 [label="X[2] <= 88.825\ngini = 0.5\nsamples = 10\nvalue = [5, 5]"] ;
1113 -> 1115 ;
1116 [label="X[6] <= 0.5\ngini = 0.469\nsamples = 8\nvalue = [3, 5]"] ;
1115 -> 1116 ;
1117 [label="X[3] <= 3796.15\ngini = 0.408\nsamples = 7\nvalue = [2, 5]"] ;
1116 -> 1117 ;
1118 [label="X[13] <= 1.0\ngini = 0.444\nsamples = 3\nvalue = [2, 1]"] ;
1117 -> 1118 ;
1119 [label="gini = 0.0\nsamples = 1\nvalue = [1, 0]"] ;
1118 -> 1119 ;
1120 [label="X[18] <= 1.5\ngini = 0.5\nsamples = 2\nvalue = [1, 1]"] ;
1118 -> 1120 ;
1121 [label="gini = 0.0\nsamples = 1\nvalue = [1, 0]"] ;
1120 -> 1121 ;
1122 [label="gini = 0.0\nsamples = 1\nvalue = [0, 1]"] ;
1120 -> 1122 ;
1123 [label="gini = 0.0\nsamples = 4\nvalue = [0, 4]"] ;
1117 -> 1123 ;
1124 [label="gini = 0.0\nsamples = 1\nvalue = [1, 0]"] ;
1116 -> 1124 ;
1125 [label="gini = 0.0\nsamples = 2\nvalue = [2, 0]"] ;
1115 -> 1125 ;
1126 [label="X[2] <= 95.325\ngini = 0.444\nsamples = 9\nvalue = [3, 6]"] ;
1112 -> 1126 ;
1127 [label="X[17] <= 0.5\ngini = 0.375\nsamples = 8\nvalue = [2, 6]"] ;
1126 -> 1127 ;
1128 [label="X[5] <= 0.5\ngini = 0.444\nsamples = 3\nvalue = [2, 1]"] ;
1127 -> 1128 ;
1129 [label="gini = 0.0\nsamples = 1\nvalue = [0, 1]"] ;
1128 -> 1129 ;
1130 [label="gini = 0.0\nsamples = 2\nvalue = [2, 0]"] ;
1128 -> 1130 ;
1131 [label="gini = 0.0\nsamples = 5\nvalue = [0, 5]"] ;
1127 -> 1131 ;
1132 [label="gini = 0.0\nsamples = 1\nvalue = [1, 0]"] ;
1126 -> 1132 ;
1133 [label="X[18] <= 1.5\ngini = 0.32\nsamples = 10\nvalue = [8, 2]"] ;
1109 -> 1133 ;
1134 [label="gini = 0.0\nsamples = 7\nvalue = [7, 0]"] ;
1133 -> 1134 ;
1135 [label="X[3] <= 4301.525\ngini = 0.444\nsamples = 3\nvalue = [1, 2]"] ;
1133 -> 1135 ;
1136 [label="gini = 0.0\nsamples = 1\nvalue = [1, 0]"] ;
1135 -> 1136 ;
1137 [label="gini = 0.0\nsamples = 2\nvalue = [0, 2]"] ;
1135 -> 1137 ;
1138 [label="X[3] <= 5935.925\ngini = 0.117\nsamples = 16\nvalue = [15, 1]"] ;
1088 -> 1138 ;
1139 [label="gini = 0.0\nsamples = 12\nvalue = [12, 0]"] ;
1138 -> 1139 ;
1140 [label="X[3] <= 5958.875\ngini = 0.375\nsamples = 4\nvalue = [3, 1]"] ;
1138 -> 1140 ;
1141 [label="gini = 0.0\nsamples = 1\nvalue = [0, 1]"] ;
1140 -> 1141 ;
1142 [label="gini = 0.0\nsamples = 3\nvalue = [3, 0]"] ;
1140 -> 1142 ;
1143 [label="X[3] <= 3643.025\ngini = 0.488\nsamples = 57\nvalue = [33, 24]"] ;
1085 -> 1143 ;
1144 [label="X[17] <= 0.5\ngini = 0.43\nsamples = 16\nvalue = [5, 11]"] ;
1143 -> 1144 ;
1145 [label="X[18] <= 1.0\ngini = 0.375\nsamples = 4\nvalue = [3, 1]"] ;
1144 -> 1145 ;
1146 [label="gini = 0.0\nsamples = 1\nvalue = [0, 1]"] ;
1145 -> 1146 ;
1147 [label="gini = 0.0\nsamples = 3\nvalue = [3, 0]"] ;
1145 -> 1147 ;
1148 [label="X[11] <= 1.0\ngini = 0.278\nsamples = 12\nvalue = [2, 10]"] ;
1144 -> 1148 ;
1149 [label="gini = 0.0\nsamples = 9\nvalue = [0, 9]"] ;
1148 -> 1149 ;
1150 [label="X[12] <= 1.0\ngini = 0.444\nsamples = 3\nvalue = [2, 1]"] ;
1148 -> 1150 ;
1151 [label="gini = 0.0\nsamples = 2\nvalue = [2, 0]"] ;
1150 -> 1151 ;
1152 [label="gini = 0.0\nsamples = 1\nvalue = [0, 1]"] ;
1150 -> 1152 ;
1153 [label="X[3] <= 4099.225\ngini = 0.433\nsamples = 41\nvalue = [28, 13]"] ;
1143 -> 1153 ;
1154 [label="X[18] <= 2.5\ngini = 0.142\nsamples = 13\nvalue = [12, 1]"] ;
1153 -> 1154 ;
1155 [label="gini = 0.0\nsamples = 12\nvalue = [12, 0]"] ;
1154 -> 1155 ;
1156 [label="gini = 0.0\nsamples = 1\nvalue = [0, 1]"] ;
1154 -> 1156 ;
1157 [label="X[1] <= 55.5\ngini = 0.49\nsamples = 28\nvalue = [16, 12]"] ;
1153 -> 1157 ;
1158 [label="X[15] <= 1.0\ngini = 0.397\nsamples = 11\nvalue = [3, 8]"] ;
1157 -> 1158 ;
1159 [label="gini = 0.0\nsamples = 6\nvalue = [0, 6]"] ;
1158 -> 1159 ;
1160 [label="X[1] <= 48.5\ngini = 0.48\nsamples = 5\nvalue = [3, 2]"] ;
1158 -> 1160 ;
1161 [label="gini = 0.0\nsamples = 2\nvalue = [2, 0]"] ;
1160 -> 1161 ;
1162 [label="X[1] <= 51.5\ngini = 0.444\nsamples = 3\nvalue = [1, 2]"] ;
1160 -> 1162 ;
1163 [label="gini = 0.0\nsamples = 2\nvalue = [0, 2]"] ;
1162 -> 1163 ;
1164 [label="gini = 0.0\nsamples = 1\nvalue = [1, 0]"] ;
1162 -> 1164 ;
1165 [label="X[12] <= 1.0\ngini = 0.36\nsamples = 17\nvalue = [13, 4]"] ;
1157 -> 1165 ;
1166 [label="X[3] <= 5074.85\ngini = 0.5\nsamples = 8\nvalue = [4, 4]"] ;
1165 -> 1166 ;
1167 [label="gini = 0.0\nsamples = 3\nvalue = [3, 0]"] ;
1166 -> 1167 ;
1168 [label="X[2] <= 94.25\ngini = 0.32\nsamples = 5\nvalue = [1, 4]"] ;
1166 -> 1168 ;
1169 [label="gini = 0.0\nsamples = 4\nvalue = [0, 4]"] ;
1168 -> 1169 ;
1170 [label="gini = 0.0\nsamples = 1\nvalue = [1, 0]"] ;
1168 -> 1170 ;
1171 [label="gini = 0.0\nsamples = 9\nvalue = [9, 0]"] ;
1165 -> 1171 ;
1172 [label="X[4] <= 0.5\ngini = 0.5\nsamples = 150\nvalue = [77, 73]"] ;
1084 -> 1172 ;
1173 [label="X[13] <= 1.0\ngini = 0.469\nsamples = 72\nvalue = [45, 27]"] ;
1172 -> 1173 ;
1174 [label="X[3] <= 3136.8\ngini = 0.499\nsamples = 48\nvalue = [25, 23]"] ;
1173 -> 1174 ;
1175 [label="gini = 0.0\nsamples = 3\nvalue = [3, 0]"] ;
1174 -> 1175 ;
1176 [label="X[3] <= 3630.55\ngini = 0.5\nsamples = 45\nvalue = [22, 23]"] ;
1174 -> 1176 ;
1177 [label="X[1] <= 33.5\ngini = 0.375\nsamples = 12\nvalue = [3, 9]"] ;
1176 -> 1177 ;
1178 [label="X[3] <= 3253.625\ngini = 0.5\nsamples = 6\nvalue = [3, 3]"] ;
1177 -> 1178 ;
1179 [label="gini = 0.0\nsamples = 2\nvalue = [0, 2]"] ;
1178 -> 1179 ;
1180 [label="X[5] <= 0.5\ngini = 0.375\nsamples = 4\nvalue = [3, 1]"] ;
1178 -> 1180 ;
1181 [label="gini = 0.0\nsamples = 3\nvalue = [3, 0]"] ;
1180 -> 1181 ;
1182 [label="gini = 0.0\nsamples = 1\nvalue = [0, 1]"] ;
1180 -> 1182 ;
1183 [label="gini = 0.0\nsamples = 6\nvalue = [0, 6]"] ;
1177 -> 1183 ;
1184 [label="X[3] <= 6771.2\ngini = 0.489\nsamples = 33\nvalue = [19, 14]"] ;
1176 -> 1184 ;
1185 [label="X[3] <= 6398.85\ngini = 0.475\nsamples = 31\nvalue = [19, 12]"] ;
1184 -> 1185 ;
1186 [label="X[3] <= 5076.475\ngini = 0.49\nsamples = 28\nvalue = [16, 12]"] ;
1185 -> 1186 ;
1187 [label="X[2] <= 96.2\ngini = 0.415\nsamples = 17\nvalue = [12, 5]"] ;
1186 -> 1187 ;
1188 [label="gini = 0.0\nsamples = 1\nvalue = [0, 1]"] ;
1187 -> 1188 ;
1189 [label="X[1] <= 42.5\ngini = 0.375\nsamples = 16\nvalue = [12, 4]"] ;
1187 -> 1189 ;
1190 [label="X[3] <= 4228.7\ngini = 0.48\nsamples = 10\nvalue = [6, 4]"] ;
1189 -> 1190 ;
1191 [label="X[1] <= 39.5\ngini = 0.375\nsamples = 8\nvalue = [6, 2]"] ;
1190 -> 1191 ;
1192 [label="X[2] <= 99.625\ngini = 0.48\nsamples = 5\nvalue = [3, 2]"] ;
1191 -> 1192 ;
1193 [label="gini = 0.0\nsamples = 1\nvalue = [0, 1]"] ;
1192 -> 1193 ;
1194 [label="X[11] <= 1.0\ngini = 0.375\nsamples = 4\nvalue = [3, 1]"] ;
1192 -> 1194 ;
1195 [label="gini = 0.0\nsamples = 2\nvalue = [2, 0]"] ;
1194 -> 1195 ;
1196 [label="X[17] <= 0.5\ngini = 0.5\nsamples = 2\nvalue = [1, 1]"] ;
1194 -> 1196 ;
1197 [label="gini = 0.0\nsamples = 1\nvalue = [1, 0]"] ;
1196 -> 1197 ;
1198 [label="gini = 0.0\nsamples = 1\nvalue = [0, 1]"] ;
1196 -> 1198 ;
1199 [label="gini = 0.0\nsamples = 3\nvalue = [3, 0]"] ;
1191 -> 1199 ;
1200 [label="gini = 0.0\nsamples = 2\nvalue = [0, 2]"] ;
1190 -> 1200 ;
1201 [label="gini = 0.0\nsamples = 6\nvalue = [6, 0]"] ;
1189 -> 1201 ;
1202 [label="X[2] <= 104.9\ngini = 0.463\nsamples = 11\nvalue = [4, 7]"] ;
1186 -> 1202 ;
1203 [label="X[2] <= 99.475\ngini = 0.5\nsamples = 8\nvalue = [4, 4]"] ;
1202 -> 1203 ;
1204 [label="gini = 0.0\nsamples = 2\nvalue = [0, 2]"] ;
1203 -> 1204 ;
1205 [label="X[18] <= 1.5\ngini = 0.444\nsamples = 6\nvalue = [4, 2]"] ;
1203 -> 1205 ;
1206 [label="X[1] <= 55.5\ngini = 0.444\nsamples = 3\nvalue = [1, 2]"] ;
1205 -> 1206 ;
1207 [label="gini = 0.0\nsamples = 1\nvalue = [1, 0]"] ;
1206 -> 1207 ;
1208 [label="gini = 0.0\nsamples = 2\nvalue = [0, 2]"] ;
1206 -> 1208 ;
1209 [label="gini = 0.0\nsamples = 3\nvalue = [3, 0]"] ;
1205 -> 1209 ;
1210 [label="gini = 0.0\nsamples = 3\nvalue = [0, 3]"] ;
1202 -> 1210 ;
1211 [label="gini = 0.0\nsamples = 3\nvalue = [3, 0]"] ;
1185 -> 1211 ;
1212 [label="gini = 0.0\nsamples = 2\nvalue = [0, 2]"] ;
1184 -> 1212 ;
1213 [label="X[1] <= 33.5\ngini = 0.278\nsamples = 24\nvalue = [20, 4]"] ;
1173 -> 1213 ;
1214 [label="X[1] <= 30.5\ngini = 0.5\nsamples = 4\nvalue = [2, 2]"] ;
1213 -> 1214 ;
1215 [label="gini = 0.0\nsamples = 2\nvalue = [2, 0]"] ;
1214 -> 1215 ;
1216 [label="gini = 0.0\nsamples = 2\nvalue = [0, 2]"] ;
1214 -> 1216 ;
1217 [label="X[17] <= 0.5\ngini = 0.18\nsamples = 20\nvalue = [18, 2]"] ;
1213 -> 1217 ;
1218 [label="X[1] <= 49.0\ngini = 0.5\nsamples = 2\nvalue = [1, 1]"] ;
1217 -> 1218 ;
1219 [label="gini = 0.0\nsamples = 1\nvalue = [1, 0]"] ;
1218 -> 1219 ;
1220 [label="gini = 0.0\nsamples = 1\nvalue = [0, 1]"] ;
1218 -> 1220 ;
1221 [label="X[2] <= 101.4\ngini = 0.105\nsamples = 18\nvalue = [17, 1]"] ;
1217 -> 1221 ;
1222 [label="X[2] <= 100.075\ngini = 0.278\nsamples = 6\nvalue = [5, 1]"] ;
1221 -> 1222 ;
1223 [label="gini = 0.0\nsamples = 5\nvalue = [5, 0]"] ;
1222 -> 1223 ;
1224 [label="gini = 0.0\nsamples = 1\nvalue = [0, 1]"] ;
1222 -> 1224 ;
1225 [label="gini = 0.0\nsamples = 12\nvalue = [12, 0]"] ;
1221 -> 1225 ;
1226 [label="X[1] <= 38.5\ngini = 0.484\nsamples = 78\nvalue = [32, 46]"] ;
1172 -> 1226 ;
1227 [label="X[2] <= 100.425\ngini = 0.484\nsamples = 17\nvalue = [10, 7]"] ;
1226 -> 1227 ;
1228 [label="X[11] <= 1.0\ngini = 0.408\nsamples = 7\nvalue = [2, 5]"] ;
1227 -> 1228 ;
1229 [label="gini = 0.0\nsamples = 4\nvalue = [0, 4]"] ;
1228 -> 1229 ;
1230 [label="X[18] <= 1.5\ngini = 0.444\nsamples = 3\nvalue = [2, 1]"] ;
1228 -> 1230 ;
1231 [label="gini = 0.0\nsamples = 2\nvalue = [2, 0]"] ;
1230 -> 1231 ;
1232 [label="gini = 0.0\nsamples = 1\nvalue = [0, 1]"] ;
1230 -> 1232 ;
1233 [label="X[5] <= 0.5\ngini = 0.32\nsamples = 10\nvalue = [8, 2]"] ;
1227 -> 1233 ;
1234 [label="X[3] <= 3544.95\ngini = 0.5\nsamples = 4\nvalue = [2, 2]"] ;
1233 -> 1234 ;
1235 [label="gini = 0.0\nsamples = 2\nvalue = [2, 0]"] ;
1234 -> 1235 ;
1236 [label="gini = 0.0\nsamples = 2\nvalue = [0, 2]"] ;
1234 -> 1236 ;
1237 [label="gini = 0.0\nsamples = 6\nvalue = [6, 0]"] ;
1233 -> 1237 ;
1238 [label="X[1] <= 44.5\ngini = 0.461\nsamples = 61\nvalue = [22, 39]"] ;
1226 -> 1238 ;
1239 [label="X[2] <= 100.425\ngini = 0.133\nsamples = 14\nvalue = [1, 13]"] ;
1238 -> 1239 ;
1240 [label="X[3] <= 4205.35\ngini = 0.32\nsamples = 5\nvalue = [1, 4]"] ;
1239 -> 1240 ;
1241 [label="gini = 0.0\nsamples = 4\nvalue = [0, 4]"] ;
1240 -> 1241 ;
1242 [label="gini = 0.0\nsamples = 1\nvalue = [1, 0]"] ;
1240 -> 1242 ;
1243 [label="gini = 0.0\nsamples = 9\nvalue = [0, 9]"] ;
1239 -> 1243 ;
1244 [label="X[2] <= 99.25\ngini = 0.494\nsamples = 47\nvalue = [21, 26]"] ;
1238 -> 1244 ;
1245 [label="X[11] <= 1.0\ngini = 0.444\nsamples = 18\nvalue = [12, 6]"] ;
1244 -> 1245 ;
1246 [label="X[2] <= 98.775\ngini = 0.408\nsamples = 7\nvalue = [2, 5]"] ;
1245 -> 1246 ;
1247 [label="gini = 0.0\nsamples = 5\nvalue = [0, 5]"] ;
1246 -> 1247 ;
1248 [label="gini = 0.0\nsamples = 2\nvalue = [2, 0]"] ;
1246 -> 1248 ;
1249 [label="X[15] <= 1.0\ngini = 0.165\nsamples = 11\nvalue = [10, 1]"] ;
1245 -> 1249 ;
1250 [label="X[3] <= 5587.55\ngini = 0.5\nsamples = 2\nvalue = [1, 1]"] ;
1249 -> 1250 ;
1251 [label="gini = 0.0\nsamples = 1\nvalue = [1, 0]"] ;
1250 -> 1251 ;
1252 [label="gini = 0.0\nsamples = 1\nvalue = [0, 1]"] ;
1250 -> 1252 ;
1253 [label="gini = 0.0\nsamples = 9\nvalue = [9, 0]"] ;
1249 -> 1253 ;
1254 [label="X[5] <= 0.5\ngini = 0.428\nsamples = 29\nvalue = [9, 20]"] ;
1244 -> 1254 ;
1255 [label="X[0] <= 0.5\ngini = 0.444\nsamples = 9\nvalue = [6, 3]"] ;
1254 -> 1255 ;
1256 [label="X[3] <= 6037.65\ngini = 0.48\nsamples = 5\nvalue = [2, 3]"] ;
1255 -> 1256 ;
1257 [label="X[2] <= 103.675\ngini = 0.444\nsamples = 3\nvalue = [2, 1]"] ;
1256 -> 1257 ;
1258 [label="gini = 0.0\nsamples = 2\nvalue = [2, 0]"] ;
1257 -> 1258 ;
1259 [label="gini = 0.0\nsamples = 1\nvalue = [0, 1]"] ;
1257 -> 1259 ;
1260 [label="gini = 0.0\nsamples = 2\nvalue = [0, 2]"] ;
1256 -> 1260 ;
1261 [label="gini = 0.0\nsamples = 4\nvalue = [4, 0]"] ;
1255 -> 1261 ;
1262 [label="X[2] <= 107.55\ngini = 0.255\nsamples = 20\nvalue = [3, 17]"] ;
1254 -> 1262 ;
1263 [label="X[1] <= 48.0\ngini = 0.111\nsamples = 17\nvalue = [1, 16]"] ;
1262 -> 1263 ;
1264 [label="X[3] <= 5127.05\ngini = 0.375\nsamples = 4\nvalue = [1, 3]"] ;
1263 -> 1264 ;
1265 [label="gini = 0.0\nsamples = 3\nvalue = [0, 3]"] ;
1264 -> 1265 ;
1266 [label="gini = 0.0\nsamples = 1\nvalue = [1, 0]"] ;
1264 -> 1266 ;
1267 [label="gini = 0.0\nsamples = 13\nvalue = [0, 13]"] ;
1263 -> 1267 ;
1268 [label="X[18] <= 1.0\ngini = 0.444\nsamples = 3\nvalue = [2, 1]"] ;
1262 -> 1268 ;
1269 [label="gini = 0.0\nsamples = 1\nvalue = [1, 0]"] ;
1268 -> 1269 ;
1270 [label="X[3] <= 6128.35\ngini = 0.5\nsamples = 2\nvalue = [1, 1]"] ;
1268 -> 1270 ;
1271 [label="gini = 0.0\nsamples = 1\nvalue = [0, 1]"] ;
1270 -> 1271 ;
1272 [label="gini = 0.0\nsamples = 1\nvalue = [1, 0]"] ;
1270 -> 1272 ;
1273 [label="X[2] <= 91.45\ngini = 0.366\nsamples = 987\nvalue = [749, 238]"] ;
1 -> 1273 ;
1274 [label="X[1] <= 2.5\ngini = 0.333\nsamples = 839\nvalue = [662, 177]"] ;
1273 -> 1274 ;
