digraph Tree {
node [shape=box] ;
0 [label="X[16] <= 0.5\ngini = 0.395\nsamples = 5634\nvalue = [4108, 1526]"] ;
1 [label="X[10] <= 0.5\ngini = 0.491\nsamples = 3117\nvalue = [1767, 1350]"] ;
0 -> 1 [labeldistance=2.5, labelangle=45, headlabel="True"] ;
2 [label="X[1] <= 10.5\ngini = 0.499\nsamples = 2130\nvalue = [1018, 1112]"] ;
1 -> 2 ;
3 [label="X[9] <= 0.5\ngini = 0.457\nsamples = 1025\nvalue = [362, 663]"] ;
2 -> 3 ;
4 [label="X[3] <= 225.625\ngini = 0.5\nsamples = 394\nvalue = [200, 194]"] ;
3 -> 4 ;
5 [label="X[17] <= 0.5\ngini = 0.491\nsamples = 278\nvalue = [120, 158]"] ;
4 -> 5 ;
6 [label="X[2] <= 45.625\ngini = 0.499\nsamples = 120\nvalue = [63, 57]"] ;
5 -> 6 ;
7 [label="X[18] <= 2.5\ngini = 0.465\nsamples = 68\nvalue = [43, 25]"] ;
6 -> 7 ;
8 [label="X[3] <= 42.825\ngini = 0.497\nsamples = 41\nvalue = [22, 19]"] ;
7 -> 8 ;
9 [label="X[15] <= 1.0\ngini = 0.346\nsamples = 9\nvalue = [2, 7]"] ;
8 -> 9 ;
10 [label="X[18] <= 1.0\ngini = 0.219\nsamples = 8\nvalue = [1, 7]"] ;
9 -> 10 ;
11 [label="X[2] <= 25.025\ngini = 0.5\nsamples = 2\nvalue = [1, 1]"] ;
10 -> 11 ;
12 [label="gini = 0.0\nsamples = 1\nvalue = [0, 1]"] ;
11 -> 12 ;
13 [label="gini = 0.0\nsamples = 1\nvalue = [1, 0]"] ;
11 -> 13 ;
14 [label="gini = 0.0\nsamples = 6\nvalue = [0, 6]"] ;
10 -> 14 ;
15 [label="gini = 0.0\nsamples = 1\nvalue = [1, 0]"] ;
9 -> 15 ;
16 [label="X[3] <= 44.625\ngini = 0.469\nsamples = 32\nvalue = [20, 12]"] ;
8 -> 16 ;
17 [label="gini = 0.0\nsamples = 6\nvalue = [6, 0]"] ;
16 -> 17 ;
18 [label="X[3] <= 147.3\ngini = 0.497\nsamples = 26\nvalue = [14, 12]"] ;
16 -> 18 ;
19 [label="X[14] <= 1.0\ngini = 0.496\nsamples = 22\nvalue = [10, 12]"] ;
18 -> 19 ;
20 [label="X[3] <= 81.7\ngini = 0.5\nsamples = 20\nvalue = [10, 10]"] ;
19 -> 20 ;
21 [label="X[2] <= 24.625\ngini = 0.444\nsamples = 12\nvalue = [4, 8]"] ;
20 -> 21 ;
22 [label="gini = 0.0\nsamples = 1\nvalue = [1, 0]"] ;
21 -> 22 ;
23 [label="X[0] <= 0.5\ngini = 0.397\nsamples = 11\nvalue = [3, 8]"] ;
21 -> 23 ;
24 [label="X[3] <= 77.7\ngini = 0.219\nsamples = 8\nvalue = [1, 7]"] ;
23 -> 24 ;
25 [label="gini = 0.0\nsamples = 6\nvalue = [0, 6]"] ;
24 -> 25 ;
26 [label="X[2] <= 34.725\ngini = 0.5\nsamples = 2\nvalue = [1, 1]"] ;
24 -> 26 ;
27 [label="gini = 0.0\nsamples = 1\nvalue = [1, 0]"] ;
26 -> 27 ;
28 [label="gini = 0.0\nsamples = 1\nvalue = [0, 1]"] ;
26 -> 28 ;
29 [label="X[2] <= 45.15\ngini = 0.444\nsamples = 3\nvalue = [2, 1]"] ;
23 -> 29 ;
30 [label="gini = 0.0\nsamples = 1\nvalue = [0, 1]"] ;
29 -> 30 ;
31 [label="gini = 0.0\nsamples = 2\nvalue = [2, 0]"] ;
29 -> 31 ;
32 [label="X[3] <= 126.875\ngini = 0.375\nsamples = 8\nvalue = [6, 2]"] ;
20 -> 32 ;
33 [label="X[2] <= 44.975\ngini = 0.245\nsamples = 7\nvalue = [6, 1]"] ;
32 -> 33 ;
34 [label="gini = 0.0\nsamples = 5\nvalue = [5, 0]"] ;
33 -> 34 ;
35 [label="X[4] <= 0.5\ngini = 0.5\nsamples = 2\nvalue = [1, 1]"] ;
33 -> 35 ;
36 [label="gini = 0.0\nsamples = 1\nvalue = [1, 0]"] ;
35 -> 36 ;
37 [label="gini = 0.0\nsamples = 1\nvalue = [0, 1]"] ;
35 -> 37 ;
38 [label="gini = 0.0\nsamples = 1\nvalue = [0, 1]"] ;
32 -> 38 ;
39 [label="gini = 0.0\nsamples = 2\nvalue = [0, 2]"] ;
19 -> 39 ;
40 [label="gini = 0.0\nsamples = 4\nvalue = [4, 0]"] ;
18 -> 40 ;
41 [label="X[0] <= 0.5\ngini = 0.346\nsamples = 27\nvalue = [21, 6]"] ;
7 -> 41 ;
42 [label="X[1] <= 6.5\ngini = 0.311\nsamples = 26\nvalue = [21, 5]"] ;
41 -> 42 ;
43 [label="X[7] <= 0.5\ngini = 0.269\nsamples = 25\nvalue = [21, 4]"] ;
42 -> 43 ;
44 [label="X[3] <= 25.275\ngini = 0.133\nsamples = 14\nvalue = [13, 1]"] ;
43 -> 44 ;
45 [label="X[2] <= 24.8\ngini = 0.375\nsamples = 4\nvalue = [3, 1]"] ;
44 -> 45 ;
46 [label="gini = 0.0\nsamples = 3\nvalue = [3, 0]"] ;
45 -> 46 ;
47 [label="gini = 0.0\nsamples = 1\nvalue = [0, 1]"] ;
45 -> 47 ;
48 [label="gini = 0.0\nsamples = 10\nvalue = [10, 0]"] ;
44 -> 48 ;
49 [label="X[2] <= 44.425\ngini = 0.397\nsamples = 11\nvalue = [8, 3]"] ;
43 -> 49 ;
50 [label="gini = 0.0\nsamples = 2\nvalue = [0, 2]"] ;
49 -> 50 ;
51 [label="X[3] <= 45.1\ngini = 0.198\nsamples = 9\nvalue = [8, 1]"] ;
49 -> 51 ;
52 [label="X[3] <= 44.9\ngini = 0.444\nsamples = 3\nvalue = [2, 1]"] ;
51 -> 52 ;
53 [label="gini = 0.0\nsamples = 2\nvalue = [2, 0]"] ;
52 -> 53 ;
54 [label="gini = 0.0\nsamples = 1\nvalue = [0, 1]"] ;
52 -> 54 ;
55 [label="gini = 0.0\nsamples = 6\nvalue = [6, 0]"] ;
51 -> 55 ;
56 [label="gini = 0.0\nsamples = 1\nvalue = [0, 1]"] ;
42 -> 56 ;
57 [label="gini = 0.0\nsamples = 1\nvalue = [0, 1]"] ;
41 -> 57 ;
58 [label="X[2] <= 47.95\ngini = 0.473\nsamples = 52\nvalue = [20, 32]"] ;
6 -> 58 ;
59 [label="gini = 0.0\nsamples = 10\nvalue = [0, 10]"] ;
58 -> 59 ;
60 [label="X[2] <= 50.0\ngini = 0.499\nsamples = 42\nvalue = [20, 22]"] ;
58 -> 60 ;
61 [label="X[12] <= 1.0\ngini = 0.245\nsamples = 7\nvalue = [6, 1]"] ;
60 -> 61 ;
62 [label="gini = 0.0\nsamples = 6\nvalue = [6, 0]"] ;
61 -> 62 ;
63 [label="gini = 0.0\nsamples = 1\nvalue = [0, 1]"] ;
61 -> 63 ;
64 [label="X[2] <= 51.4\ngini = 0.48\nsamples = 35\nvalue = [14, 21]"] ;
60 -> 64 ;
65 [label="X[8] <= 1.0\ngini = 0.337\nsamples = 14\nvalue = [3, 11]"] ;
64 -> 65 ;
66 [label="gini = 0.0\nsamples = 9\nvalue = [0, 9]"] ;
65 -> 66 ;
67 [label="X[18] <= 2.5\ngini = 0.48\nsamples = 5\nvalue = [3, 2]"] ;
65 -> 67 ;
68 [label="gini = 0.0\nsamples = 2\nvalue = [2, 0]"] ;
67 -> 68 ;
69 [label="X[2] <= 50.65\ngini = 0.444\nsamples = 3\nvalue = [1, 2]"] ;
67 -> 69 ;
70 [label="gini = 0.0\nsamples = 2\nvalue = [0, 2]"] ;
69 -> 70 ;
71 [label="gini = 0.0\nsamples = 1\nvalue = [1, 0]"] ;
69 -> 71 ;
72 [label="X[3] <= 55.125\ngini = 0.499\nsamples = 21\nvalue = [11, 10]"] ;
64 -> 72 ;
73 [label="gini = 0.0\nsamples = 2\nvalue = [2, 0]"] ;
72 -> 73 ;
74 [label="X[3] <= 81.85\ngini = 0.499\nsamples = 19\nvalue = [9, 10]"] ;
72 -> 74 ;
75 [label="X[15] <= 1.0\ngini = 0.32\nsamples = 5\nvalue = [1, 4]"] ;
74 -> 75 ;
76 [label="gini = 0.0\nsamples = 3\nvalue = [0, 3]"] ;
75 -> 76 ;
77 [label="X[12] <= 1.0\ngini = 0.5\nsamples = 2\nvalue = [1, 1]"] ;
75 -> 77 ;
78 [label="gini = 0.0\nsamples = 1\nvalue = [1, 0]"] ;
77 -> 78 ;
79 [label="gini = 0.0\nsamples = 1\nvalue = [0, 1]"] ;
77 -> 79 ;
80 [label="X[3] <= 114.85\ngini = 0.49\nsamples = 14\nvalue = [8, 6]"] ;
74 -> 80 ;
81 [label="gini = 0.0\nsamples = 3\nvalue = [3, 0]"] ;
80 -> 81 ;
82 [label="X[3] <= 161.125\ngini = 0.496\nsamples = 11\nvalue = [5, 6]"] ;
80 -> 82 ;
83 [label="X[12] <= 1.0\ngini = 0.32\nsamples = 5\nvalue = [1, 4]"] ;
82 -> 83 ;
84 [label="gini = 0.0\nsamples = 3\nvalue = [0, 3]"] ;
83 -> 84 ;
85 [label="X[2] <= 72.7\ngini = 0.5\nsamples = 2\nvalue = [1, 1]"] ;
83 -> 85 ;
86 [label="gini = 0.0\nsamples = 1\nvalue = [1, 0]"] ;
85 -> 86 ;
87 [label="gini = 0.0\nsamples = 1\nvalue = [0, 1]"] ;
85 -> 87 ;
88 [label="X[2] <= 54.475\ngini = 0.444\nsamples = 6\nvalue = [4, 2]"] ;
82 -> 88 ;
89 [label="gini = 0.0\nsamples = 2\nvalue = [0, 2]"] ;
88 -> 89 ;
90 [label="gini = 0.0\nsamples = 4\nvalue = [4, 0]"] ;
88 -> 90 ;
91 [label="X[1] <= 6.5\ngini = 0.461\nsamples = 158\nvalue = [57, 101]"] ;
5 -> 91 ;
92 [label="X[7] <= 0.5\ngini = 0.451\nsamples = 154\nvalue = [53, 101]"] ;
91 -> 92 ;
93 [label="X[2] <= 40.1\ngini = 0.295\nsamples = 50\nvalue = [9, 41]"] ;
92 -> 93 ;
94 [label="X[2] <= 39.85\ngini = 0.349\nsamples = 40\nvalue = [9, 31]"] ;
93 -> 94 ;
95 [label="X[18] <= 1.5\ngini = 0.326\nsamples = 39\nvalue = [8, 31]"] ;
94 -> 95 ;
96 [label="X[1] <= 3.5\ngini = 0.5\nsamples = 4\nvalue = [2, 2]"] ;
95 -> 96 ;
97 [label="gini = 0.0\nsamples = 2\nvalue = [2, 0]"] ;
96 -> 97 ;
98 [label="gini = 0.0\nsamples = 2\nvalue = [0, 2]"] ;
96 -> 98 ;
99 [label="X[11] <= 1.0\ngini = 0.284\nsamples = 35\nvalue = [6, 29]"] ;
95 -> 99 ;
100 [label="X[3] <= 96.45\ngini = 0.225\nsamples = 31\nvalue = [4, 27]"] ;
99 -> 100 ;
101 [label="X[3] <= 25.175\ngini = 0.142\nsamples = 26\nvalue = [2, 24]"] ;
100 -> 101 ;
102 [label="X[6] <= 0.5\ngini = 0.346\nsamples = 9\nvalue = [2, 7]"] ;
101 -> 102 ;
103 [label="X[3] <= 25.125\ngini = 0.219\nsamples = 8\nvalue = [1, 7]"] ;
102 -> 103 ;
104 [label="gini = 0.0\nsamples = 6\nvalue = [0, 6]"] ;
103 -> 104 ;
105 [label="X[4] <= 0.5\ngini = 0.5\nsamples = 2\nvalue = [1, 1]"] ;
103 -> 105 ;
106 [label="gini = 0.0\nsamples = 1\nvalue = [1, 0]"] ;
105 -> 106 ;
107 [label="gini = 0.0\nsamples = 1\nvalue = [0, 1]"] ;
105 -> 107 ;
108 [label="gini = 0.0\nsamples = 1\nvalue = [1, 0]"] ;
102 -> 108 ;
109 [label="gini = 0.0\nsamples = 17\nvalue = [0, 17]"] ;
101 -> 109 ;
110 [label="X[3] <= 100.175\ngini = 0.48\nsamples = 5\nvalue = [2, 3]"] ;
100 -> 110 ;
111 [label="X[2] <= 32.45\ngini = 0.444\nsamples = 3\nvalue = [2, 1]"] ;
110 -> 111 ;
112 [label="gini = 0.0\nsamples = 2\nvalue = [2, 0]"] ;
111 -> 112 ;
113 [label="gini = 0.0\nsamples = 1\nvalue = [0, 1]"] ;
111 -> 113 ;
114 [label="gini = 0.0\nsamples = 2\nvalue = [0, 2]"] ;
110 -> 114 ;
115 [label="X[5] <= 0.5\ngini = 0.5\nsamples = 4\nvalue = [2, 2]"] ;
99 -> 115 ;
116 [label="gini = 0.0\nsamples = 2\nvalue = [0, 2]"] ;
115 -> 116 ;
117 [label="gini = 0.0\nsamples = 2\nvalue = [2, 0]"] ;
115 -> 117 ;
118 [label="gini = 0.0\nsamples = 1\nvalue = [1, 0]"] ;
94 -> 118 ;
119 [label="gini = 0.0\nsamples = 10\nvalue = [0, 10]"] ;
93 -> 119 ;
120 [label="X[2] <= 56.4\ngini = 0.488\nsamples = 104\nvalue = [44, 60]"] ;
92 -> 120 ;
121 [label="X[3] <= 45.05\ngini = 0.477\nsamples = 94\nvalue = [37, 57]"] ;
120 -> 121 ;
122 [label="X[3] <= 44.5\ngini = 0.48\nsamples = 15\nvalue = [9, 6]"] ;
121 -> 122 ;
123 [label="X[3] <= 44.075\ngini = 0.494\nsamples = 9\nvalue = [4, 5]"] ;
122 -> 123 ;
124 [label="X[3] <= 43.375\ngini = 0.375\nsamples = 4\nvalue = [3, 1]"] ;
123 -> 124 ;
125 [label="gini = 0.0\nsamples = 1\nvalue = [0, 1]"] ;
124 -> 125 ;
126 [label="gini = 0.0\nsamples = 3\nvalue = [3, 0]"] ;
124 -> 126 ;
127 [label="X[4] <= 0.5\ngini = 0.32\nsamples = 5\nvalue = [1, 4]"] ;
123 -> 127 ;
128 [label="gini = 0.0\nsamples = 3\nvalue = [0, 3]"] ;
127 -> 128 ;
129 [label="X[2] <= 44.225\ngini = 0.5\nsamples = 2\nvalue = [1, 1]"] ;
127 -> 129 ;
130 [label="gini = 0.0\nsamples = 1\nvalue = [0, 1]"] ;
129 -> 130 ;
131 [label="gini = 0.0\nsamples = 1\nvalue = [1, 0]"] ;
129 -> 131 ;
132 [label="X[18] <= 0.5\ngini = 0.278\nsamples = 6\nvalue = [5, 1]"] ;
122 -> 132 ;
133 [label="gini = 0.0\nsamples = 1\nvalue = [0, 1]"] ;
132 -> 133 ;
134 [label="gini = 0.0\nsamples = 5\nvalue = [5, 0]"] ;
132 -> 134 ;
135 [label="X[0] <= 0.5\ngini = 0.458\nsamples = 79\nvalue = [28, 51]"] ;
121 -> 135 ;
136 [label="X[13] <= 1.0\ngini = 0.468\nsamples = 75\nvalue = [28, 47]"] ;
135 -> 136 ;
137 [label="X[3] <= 94.6\ngini = 0.448\nsamples = 65\nvalue = [22, 43]"] ;
136 -> 137 ;
138 [label="X[3] <= 49.725\ngini = 0.488\nsamples = 45\nvalue = [19, 26]"] ;
137 -> 138 ;
139 [label="X[18] <= 2.5\ngini = 0.337\nsamples = 14\nvalue = [3, 11]"] ;
138 -> 139 ;
140 [label="gini = 0.0\nsamples = 6\nvalue = [0, 6]"] ;
139 -> 140 ;
141 [label="X[2] <= 45.625\ngini = 0.469\nsamples = 8\nvalue = [3, 5]"] ;
139 -> 141 ;
142 [label="X[3] <= 45.475\ngini = 0.444\nsamples = 3\nvalue = [2, 1]"] ;
141 -> 142 ;
143 [label="gini = 0.5\nsamples = 2\nvalue = [1, 1]"] ;
142 -> 143 ;
144 [label="gini = 0.0\nsamples = 1\nvalue = [1, 0]"] ;
142 -> 144 ;
145 [label="X[3] <= 45.75\ngini = 0.32\nsamples = 5\nvalue = [1, 4]"] ;
141 -> 145 ;
146 [label="gini = 0.0\nsamples = 2\nvalue = [0, 2]"] ;
145 -> 146 ;
147 [label="X[2] <= 45.825\ngini = 0.444\nsamples = 3\nvalue = [1, 2]"] ;
145 -> 147 ;
148 [label="gini = 0.0\nsamples = 1\nvalue = [1, 0]"] ;
147 -> 148 ;
149 [label="gini = 0.0\nsamples = 2\nvalue = [0, 2]"] ;
147 -> 149 ;
150 [label="X[2] <= 50.375\ngini = 0.499\nsamples = 31\nvalue = [16, 15]"] ;
138 -> 150 ;
151 [label="X[18] <= 1.5\ngini = 0.375\nsamples = 16\nvalue = [12, 4]"] ;
150 -> 151 ;
152 [label="X[2] <= 46.3\ngini = 0.48\nsamples = 5\nvalue = [2, 3]"] ;
151 -> 152 ;
153 [label="gini = 0.0\nsamples = 2\nvalue = [0, 2]"] ;
152 -> 153 ;
154 [label="X[4] <= 0.5\ngini = 0.444\nsamples = 3\nvalue = [2, 1]"] ;
152 -> 154 ;
155 [label="gini = 0.0\nsamples = 1\nvalue = [0, 1]"] ;
154 -> 155 ;
156 [label="gini = 0.0\nsamples = 2\nvalue = [2, 0]"] ;
154 -> 156 ;
157 [label="X[8] <= 1.0\ngini = 0.165\nsamples = 11\nvalue = [10, 1]"] ;
151 -> 157 ;
158 [label="gini = 0.0\nsamples = 8\nvalue = [8, 0]"] ;
157 -> 158 ;
159 [label="X[18] <= 2.5\ngini = 0.444\nsamples = 3\nvalue = [2, 1]"] ;
157 -> 159 ;
160 [label="gini = 0.0\nsamples = 2\nvalue = [2, 0]"] ;
159 -> 160 ;
161 [label="gini = 0.0\nsamples = 1\nvalue = [0, 1]"] ;
159 -> 161 ;
162 [label="X[2] <= 54.1\ngini = 0.391\nsamples = 15\nvalue = [4, 11]"] ;
150 -> 162 ;
163 [label="gini = 0.0\nsamples = 6\nvalue = [0, 6]"] ;
162 -> 163 ;
164 [label="X[15] <= 1.0\ngini = 0.494\nsamples = 9\nvalue = [4, 5]"] ;
162 -> 164 ;
165 [label="gini = 0.0\nsamples = 2\nvalue = [2, 0]"] ;
164 -> 165 ;
166 [label="X[2] <= 55.125\ngini = 0.408\nsamples = 7\nvalue = [2, 5]"] ;
164 -> 166 ;
167 [label="gini = 0.0\nsamples = 2\nvalue = [0, 2]"] ;
166 -> 167 ;
168 [label="X[3] <= 55.575\ngini = 0.48\nsamples = 5\nvalue = [2, 3]"] ;
166 -> 168 ;
169 [label="X[3] <= 55.325\ngini = 0.444\nsamples = 3\nvalue = [2, 1]"] ;
168 -> 169 ;
170 [label="gini = 0.0\nsamples = 1\nvalue = [1, 0]"] ;
169 -> 170 ;
171 [label="X[2] <= 55.425\ngini = 0.5\nsamples = 2\nvalue = [1, 1]"] ;
169 -> 171 ;
172 [label="gini = 0.0\nsamples = 1\nvalue = [0, 1]"] ;
171 -> 172 ;
173 [label="gini = 0.0\nsamples = 1\nvalue = [1, 0]"] ;
171 -> 173 ;
174 [label="gini = 0.0\nsamples = 2\nvalue = [0, 2]"] ;
168 -> 174 ;
175 [label="X[18] <= 1.5\ngini = 0.255\nsamples = 20\nvalue = [3, 17]"] ;
137 -> 175 ;
176 [label="X[14] <= 1.0\ngini = 0.444\nsamples = 3\nvalue = [2, 1]"] ;
175 -> 176 ;
177 [label="gini = 0.0\nsamples = 2\nvalue = [2, 0]"] ;
176 -> 177 ;
178 [label="gini = 0.0\nsamples = 1\nvalue = [0, 1]"] ;
176 -> 178 ;
179 [label="X[5] <= 0.5\ngini = 0.111\nsamples = 17\nvalue = [1, 16]"] ;
175 -> 179 ;
180 [label="gini = 0.0\nsamples = 13\nvalue = [0, 13]"] ;
179 -> 180 ;
181 [label="X[2] <= 48.125\ngini = 0.375\nsamples = 4\nvalue = [1, 3]"] ;
179 -> 181 ;
182 [label="gini = 0.0\nsamples = 1\nvalue = [1, 0]"] ;
181 -> 182 ;
183 [label="gini = 0.0\nsamples = 3\nvalue = [0, 3]"] ;
181 -> 183 ;
184 [label="X[18] <= 2.5\ngini = 0.48\nsamples = 10\nvalue = [6, 4]"] ;
136 -> 184 ;
185 [label="X[3] <= 50.35\ngini = 0.48\nsamples = 5\nvalue = [2, 3]"] ;
184 -> 185 ;
186 [label="gini = 0.0\nsamples = 2\nvalue = [2, 0]"] ;
185 -> 186 ;
187 [label="gini = 0.0\nsamples = 3\nvalue = [0, 3]"] ;
185 -> 187 ;
188 [label="X[2] <= 50.075\ngini = 0.32\nsamples = 5\nvalue = [4, 1]"] ;
184 -> 188 ;
189 [label="gini = 0.0\nsamples = 1\nvalue = [0, 1]"] ;
188 -> 189 ;
190 [label="gini = 0.0\nsamples = 4\nvalue = [4, 0]"] ;
188 -> 190 ;
191 [label="gini = 0.0\nsamples = 4\nvalue = [0, 4]"] ;
135 -> 191 ;
192 [label="X[2] <= 59.85\ngini = 0.42\nsamples = 10\nvalue = [7, 3]"] ;
120 -> 192 ;
193 [label="gini = 0.0\nsamples = 3\nvalue = [3, 0]"] ;
192 -> 193 ;
194 [label="X[18] <= 2.5\ngini = 0.49\nsamples = 7\nvalue = [4, 3]"] ;
192 -> 194 ;
195 [label="X[2] <= 72.425\ngini = 0.48\nsamples = 5\nvalue = [2, 3]"] ;
194 -> 195 ;
196 [label="X[2] <= 61.925\ngini = 0.375\nsamples = 4\nvalue = [1, 3]"] ;
195 -> 196 ;
197 [label="X[14] <= 1.0\ngini = 0.5\nsamples = 2\nvalue = [1, 1]"] ;
196 -> 197 ;
198 [label="gini = 0.0\nsamples = 1\nvalue = [0, 1]"] ;
197 -> 198 ;
199 [label="gini = 0.0\nsamples = 1\nvalue = [1, 0]"] ;
197 -> 199 ;
200 [label="gini = 0.0\nsamples = 2\nvalue = [0, 2]"] ;
196 -> 200 ;
201 [label="gini = 0.0\nsamples = 1\nvalue = [1, 0]"] ;
195 -> 201 ;
202 [label="gini = 0.0\nsamples = 2\nvalue = [2, 0]"] ;
194 -> 202 ;
203 [label="gini = 0.0\nsamples = 4\nvalue = [4, 0]"] ;
91 -> 203 ;
204 [label="X[2] <= 67.875\ngini = 0.428\nsamples = 116\nvalue = [80, 36]"] ;
4 -> 204 ;
205 [label="X[2] <= 51.1\ngini = 0.4\nsamples = 105\nvalue = [76, 29]"] ;
204 -> 205 ;
206 [label="X[3] <= 309.325\ngini = 0.481\nsamples = 57\nvalue = [34, 23]"] ;
205 -> 206 ;
207 [label="X[3] <= 236.225\ngini = 0.497\nsamples = 26\nvalue = [12, 14]"] ;
206 -> 207 ;
208 [label="gini = 0.0\nsamples = 3\nvalue = [3, 0]"] ;
207 -> 208 ;
209 [label="X[17] <= 0.5\ngini = 0.476\nsamples = 23\nvalue = [9, 14]"] ;
207 -> 209 ;
210 [label="X[3] <= 273.725\ngini = 0.48\nsamples = 10\nvalue = [6, 4]"] ;
209 -> 210 ;
211 [label="X[18] <= 1.0\ngini = 0.32\nsamples = 5\nvalue = [1, 4]"] ;
210 -> 211 ;
212 [label="gini = 0.0\nsamples = 1\nvalue = [1, 0]"] ;
211 -> 212 ;
213 [label="gini = 0.0\nsamples = 4\nvalue = [0, 4]"] ;
211 -> 213 ;
214 [label="gini = 0.0\nsamples = 5\nvalue = [5, 0]"] ;
210 -> 214 ;
215 [label="X[6] <= 0.5\ngini = 0.355\nsamples = 13\nvalue = [3, 10]"] ;
209 -> 215 ;
216 [label="X[3] <= 265.2\ngini = 0.18\nsamples = 10\nvalue = [1, 9]"] ;
215 -> 216 ;
217 [label="X[18] <= 2.5\ngini = 0.5\nsamples = 2\nvalue = [1, 1]"] ;
216 -> 217 ;
218 [label="gini = 0.0\nsamples = 1\nvalue = [1, 0]"] ;
217 -> 218 ;
219 [label="gini = 0.0\nsamples = 1\nvalue = [0, 1]"] ;
217 -> 219 ;
220 [label="gini = 0.0\nsamples = 8\nvalue = [0, 8]"] ;
216 -> 220 ;
221 [label="X[2] <= 46.7\ngini = 0.444\nsamples = 3\nvalue = [2, 1]"] ;
215 -> 221 ;
222 [label="gini = 0.0\nsamples = 1\nvalue = [0, 1]"] ;
221 -> 222 ;
223 [label="gini = 0.0\nsamples = 2\nvalue = [2, 0]"] ;
221 -> 223 ;
224 [label="X[14] <= 1.0\ngini = 0.412\nsamples = 31\nvalue = [22, 9]"] ;
206 -> 224 ;
225 [label="X[2] <= 48.75\ngini = 0.366\nsamples = 29\nvalue = [22, 7]"] ;
224 -> 225 ;
226 [label="X[2] <= 44.8\ngini = 0.444\nsamples = 21\nvalue = [14, 7]"] ;
225 -> 226 ;
227 [label="X[2] <= 35.225\ngini = 0.153\nsamples = 12\nvalue = [11, 1]"] ;
226 -> 227 ;
228 [label="X[2] <= 34.625\ngini = 0.5\nsamples = 2\nvalue = [1, 1]"] ;
227 -> 228 ;
229 [label="gini = 0.0\nsamples = 1\nvalue = [1, 0]"] ;
228 -> 229 ;
230 [label="gini = 0.0\nsamples = 1\nvalue = [0, 1]"] ;
228 -> 230 ;
231 [label="gini = 0.0\nsamples = 10\nvalue = [10, 0]"] ;
227 -> 231 ;
232 [label="X[2] <= 45.2\ngini = 0.444\nsamples = 9\nvalue = [3, 6]"] ;
226 -> 232 ;
233 [label="gini = 0.0\nsamples = 4\nvalue = [0, 4]"] ;
232 -> 233 ;
234 [label="X[3] <= 415.65\ngini = 0.48\nsamples = 5\nvalue = [3, 2]"] ;
232 -> 234 ;
235 [label="X[18] <= 2.5\ngini = 0.444\nsamples = 3\nvalue = [1, 2]"] ;
234 -> 235 ;
236 [label="gini = 0.0\nsamples = 2\nvalue = [0, 2]"] ;
235 -> 236 ;
237 [label="gini = 0.0\nsamples = 1\nvalue = [1, 0]"] ;
235 -> 237 ;
238 [label="gini = 0.0\nsamples = 2\nvalue = [2, 0]"] ;
234 -> 238 ;
239 [label="gini = 0.0\nsamples = 8\nvalue = [8, 0]"] ;
225 -> 239 ;
240 [label="gini = 0.0\nsamples = 2\nvalue = [0, 2]"] ;
224 -> 240 ;
241 [label="X[6] <= 0.5\ngini = 0.219\nsamples = 48\nvalue = [42, 6]"] ;
205 -> 241 ;
242 [label="X[18] <= 2.5\ngini = 0.105\nsamples = 36\nvalue = [34, 2]"] ;
241 -> 242 ;
243 [label="gini = 0.0\nsamples = 26\nvalue = [26, 0]"] ;
242 -> 243 ;
244 [label="X[2] <= 65.9\ngini = 0.32\nsamples = 10\nvalue = [8, 2]"] ;
242 -> 244 ;
245 [label="X[4] <= 0.5\ngini = 0.198\nsamples = 9\nvalue = [8, 1]"] ;
244 -> 245 ;
246 [label="X[8] <= 1.0\ngini = 0.444\nsamples = 3\nvalue = [2, 1]"] ;
245 -> 246 ;
247 [label="X[0] <= 0.5\ngini = 0.5\nsamples = 2\nvalue = [1, 1]"] ;
246 -> 247 ;
248 [label="gini = 0.0\nsamples = 1\nvalue = [0, 1]"] ;
247 -> 248 ;
249 [label="gini = 0.0\nsamples = 1\nvalue = [1, 0]"] ;
247 -> 249 ;
250 [label="gini = 0.0\nsamples = 1\nvalue = [1, 0]"] ;
246 -> 250 ;
251 [label="gini = 0.0\nsamples = 6\nvalue = [6, 0]"] ;
245 -> 251 ;
252 [label="gini = 0.0\nsamples = 1\nvalue = [0, 1]"] ;
244 -> 252 ;
253 [label="X[3] <= 247.25\ngini = 0.444\nsamples = 12\nvalue = [8, 4]"] ;
241 -> 253 ;
254 [label="gini = 0.0\nsamples = 2\nvalue = [0, 2]"] ;
253 -> 254 ;
255 [label="X[5] <= 0.5\ngini = 0.32\nsamples = 10\nvalue = [8, 2]"] ;
253 -> 255 ;
256 [label="gini = 0.0\nsamples = 1\nvalue = [0, 1]"] ;
255 -> 256 ;
257 [label="X[18] <= 1.5\ngini = 0.198\nsamples = 9\nvalue = [8, 1]"] ;
255 -> 257 ;
258 [label="X[3] <= 464.925\ngini = 0.5\nsamples = 2\nvalue = [1, 1]"] ;
257 -> 258 ;
259 [label="gini = 0.0\nsamples = 1\nvalue = [1, 0]"] ;
258 -> 259 ;
260 [label="gini = 0.0\nsamples = 1\nvalue = [0, 1]"] ;
258 -> 260 ;
261 [label="gini = 0.0\nsamples = 7\nvalue = [7, 0]"] ;
257 -> 261 ;
262 [label="X[3] <= 252.675\ngini = 0.463\nsamples = 11\nvalue = [4, 7]"] ;
204 -> 262 ;
263 [label="gini = 0.0\nsamples = 2\nvalue = [2, 0]"] ;
262 -> 263 ;
264 [label="X[2] <= 74.9\ngini = 0.346\nsamples = 9\nvalue = [2, 7]"] ;
262 -> 264 ;
265 [label="X[5] <= 0.5\ngini = 0.219\nsamples = 8\nvalue = [1, 7]"] ;
264 -> 265 ;
266 [label="gini = 0.0\nsamples = 6\nvalue = [0, 6]"] ;
265 -> 266 ;
267 [label="X[15] <= 1.0\ngini = 0.5\nsamples = 2\nvalue = [1, 1]"] ;
265 -> 267 ;
268 [label="gini = 0.0\nsamples = 1\nvalue = [0, 1]"] ;
267 -> 268 ;
269 [label="gini = 0.0\nsamples = 1\nvalue = [1, 0]"] ;
267 -> 269 ;
270 [label="gini = 0.0\nsamples = 1\nvalue = [1, 0]"] ;
264 -> 270 ;
271 [label="X[3] <= 120.0\ngini = 0.382\nsamples = 631\nvalue = [162, 469]"] ;
3 -> 271 ;
272 [label="X[13] <= 1.0\ngini = 0.218\nsamples = 185\nvalue = [23, 162]"] ;
271 -> 272 ;
273 [label="X[2] <= 69.875\ngini = 0.191\nsamples = 178\nvalue = [19, 159]"] ;
272 -> 273 ;
274 [label="gini = 0.0\nsamples = 33\nvalue = [0, 33]"] ;
273 -> 274 ;
275 [label="X[3] <= 71.3\ngini = 0.228\nsamples = 145\nvalue = [19, 126]"] ;
273 -> 275 ;
276 [label="X[18] <= 1.5\ngini = 0.375\nsamples = 40\nvalue = [10, 30]"] ;
275 -> 276 ;
277 [label="gini = 0.0\nsamples = 1\nvalue = [1, 0]"] ;
276 -> 277 ;
278 [label="X[3] <= 71.2\ngini = 0.355\nsamples = 39\nvalue = [9, 30]"] ;
276 -> 278 ;
279 [label="X[5] <= 0.5\ngini = 0.332\nsamples = 38\nvalue = [8, 30]"] ;
278 -> 279 ;
280 [label="X[4] <= 0.5\ngini = 0.375\nsamples = 32\nvalue = [8, 24]"] ;
279 -> 280 ;
281 [label="X[17] <= 0.5\ngini = 0.308\nsamples = 21\nvalue = [4, 17]"] ;
280 -> 281 ;
282 [label="X[2] <= 70.3\ngini = 0.48\nsamples = 5\nvalue = [2, 3]"] ;
281 -> 282 ;
283 [label="gini = 0.0\nsamples = 1\nvalue = [1, 0]"] ;
282 -> 283 ;
284 [label="X[2] <= 71.0\ngini = 0.375\nsamples = 4\nvalue = [1, 3]"] ;
282 -> 284 ;
285 [label="gini = 0.0\nsamples = 2\nvalue = [0, 2]"] ;
284 -> 285 ;
286 [label="gini = 0.5\nsamples = 2\nvalue = [1, 1]"] ;
284 -> 286 ;
287 [label="X[2] <= 70.175\ngini = 0.219\nsamples = 16\nvalue = [2, 14]"] ;
281 -> 287 ;
288 [label="gini = 0.0\nsamples = 7\nvalue = [0, 7]"] ;
287 -> 288 ;
289 [label="X[18] <= 2.5\ngini = 0.346\nsamples = 9\nvalue = [2, 7]"] ;
287 -> 289 ;
290 [label="X[2] <= 70.225\ngini = 0.219\nsamples = 8\nvalue = [1, 7]"] ;
289 -> 290 ;
291 [label="gini = 0.0\nsamples = 1\nvalue = [1, 0]"] ;
290 -> 291 ;
292 [label="gini = 0.0\nsamples = 7\nvalue = [0, 7]"] ;
290 -> 292 ;
293 [label="gini = 0.0\nsamples = 1\nvalue = [1, 0]"] ;
289 -> 293 ;
294 [label="X[17] <= 0.5\ngini = 0.463\nsamples = 11\nvalue = [4, 7]"] ;
280 -> 294 ;
295 [label="gini = 0.0\nsamples = 3\nvalue = [0, 3]"] ;
294 -> 295 ;
296 [label="X[0] <= 0.5\ngini = 0.5\nsamples = 8\nvalue = [4, 4]"] ;
294 -> 296 ;
297 [label="X[2] <= 70.525\ngini = 0.49\nsamples = 7\nvalue = [3, 4]"] ;
296 -> 297 ;
298 [label="X[6] <= 0.5\ngini = 0.444\nsamples = 6\nvalue = [2, 4]"] ;
297 -> 298 ;
299 [label="X[3] <= 70.325\ngini = 0.48\nsamples = 5\nvalue = [2, 3]"] ;
298 -> 299 ;
300 [label="X[2] <= 70.1\ngini = 0.375\nsamples = 4\nvalue = [1, 3]"] ;
299 -> 300 ;
301 [label="gini = 0.444\nsamples = 3\nvalue = [1, 2]"] ;
300 -> 301 ;
302 [label="gini = 0.0\nsamples = 1\nvalue = [0, 1]"] ;
300 -> 302 ;
303 [label="gini = 0.0\nsamples = 1\nvalue = [1, 0]"] ;
299 -> 303 ;
304 [label="gini = 0.0\nsamples = 1\nvalue = [0, 1]"] ;
298 -> 304 ;
305 [label="gini = 0.0\nsamples = 1\nvalue = [1, 0]"] ;
297 -> 305 ;
306 [label="gini = 0.0\nsamples = 1\nvalue = [1, 0]"] ;
296 -> 306 ;
307 [label="gini = 0.0\nsamples = 6\nvalue = [0, 6]"] ;
279 -> 307 ;
308 [label="gini = 0.0\nsamples = 1\nvalue = [1, 0]"] ;
278 -> 308 ;
309 [label="X[4] <= 0.5\ngini = 0.157\nsamples = 105\nvalue = [9, 96]"] ;
275 -> 309 ;
310 [label="X[6] <= 0.5\ngini = 0.075\nsamples = 51\nvalue = [2, 49]"] ;
309 -> 310 ;
311 [label="X[18] <= 2.5\ngini = 0.043\nsamples = 46\nvalue = [1, 45]"] ;
310 -> 311 ;
312 [label="gini = 0.0\nsamples = 39\nvalue = [0, 39]"] ;
311 -> 312 ;
313 [label="X[11] <= 1.0\ngini = 0.245\nsamples = 7\nvalue = [1, 6]"] ;
311 -> 313 ;
314 [label="gini = 0.0\nsamples = 5\nvalue = [0, 5]"] ;
313 -> 314 ;
315 [label="X[2] <= 79.675\ngini = 0.5\nsamples = 2\nvalue = [1, 1]"] ;
313 -> 315 ;
316 [label="gini = 0.0\nsamples = 1\nvalue = [1, 0]"] ;
315 -> 316 ;
317 [label="gini = 0.0\nsamples = 1\nvalue = [0, 1]"] ;
315 -> 317 ;
318 [label="X[2] <= 84.7\ngini = 0.32\nsamples = 5\nvalue = [1, 4]"] ;
310 -> 318 ;
319 [label="gini = 0.0\nsamples = 4\nvalue = [0, 4]"] ;
318 -> 319 ;
320 [label="gini = 0.0\nsamples = 1\nvalue = [1, 0]"] ;
318 -> 320 ;
321 [label="X[18] <= 1.5\ngini = 0.226\nsamples = 54\nvalue = [7, 47]"] ;
309 -> 321 ;
322 [label="X[17] <= 0.5\ngini = 0.5\nsamples = 4\nvalue = [2, 2]"] ;
321 -> 322 ;
323 [label="gini = 0.0\nsamples = 2\nvalue = [2, 0]"] ;
322 -> 323 ;
324 [label="gini = 0.0\nsamples = 2\nvalue = [0, 2]"] ;
322 -> 324 ;
325 [label="X[11] <= 1.0\ngini = 0.18\nsamples = 50\nvalue = [5, 45]"] ;
321 -> 325 ;
326 [label="X[2] <= 75.2\ngini = 0.156\nsamples = 47\nvalue = [4, 43]"] ;
325 -> 326 ;
327 [label="X[17] <= 0.5\ngini = 0.278\nsamples = 12\nvalue = [2, 10]"] ;
326 -> 327 ;
328 [label="gini = 0.0\nsamples = 1\nvalue = [1, 0]"] ;
327 -> 328 ;
329 [label="X[2] <= 75.0\ngini = 0.165\nsamples = 11\nvalue = [1, 10]"] ;
327 -> 329 ;
330 [label="gini = 0.0\nsamples = 10\nvalue = [0, 10]"] ;
329 -> 330 ;
331 [label="gini = 0.0\nsamples = 1\nvalue = [1, 0]"] ;
329 -> 331 ;
332 [label="X[2] <= 80.525\ngini = 0.108\nsamples = 35\nvalue = [2, 33]"] ;
326 -> 332 ;
333 [label="gini = 0.0\nsamples = 15\nvalue = [0, 15]"] ;
332 -> 333 ;
334 [label="X[3] <= 80.675\ngini = 0.18\nsamples = 20\nvalue = [2, 18]"] ;
332 -> 334 ;
335 [label="X[5] <= 0.5\ngini = 0.5\nsamples = 2\nvalue = [1, 1]"] ;
334 -> 335 ;
336 [label="gini = 0.0\nsamples = 1\nvalue = [1, 0]"] ;
335 -> 336 ;
337 [label="gini = 0.0\nsamples = 1\nvalue = [0, 1]"] ;
335 -> 337 ;
338 [label="X[8] <= 1.0\ngini = 0.105\nsamples = 18\nvalue = [1, 17]"] ;
334 -> 338 ;
339 [label="X[3] <= 89.2\ngini = 0.198\nsamples = 9\nvalue = [1, 8]"] ;
338 -> 339 ;
340 [label="gini = 0.0\nsamples = 5\nvalue = [0, 5]"] ;
339 -> 340 ;
341 [label="X[2] <= 89.4\ngini = 0.375\nsamples = 4\nvalue = [1, 3]"] ;
339 -> 341 ;
342 [label="gini = 0.0\nsamples = 1\nvalue = [1, 0]"] ;
341 -> 342 ;
343 [label="gini = 0.0\nsamples = 3\nvalue = [0, 3]"] ;
341 -> 343 ;
344 [label="gini = 0.0\nsamples = 9\nvalue = [0, 9]"] ;
338 -> 344 ;
345 [label="X[2] <= 80.175\ngini = 0.444\nsamples = 3\nvalue = [1, 2]"] ;
325 -> 345 ;
346 [label="gini = 0.0\nsamples = 2\nvalue = [0, 2]"] ;
345 -> 346 ;
347 [label="gini = 0.0\nsamples = 1\nvalue = [1, 0]"] ;
345 -> 347 ;
348 [label="X[3] <= 75.3\ngini = 0.49\nsamples = 7\nvalue = [4, 3]"] ;
272 -> 348 ;
349 [label="gini = 0.0\nsamples = 3\nvalue = [3, 0]"] ;
348 -> 349 ;
350 [label="X[15] <= 1.0\ngini = 0.375\nsamples = 4\nvalue = [1, 3]"] ;
348 -> 350 ;
351 [label="gini = 0.0\nsamples = 3\nvalue = [0, 3]"] ;
350 -> 351 ;
352 [label="gini = 0.0\nsamples = 1\nvalue = [1, 0]"] ;
350 -> 352 ;
353 [label="X[2] <= 75.7\ngini = 0.429\nsamples = 446\nvalue = [139, 307]"] ;
271 -> 353 ;
354 [label="X[8] <= 1.0\ngini = 0.498\nsamples = 134\nvalue = [63, 71]"] ;
353 -> 354 ;
355 [label="X[3] <= 658.575\ngini = 0.496\nsamples = 90\nvalue = [49, 41]"] ;
354 -> 355 ;
356 [label="X[3] <= 561.775\ngini = 0.488\nsamples = 85\nvalue = [49, 36]"] ;
355 -> 356 ;
357 [label="X[11] <= 1.0\ngini = 0.496\nsamples = 79\nvalue = [43, 36]"] ;
356 -> 357 ;
358 [label="X[3] <= 522.475\ngini = 0.5\nsamples = 71\nvalue = [36, 35]"] ;
357 -> 358 ;
359 [label="X[18] <= 0.5\ngini = 0.497\nsamples = 67\nvalue = [36, 31]"] ;
358 -> 359 ;
360 [label="X[1] <= 5.5\ngini = 0.375\nsamples = 8\nvalue = [2, 6]"] ;
359 -> 360 ;
361 [label="gini = 0.0\nsamples = 5\nvalue = [0, 5]"] ;
360 -> 361 ;
362 [label="X[12] <= 1.0\ngini = 0.444\nsamples = 3\nvalue = [2, 1]"] ;
360 -> 362 ;
363 [label="gini = 0.0\nsamples = 2\nvalue = [2, 0]"] ;
362 -> 363 ;
364 [label="gini = 0.0\nsamples = 1\nvalue = [0, 1]"] ;
362 -> 364 ;
365 [label="X[3] <= 309.75\ngini = 0.488\nsamples = 59\nvalue = [34, 25]"] ;
359 -> 365 ;
366 [label="X[2] <= 70.375\ngini = 0.444\nsamples = 39\nvalue = [26, 13]"] ;
365 -> 366 ;
367 [label="X[5] <= 0.5\ngini = 0.33\nsamples = 24\nvalue = [19, 5]"] ;
366 -> 367 ;
368 [label="X[3] <= 265.0\ngini = 0.43\nsamples = 16\nvalue = [11, 5]"] ;
367 -> 368 ;
369 [label="X[0] <= 0.5\ngini = 0.391\nsamples = 15\nvalue = [11, 4]"] ;
368 -> 369 ;
370 [label="X[3] <= 233.825\ngini = 0.278\nsamples = 12\nvalue = [10, 2]"] ;
369 -> 370 ;
371 [label="X[2] <= 69.675\ngini = 0.165\nsamples = 11\nvalue = [10, 1]"] ;
370 -> 371 ;
372 [label="X[17] <= 0.5\ngini = 0.5\nsamples = 2\nvalue = [1, 1]"] ;
371 -> 372 ;
373 [label="gini = 0.0\nsamples = 1\nvalue = [0, 1]"] ;
372 -> 373 ;
374 [label="gini = 0.0\nsamples = 1\nvalue = [1, 0]"] ;
372 -> 374 ;
375 [label="gini = 0.0\nsamples = 9\nvalue = [9, 0]"] ;
371 -> 375 ;
376 [label="gini = 0.0\nsamples = 1\nvalue = [0, 1]"] ;
370 -> 376 ;
377 [label="X[3] <= 200.35\ngini = 0.444\nsamples = 3\nvalue = [1, 2]"] ;
369 -> 377 ;
378 [label="gini = 0.0\nsamples = 2\nvalue = [0, 2]"] ;
377 -> 378 ;
379 [label="gini = 0.0\nsamples = 1\nvalue = [1, 0]"] ;
377 -> 379 ;
380 [label="gini = 0.0\nsamples = 1\nvalue = [0, 1]"] ;
368 -> 380 ;
381 [label="gini = 0.0\nsamples = 8\nvalue = [8, 0]"] ;
367 -> 381 ;
382 [label="X[4] <= 0.5\ngini = 0.498\nsamples = 15\nvalue = [7, 8]"] ;
366 -> 382 ;
383 [label="X[12] <= 1.0\ngini = 0.375\nsamples = 8\nvalue = [2, 6]"] ;
382 -> 383 ;
384 [label="X[18] <= 1.5\ngini = 0.245\nsamples = 7\nvalue = [1, 6]"] ;
383 -> 384 ;
385 [label="gini = 0.0\nsamples = 1\nvalue = [1, 0]"] ;
384 -> 385 ;
386 [label="gini = 0.0\nsamples = 6\nvalue = [0, 6]"] ;
384 -> 386 ;
387 [label="gini = 0.0\nsamples = 1\nvalue = [1, 0]"] ;
383 -> 387 ;
388 [label="X[5] <= 0.5\ngini = 0.408\nsamples = 7\nvalue = [5, 2]"] ;
382 -> 388 ;
389 [label="X[2] <= 72.6\ngini = 0.48\nsamples = 5\nvalue = [3, 2]"] ;
388 -> 389 ;
390 [label="X[18] <= 1.5\ngini = 0.375\nsamples = 4\nvalue = [3, 1]"] ;
389 -> 390 ;
391 [label="X[3] <= 149.225\ngini = 0.5\nsamples = 2\nvalue = [1, 1]"] ;
390 -> 391 ;
392 [label="gini = 0.0\nsamples = 1\nvalue = [0, 1]"] ;
391 -> 392 ;
393 [label="gini = 0.0\nsamples = 1\nvalue = [1, 0]"] ;
391 -> 393 ;
394 [label="gini = 0.0\nsamples = 2\nvalue = [2, 0]"] ;
390 -> 394 ;
395 [label="gini = 0.0\nsamples = 1\nvalue = [0, 1]"] ;
389 -> 395 ;
396 [label="gini = 0.0\nsamples = 2\nvalue = [2, 0]"] ;
388 -> 396 ;
397 [label="X[3] <= 350.575\ngini = 0.48\nsamples = 20\nvalue = [8, 12]"] ;
365 -> 397 ;
398 [label="gini = 0.0\nsamples = 7\nvalue = [0, 7]"] ;
397 -> 398 ;
399 [label="X[5] <= 0.5\ngini = 0.473\nsamples = 13\nvalue = [8, 5]"] ;
397 -> 399 ;
400 [label="X[3] <= 434.55\ngini = 0.346\nsamples = 9\nvalue = [7, 2]"] ;
399 -> 400 ;
401 [label="X[3] <= 408.925\ngini = 0.48\nsamples = 5\nvalue = [3, 2]"] ;
400 -> 401 ;
402 [label="gini = 0.0\nsamples = 2\nvalue = [2, 0]"] ;
401 -> 402 ;
403 [label="X[18] <= 1.5\ngini = 0.444\nsamples = 3\nvalue = [1, 2]"] ;
401 -> 403 ;
404 [label="gini = 0.0\nsamples = 1\nvalue = [1, 0]"] ;
403 -> 404 ;
405 [label="gini = 0.0\nsamples = 2\nvalue = [0, 2]"] ;
403 -> 405 ;
406 [label="gini = 0.0\nsamples = 4\nvalue = [4, 0]"] ;
400 -> 406 ;
407 [label="X[1] <= 6.0\ngini = 0.375\nsamples = 4\nvalue = [1, 3]"] ;
399 -> 407 ;
408 [label="gini = 0.0\nsamples = 1\nvalue = [1, 0]"] ;
407 -> 408 ;
409 [label="gini = 0.0\nsamples = 3\nvalue = [0, 3]"] ;
407 -> 409 ;
410 [label="gini = 0.0\nsamples = 4\nvalue = [0, 4]"] ;
358 -> 410 ;
411 [label="X[3] <= 193.25\ngini = 0.219\nsamples = 8\nvalue = [7, 1]"] ;
357 -> 411 ;
412 [label="X[2] <= 74.725\ngini = 0.444\nsamples = 3\nvalue = [2, 1]"] ;
411 -> 412 ;
413 [label="gini = 0.0\nsamples = 1\nvalue = [0, 1]"] ;
412 -> 413 ;
414 [label="gini = 0.0\nsamples = 2\nvalue = [2, 0]"] ;
412 -> 414 ;
415 [label="gini = 0.0\nsamples = 5\nvalue = [5, 0]"] ;
411 -> 415 ;
416 [label="gini = 0.0\nsamples = 6\nvalue = [6, 0]"] ;
356 -> 416 ;
417 [label="gini = 0.0\nsamples = 5\nvalue = [0, 5]"] ;
355 -> 417 ;
418 [label="X[3] <= 530.475\ngini = 0.434\nsamples = 44\nvalue = [14, 30]"] ;
354 -> 418 ;
419 [label="X[2] <= 75.575\ngini = 0.334\nsamples = 33\nvalue = [7, 26]"] ;
418 -> 419 ;
420 [label="X[2] <= 74.975\ngini = 0.271\nsamples = 31\nvalue = [5, 26]"] ;
419 -> 420 ;
421 [label="X[2] <= 74.925\ngini = 0.375\nsamples = 20\nvalue = [5, 15]"] ;
420 -> 421 ;
422 [label="X[3] <= 368.05\ngini = 0.332\nsamples = 19\nvalue = [4, 15]"] ;
421 -> 422 ;
423 [label="X[0] <= 0.5\ngini = 0.231\nsamples = 15\nvalue = [2, 13]"] ;
422 -> 423 ;
424 [label="gini = 0.0\nsamples = 9\nvalue = [0, 9]"] ;
423 -> 424 ;
425 [label="X[3] <= 300.525\ngini = 0.444\nsamples = 6\nvalue = [2, 4]"] ;
423 -> 425 ;
426 [label="X[2] <= 74.65\ngini = 0.444\nsamples = 3\nvalue = [2, 1]"] ;
425 -> 426 ;
427 [label="gini = 0.0\nsamples = 2\nvalue = [2, 0]"] ;
426 -> 427 ;
428 [label="gini = 0.0\nsamples = 1\nvalue = [0, 1]"] ;
426 -> 428 ;
429 [label="gini = 0.0\nsamples = 3\nvalue = [0, 3]"] ;
425 -> 429 ;
430 [label="X[3] <= 502.625\ngini = 0.5\nsamples = 4\nvalue = [2, 2]"] ;
422 -> 430 ;
431 [label="gini = 0.0\nsamples = 2\nvalue = [2, 0]"] ;
430 -> 431 ;
432 [label="gini = 0.0\nsamples = 2\nvalue = [0, 2]"] ;
430 -> 432 ;
433 [label="gini = 0.0\nsamples = 1\nvalue = [1, 0]"] ;
421 -> 433 ;
434 [label="gini = 0.0\nsamples = 11\nvalue = [0, 11]"] ;
420 -> 434 ;
435 [label="gini = 0.0\nsamples = 2\nvalue = [2, 0]"] ;
419 -> 435 ;
436 [label="X[3] <= 792.975\ngini = 0.463\nsamples = 11\nvalue = [7, 4]"] ;
418 -> 436 ;
437 [label="X[4] <= 0.5\ngini = 0.346\nsamples = 9\nvalue = [7, 2]"] ;
436 -> 437 ;
438 [label="X[18] <= 1.5\ngini = 0.48\nsamples = 5\nvalue = [3, 2]"] ;
437 -> 438 ;
439 [label="gini = 0.0\nsamples = 2\nvalue = [2, 0]"] ;
438 -> 439 ;
440 [label="X[2] <= 74.125\ngini = 0.444\nsamples = 3\nvalue = [1, 2]"] ;
438 -> 440 ;
441 [label="gini = 0.0\nsamples = 1\nvalue = [1, 0]"] ;
440 -> 441 ;
442 [label="gini = 0.0\nsamples = 2\nvalue = [0, 2]"] ;
440 -> 442 ;
443 [label="gini = 0.0\nsamples = 4\nvalue = [4, 0]"] ;
437 -> 443 ;
444 [label="gini = 0.0\nsamples = 2\nvalue = [0, 2]"] ;
436 -> 444 ;
445 [label="X[2] <= 106.925\ngini = 0.369\nsamples = 312\nvalue = [76, 236]"] ;
353 -> 445 ;
446 [label="X[18] <= 2.5\ngini = 0.363\nsamples = 310\nvalue = [74, 236]"] ;
445 -> 446 ;
447 [label="X[13] <= 1.0\ngini = 0.346\nsamples = 283\nvalue = [63, 220]"] ;
446 -> 447 ;
448 [label="X[3] <= 138.7\ngini = 0.323\nsamples = 252\nvalue = [51, 201]"] ;
447 -> 448 ;
449 [label="gini = 0.0\nsamples = 1\nvalue = [1, 0]"] ;
448 -> 449 ;
450 [label="X[2] <= 96.575\ngini = 0.319\nsamples = 251\nvalue = [50, 201]"] ;
448 -> 450 ;
451 [label="X[2] <= 96.525\ngini = 0.339\nsamples = 222\nvalue = [48, 174]"] ;
450 -> 451 ;
452 [label="X[3] <= 817.425\ngini = 0.335\nsamples = 221\nvalue = [47, 174]"] ;
451 -> 452 ;
453 [label="X[3] <= 779.75\ngini = 0.352\nsamples = 202\nvalue = [46, 156]"] ;
452 -> 453 ;
454 [label="X[3] <= 727.3\ngini = 0.336\nsamples = 192\nvalue = [41, 151]"] ;
453 -> 454 ;
455 [label="X[3] <= 682.45\ngini = 0.353\nsamples = 179\nvalue = [41, 138]"] ;
454 -> 455 ;
456 [label="X[2] <= 79.425\ngini = 0.326\nsamples = 171\nvalue = [35, 136]"] ;
455 -> 456 ;
457 [label="X[3] <= 662.4\ngini = 0.121\nsamples = 31\nvalue = [2, 29]"] ;
456 -> 457 ;
458 [label="X[11] <= 1.0\ngini = 0.064\nsamples = 30\nvalue = [1, 29]"] ;
457 -> 458 ;
459 [label="gini = 0.0\nsamples = 25\nvalue = [0, 25]"] ;
458 -> 459 ;
460 [label="X[1] <= 5.5\ngini = 0.32\nsamples = 5\nvalue = [1, 4]"] ;
458 -> 460 ;
461 [label="gini = 0.0\nsamples = 4\nvalue = [0, 4]"] ;
460 -> 461 ;
462 [label="gini = 0.0\nsamples = 1\nvalue = [1, 0]"] ;
460 -> 462 ;
463 [label="gini = 0.0\nsamples = 1\nvalue = [1, 0]"] ;
457 -> 463 ;
464 [label="X[8] <= 1.0\ngini = 0.36\nsamples = 140\nvalue = [33, 107]"] ;
456 -> 464 ;
465 [label="X[0] <= 0.5\ngini = 0.424\nsamples = 72\nvalue = [22, 50]"] ;
464 -> 465 ;
466 [label="X[3] <= 386.925\ngini = 0.361\nsamples = 55\nvalue = [13, 42]"] ;
465 -> 466 ;
467 [label="X[1] <= 2.5\ngini = 0.464\nsamples = 30\nvalue = [11, 19]"] ;
466 -> 467 ;
468 [label="X[2] <= 80.075\ngini = 0.142\nsamples = 13\nvalue = [1, 12]"] ;
467 -> 468 ;
469 [label="X[4] <= 0.5\ngini = 0.444\nsamples = 3\nvalue = [1, 2]"] ;
468 -> 469 ;
470 [label="gini = 0.0\nsamples = 2\nvalue = [0, 2]"] ;
469 -> 470 ;
471 [label="gini = 0.0\nsamples = 1\nvalue = [1, 0]"] ;
469 -> 471 ;
472 [label="gini = 0.0\nsamples = 10\nvalue = [0, 10]"] ;
468 -> 472 ;
473 [label="X[3] <= 239.95\ngini = 0.484\nsamples = 17\nvalue = [10, 7]"] ;
467 -> 473 ;
474 [label="gini = 0.0\nsamples = 3\nvalue = [3, 0]"] ;
473 -> 474 ;
475 [label="X[3] <= 253.4\ngini = 0.5\nsamples = 14\nvalue = [7, 7]"] ;
473 -> 475 ;
476 [label="gini = 0.0\nsamples = 3\nvalue = [0, 3]"] ;
475 -> 476 ;
477 [label="X[3] <= 297.95\ngini = 0.463\nsamples = 11\nvalue = [7, 4]"] ;
475 -> 477 ;
478 [label="gini = 0.0\nsamples = 4\nvalue = [4, 0]"] ;
477 -> 478 ;
479 [label="X[3] <= 313.5\ngini = 0.49\nsamples = 7\nvalue = [3, 4]"] ;
477 -> 479 ;
480 [label="gini = 0.0\nsamples = 3\nvalue = [0, 3]"] ;
479 -> 480 ;
481 [label="X[4] <= 0.5\ngini = 0.375\nsamples = 4\nvalue = [3, 1]"] ;
479 -> 481 ;
482 [label="gini = 0.0\nsamples = 3\nvalue = [3, 0]"] ;
481 -> 482 ;
483 [label="gini = 0.0\nsamples = 1\nvalue = [0, 1]"] ;
481 -> 483 ;
484 [label="X[1] <= 8.5\ngini = 0.147\nsamples = 25\nvalue = [2, 23]"] ;
466 -> 484 ;
485 [label="X[18] <= 0.5\ngini = 0.08\nsamples = 24\nvalue = [1, 23]"] ;
484 -> 485 ;
486 [label="X[2] <= 80.05\ngini = 0.444\nsamples = 3\nvalue = [1, 2]"] ;
485 -> 486 ;
487 [label="gini = 0.0\nsamples = 1\nvalue = [1, 0]"] ;
486 -> 487 ;
488 [label="gini = 0.0\nsamples = 2\nvalue = [0, 2]"] ;
486 -> 488 ;
489 [label="gini = 0.0\nsamples = 21\nvalue = [0, 21]"] ;
485 -> 489 ;
490 [label="gini = 0.0\nsamples = 1\nvalue = [1, 0]"] ;
484 -> 490 ;
491 [label="X[12] <= 1.0\ngini = 0.498\nsamples = 17\nvalue = [9, 8]"] ;
465 -> 491 ;
492 [label="X[5] <= 0.5\ngini = 0.49\nsamples = 14\nvalue = [6, 8]"] ;
491 -> 492 ;
493 [label="X[2] <= 89.425\ngini = 0.48\nsamples = 10\nvalue = [6, 4]"] ;
492 -> 493 ;
494 [label="X[3] <= 326.7\ngini = 0.375\nsamples = 8\nvalue = [6, 2]"] ;
493 -> 494 ;
495 [label="X[2] <= 81.85\ngini = 0.444\nsamples = 3\nvalue = [1, 2]"] ;
494 -> 495 ;
496 [label="gini = 0.0\nsamples = 2\nvalue = [0, 2]"] ;
495 -> 496 ;
497 [label="gini = 0.0\nsamples = 1\nvalue = [1, 0]"] ;
495 -> 497 ;
498 [label="gini = 0.0\nsamples = 5\nvalue = [5, 0]"] ;
494 -> 498 ;
499 [label="gini = 0.0\nsamples = 2\nvalue = [0, 2]"] ;
493 -> 499 ;
500 [label="gini = 0.0\nsamples = 4\nvalue = [0, 4]"] ;
492 -> 500 ;
501 [label="gini = 0.0\nsamples = 3\nvalue = [3, 0]"] ;
491 -> 501 ;
502 [label="X[3] <= 153.325\ngini = 0.271\nsamples = 68\nvalue = [11, 57]"] ;
464 -> 502 ;
503 [label="gini = 0.0\nsamples = 1\nvalue = [1, 0]"] ;
502 -> 503 ;
504 [label="X[2] <= 96.1\ngini = 0.254\nsamples = 67\nvalue = [10, 57]"] ;
502 -> 504 ;
505 [label="X[3] <= 654.55\ngini = 0.236\nsamples = 66\nvalue = [9, 57]"] ;
504 -> 505 ;
506 [label="X[14] <= 1.0\ngini = 0.219\nsamples = 64\nvalue = [8, 56]"] ;
505 -> 506 ;
507 [label="X[2] <= 90.4\ngini = 0.117\nsamples = 32\nvalue = [2, 30]"] ;
506 -> 507 ;
508 [label="X[1] <= 2.5\ngini = 0.067\nsamples = 29\nvalue = [1, 28]"] ;
507 -> 508 ;
509 [label="X[3] <= 185.35\ngini = 0.32\nsamples = 5\nvalue = [1, 4]"] ;
508 -> 509 ;
510 [label="gini = 0.0\nsamples = 4\nvalue = [0, 4]"] ;
509 -> 510 ;
511 [label="gini = 0.0\nsamples = 1\nvalue = [1, 0]"] ;
509 -> 511 ;
512 [label="gini = 0.0\nsamples = 24\nvalue = [0, 24]"] ;
508 -> 512 ;
513 [label="X[3] <= 384.65\ngini = 0.444\nsamples = 3\nvalue = [1, 2]"] ;
507 -> 513 ;
514 [label="gini = 0.0\nsamples = 2\nvalue = [0, 2]"] ;
513 -> 514 ;
515 [label="gini = 0.0\nsamples = 1\nvalue = [1, 0]"] ;
513 -> 515 ;
516 [label="X[2] <= 84.4\ngini = 0.305\nsamples = 32\nvalue = [6, 26]"] ;
506 -> 516 ;
517 [label="X[2] <= 83.2\ngini = 0.5\nsamples = 4\nvalue = [2, 2]"] ;
516 -> 517 ;
518 [label="gini = 0.0\nsamples = 2\nvalue = [0, 2]"] ;
517 -> 518 ;
519 [label="gini = 0.0\nsamples = 2\nvalue = [2, 0]"] ;
517 -> 519 ;
520 [label="X[5] <= 0.5\ngini = 0.245\nsamples = 28\nvalue = [4, 24]"] ;
516 -> 520 ;
521 [label="X[3] <= 549.8\ngini = 0.165\nsamples = 22\nvalue = [2, 20]"] ;
520 -> 521 ;
522 [label="X[2] <= 94.575\ngini = 0.1\nsamples = 19\nvalue = [1, 18]"] ;
521 -> 522 ;
523 [label="gini = 0.0\nsamples = 15\nvalue = [0, 15]"] ;
522 -> 523 ;
524 [label="X[3] <= 365.925\ngini = 0.375\nsamples = 4\nvalue = [1, 3]"] ;
522 -> 524 ;
525 [label="X[4] <= 0.5\ngini = 0.5\nsamples = 2\nvalue = [1, 1]"] ;
524 -> 525 ;
526 [label="gini = 0.0\nsamples = 1\nvalue = [0, 1]"] ;
525 -> 526 ;
527 [label="gini = 0.0\nsamples = 1\nvalue = [1, 0]"] ;
525 -> 527 ;
528 [label="gini = 0.0\nsamples = 2\nvalue = [0, 2]"] ;
524 -> 528 ;
529 [label="X[11] <= 1.0\ngini = 0.444\nsamples = 3\nvalue = [1, 2]"] ;
521 -> 529 ;
530 [label="gini = 0.0\nsamples = 2\nvalue = [0, 2]"] ;
529 -> 530 ;
531 [label="gini = 0.0\nsamples = 1\nvalue = [1, 0]"] ;
529 -> 531 ;
532 [label="X[3] <= 276.375\ngini = 0.444\nsamples = 6\nvalue = [2, 4]"] ;
520 -> 532 ;
533 [label="gini = 0.0\nsamples = 2\nvalue = [2, 0]"] ;
532 -> 533 ;
534 [label="gini = 0.0\nsamples = 4\nvalue = [0, 4]"] ;
532 -> 534 ;
535 [label="X[17] <= 0.5\ngini = 0.5\nsamples = 2\nvalue = [1, 1]"] ;
505 -> 535 ;
536 [label="gini = 0.0\nsamples = 1\nvalue = [0, 1]"] ;
535 -> 536 ;
537 [label="gini = 0.0\nsamples = 1\nvalue = [1, 0]"] ;
535 -> 537 ;
538 [label="gini = 0.0\nsamples = 1\nvalue = [1, 0]"] ;
504 -> 538 ;
539 [label="X[8] <= 1.0\ngini = 0.375\nsamples = 8\nvalue = [6, 2]"] ;
455 -> 539 ;
540 [label="X[0] <= 0.5\ngini = 0.5\nsamples = 4\nvalue = [2, 2]"] ;
539 -> 540 ;
541 [label="gini = 0.0\nsamples = 2\nvalue = [0, 2]"] ;
540 -> 541 ;
542 [label="gini = 0.0\nsamples = 2\nvalue = [2, 0]"] ;
540 -> 542 ;
543 [label="gini = 0.0\nsamples = 4\nvalue = [4, 0]"] ;
539 -> 543 ;
544 [label="gini = 0.0\nsamples = 13\nvalue = [0, 13]"] ;
454 -> 544 ;
545 [label="X[12] <= 1.0\ngini = 0.5\nsamples = 10\nvalue = [5, 5]"] ;
453 -> 545 ;
546 [label="X[17] <= 0.5\ngini = 0.408\nsamples = 7\nvalue = [2, 5]"] ;
545 -> 546 ;
547 [label="gini = 0.0\nsamples = 1\nvalue = [1, 0]"] ;
546 -> 547 ;
548 [label="X[3] <= 792.625\ngini = 0.278\nsamples = 6\nvalue = [1, 5]"] ;
546 -> 548 ;
549 [label="X[18] <= 1.0\ngini = 0.5\nsamples = 2\nvalue = [1, 1]"] ;
548 -> 549 ;
550 [label="gini = 0.0\nsamples = 1\nvalue = [0, 1]"] ;
549 -> 550 ;
551 [label="gini = 0.0\nsamples = 1\nvalue = [1, 0]"] ;
549 -> 551 ;
552 [label="gini = 0.0\nsamples = 4\nvalue = [0, 4]"] ;
548 -> 552 ;
553 [label="gini = 0.0\nsamples = 3\nvalue = [3, 0]"] ;
545 -> 553 ;
554 [label="X[6] <= 0.5\ngini = 0.1\nsamples = 19\nvalue = [1, 18]"] ;
452 -> 554 ;
555 [label="gini = 0.0\nsamples = 17\nvalue = [0, 17]"] ;
554 -> 555 ;
556 [label="X[2] <= 90.575\ngini = 0.5\nsamples = 2\nvalue = [1, 1]"] ;
554 -> 556 ;
557 [label="gini = 0.0\nsamples = 1\nvalue = [1, 0]"] ;
556 -> 557 ;
558 [label="gini = 0.0\nsamples = 1\nvalue = [0, 1]"] ;
556 -> 558 ;
559 [label="gini = 0.0\nsamples = 1\nvalue = [1, 0]"] ;
451 -> 559 ;
560 [label="X[18] <= 1.5\ngini = 0.128\nsamples = 29\nvalue = [2, 27]"] ;
450 -> 560 ;
561 [label="X[11] <= 1.0\ngini = 0.375\nsamples = 8\nvalue = [2, 6]"] ;
560 -> 561 ;
562 [label="gini = 0.0\nsamples = 3\nvalue = [0, 3]"] ;
561 -> 562 ;
563 [label="X[3] <= 919.075\ngini = 0.48\nsamples = 5\nvalue = [2, 3]"] ;
561 -> 563 ;
564 [label="X[18] <= 0.5\ngini = 0.444\nsamples = 3\nvalue = [2, 1]"] ;
563 -> 564 ;
565 [label="gini = 0.0\nsamples = 1\nvalue = [0, 1]"] ;
564 -> 565 ;
566 [label="gini = 0.0\nsamples = 2\nvalue = [2, 0]"] ;
564 -> 566 ;
567 [label="gini = 0.0\nsamples = 2\nvalue = [0, 2]"] ;
563 -> 567 ;
568 [label="gini = 0.0\nsamples = 21\nvalue = [0, 21]"] ;
560 -> 568 ;
569 [label="X[3] <= 479.0\ngini = 0.475\nsamples = 31\nvalue = [12, 19]"] ;
447 -> 569 ;
570 [label="X[2] <= 84.075\ngini = 0.266\nsamples = 19\nvalue = [3, 16]"] ;
569 -> 570 ;
571 [label="X[4] <= 0.5\ngini = 0.48\nsamples = 5\nvalue = [2, 3]"] ;
570 -> 571 ;
572 [label="gini = 0.0\nsamples = 2\nvalue = [2, 0]"] ;
571 -> 572 ;
573 [label="gini = 0.0\nsamples = 3\nvalue = [0, 3]"] ;
571 -> 573 ;
574 [label="X[12] <= 1.0\ngini = 0.133\nsamples = 14\nvalue = [1, 13]"] ;
570 -> 574 ;
575 [label="gini = 0.0\nsamples = 9\nvalue = [0, 9]"] ;
574 -> 575 ;
576 [label="X[18] <= 1.5\ngini = 0.32\nsamples = 5\nvalue = [1, 4]"] ;
574 -> 576 ;
577 [label="gini = 0.0\nsamples = 3\nvalue = [0, 3]"] ;
576 -> 577 ;
578 [label="X[3] <= 325.15\ngini = 0.5\nsamples = 2\nvalue = [1, 1]"] ;
576 -> 578 ;
579 [label="gini = 0.0\nsamples = 1\nvalue = [0, 1]"] ;
578 -> 579 ;
580 [label="gini = 0.0\nsamples = 1\nvalue = [1, 0]"] ;
578 -> 580 ;
581 [label="X[3] <= 977.625\ngini = 0.375\nsamples = 12\nvalue = [9, 3]"] ;
569 -> 581 ;
582 [label="X[11] <= 1.0\ngini = 0.18\nsamples = 10\nvalue = [9, 1]"] ;
581 -> 582 ;
583 [label="gini = 0.0\nsamples = 8\nvalue = [8, 0]"] ;
582 -> 583 ;
584 [label="X[2] <= 95.625\ngini = 0.5\nsamples = 2\nvalue = [1, 1]"] ;
582 -> 584 ;
585 [label="gini = 0.0\nsamples = 1\nvalue = [0, 1]"] ;
584 -> 585 ;
586 [label="gini = 0.0\nsamples = 1\nvalue = [1, 0]"] ;
584 -> 586 ;
587 [label="gini = 0.0\nsamples = 2\nvalue = [0, 2]"] ;
581 -> 587 ;
588 [label="X[2] <= 79.275\ngini = 0.483\nsamples = 27\nvalue = [11, 16]"] ;
446 -> 588 ;
589 [label="gini = 0.0\nsamples = 2\nvalue = [2, 0]"] ;
588 -> 589 ;
590 [label="X[3] <= 522.725\ngini = 0.461\nsamples = 25\nvalue = [9, 16]"] ;
588 -> 590 ;
591 [label="X[1] <= 5.5\ngini = 0.494\nsamples = 18\nvalue = [8, 10]"] ;
590 -> 591 ;
592 [label="X[5] <= 0.5\ngini = 0.469\nsamples = 16\nvalue = [6, 10]"] ;
591 -> 592 ;
593 [label="X[2] <= 89.725\ngini = 0.5\nsamples = 12\nvalue = [6, 6]"] ;
592 -> 593 ;
594 [label="X[2] <= 85.75\ngini = 0.469\nsamples = 8\nvalue = [3, 5]"] ;
593 -> 594 ;
595 [label="X[2] <= 79.875\ngini = 0.48\nsamples = 5\nvalue = [3, 2]"] ;
594 -> 595 ;
596 [label="gini = 0.0\nsamples = 1\nvalue = [0, 1]"] ;
595 -> 596 ;
597 [label="X[12] <= 1.0\ngini = 0.375\nsamples = 4\nvalue = [3, 1]"] ;
595 -> 597 ;
598 [label="gini = 0.0\nsamples = 3\nvalue = [3, 0]"] ;
597 -> 598 ;
599 [label="gini = 0.0\nsamples = 1\nvalue = [0, 1]"] ;
597 -> 599 ;
600 [label="gini = 0.0\nsamples = 3\nvalue = [0, 3]"] ;
594 -> 600 ;
601 [label="X[3] <= 443.05\ngini = 0.375\nsamples = 4\nvalue = [3, 1]"] ;
593 -> 601 ;
602 [label="gini = 0.0\nsamples = 3\nvalue = [3, 0]"] ;
601 -> 602 ;
603 [label="gini = 0.0\nsamples = 1\nvalue = [0, 1]"] ;
601 -> 603 ;
604 [label="gini = 0.0\nsamples = 4\nvalue = [0, 4]"] ;
592 -> 604 ;
605 [label="gini = 0.0\nsamples = 2\nvalue = [2, 0]"] ;
591 -> 605 ;
606 [label="X[3] <= 722.05\ngini = 0.245\nsamples = 7\nvalue = [1, 6]"] ;
590 -> 606 ;
607 [label="gini = 0.0\nsamples = 5\nvalue = [0, 5]"] ;
606 -> 607 ;
608 [label="X[4] <= 0.5\ngini = 0.5\nsamples = 2\nvalue = [1, 1]"] ;
606 -> 608 ;
609 [label="gini = 0.0\nsamples = 1\nvalue = [1, 0]"] ;
608 -> 609 ;
610 [label="gini = 0.0\nsamples = 1\nvalue = [0, 1]"] ;
608 -> 610 ;
611 [label="gini = 0.0\nsamples = 2\nvalue = [2, 0]"] ;
445 -> 611 ;
612 [label="X[9] <= 0.5\ngini = 0.482\nsamples = 1105\nvalue = [656, 449]"] ;
2 -> 612 ;
613 [label="X[7] <= 0.5\ngini = 0.327\nsamples = 287\nvalue = [228, 59]"] ;
612 -> 613 ;
614 [label="X[18] <= 2.5\ngini = 0.416\nsamples = 112\nvalue = [79, 33]"] ;
613 -> 614 ;
615 [label="X[2] <= 29.6\ngini = 0.449\nsamples = 94\nvalue = [62, 32]"] ;
614 -> 615 ;
616 [label="X[3] <= 310.925\ngini = 0.266\nsamples = 19\nvalue = [16, 3]"] ;
615 -> 616 ;
617 [label="gini = 0.0\nsamples = 1\nvalue = [0, 1]"] ;
616 -> 617 ;
618 [label="X[4] <= 0.5\ngini = 0.198\nsamples = 18\nvalue = [16, 2]"] ;
616 -> 618 ;
619 [label="X[18] <= 1.5\ngini = 0.408\nsamples = 7\nvalue = [5, 2]"] ;
618 -> 619 ;
620 [label="X[2] <= 25.0\ngini = 0.5\nsamples = 4\nvalue = [2, 2]"] ;
619 -> 620 ;
621 [label="gini = 0.0\nsamples = 1\nvalue = [1, 0]"] ;
620 -> 621 ;
622 [label="X[5] <= 0.5\ngini = 0.444\nsamples = 3\nvalue = [1, 2]"] ;
620 -> 622 ;
623 [label="gini = 0.0\nsamples = 2\nvalue = [0, 2]"] ;
622 -> 623 ;
624 [label="gini = 0.0\nsamples = 1\nvalue = [1, 0]"] ;
622 -> 624 ;
625 [label="gini = 0.0\nsamples = 3\nvalue = [3, 0]"] ;
619 -> 625 ;
626 [label="gini = 0.0\nsamples = 11\nvalue = [11, 0]"] ;
618 -> 626 ;
627 [label="X[3] <= 2987.875\ngini = 0.474\nsamples = 75\nvalue = [46, 29]"] ;
615 -> 627 ;
628 [label="X[2] <= 50.7\ngini = 0.487\nsamples = 69\nvalue = [40, 29]"] ;
627 -> 628 ;
629 [label="X[2] <= 31.125\ngini = 0.468\nsamples = 59\nvalue = [37, 22]"] ;
628 -> 629 ;
630 [label="X[6] <= 0.5\ngini = 0.444\nsamples = 9\nvalue = [3, 6]"] ;
629 -> 630 ;
631 [label="X[3] <= 1454.775\ngini = 0.278\nsamples = 6\nvalue = [1, 5]"] ;
630 -> 631 ;
632 [label="gini = 0.0\nsamples = 5\nvalue = [0, 5]"] ;
631 -> 632 ;
633 [label="gini = 0.0\nsamples = 1\nvalue = [1, 0]"] ;
631 -> 633 ;
634 [label="X[2] <= 30.125\ngini = 0.444\nsamples = 3\nvalue = [2, 1]"] ;
630 -> 634 ;
635 [label="gini = 0.0\nsamples = 1\nvalue = [0, 1]"] ;
634 -> 635 ;
636 [label="gini = 0.0\nsamples = 2\nvalue = [2, 0]"] ;
634 -> 636 ;
637 [label="X[4] <= 0.5\ngini = 0.435\nsamples = 50\nvalue = [34, 16]"] ;
629 -> 637 ;
638 [label="X[11] <= 1.0\ngini = 0.36\nsamples = 34\nvalue = [26, 8]"] ;
637 -> 638 ;
639 [label="X[1] <= 41.0\ngini = 0.434\nsamples = 22\nvalue = [15, 7]"] ;
638 -> 639 ;
640 [label="X[3] <= 1178.375\ngini = 0.408\nsamples = 21\nvalue = [15, 6]"] ;
639 -> 640 ;
641 [label="X[1] <= 29.5\ngini = 0.48\nsamples = 15\nvalue = [9, 6]"] ;
640 -> 641 ;
642 [label="X[3] <= 953.475\ngini = 0.459\nsamples = 14\nvalue = [9, 5]"] ;
641 -> 642 ;
643 [label="X[1] <= 15.0\ngini = 0.496\nsamples = 11\nvalue = [6, 5]"] ;
642 -> 643 ;
644 [label="X[14] <= 1.0\ngini = 0.32\nsamples = 5\nvalue = [4, 1]"] ;
643 -> 644 ;
645 [label="gini = 0.0\nsamples = 1\nvalue = [0, 1]"] ;
644 -> 645 ;
646 [label="gini = 0.0\nsamples = 4\nvalue = [4, 0]"] ;
644 -> 646 ;
647 [label="X[15] <= 1.0\ngini = 0.444\nsamples = 6\nvalue = [2, 4]"] ;
643 -> 647 ;
648 [label="gini = 0.0\nsamples = 2\nvalue = [2, 0]"] ;
647 -> 648 ;
649 [label="gini = 0.0\nsamples = 4\nvalue = [0, 4]"] ;
647 -> 649 ;
650 [label="gini = 0.0\nsamples = 3\nvalue = [3, 0]"] ;
642 -> 650 ;
651 [label="gini = 0.0\nsamples = 1\nvalue = [0, 1]"] ;
641 -> 651 ;
652 [label="gini = 0.0\nsamples = 6\nvalue = [6, 0]"] ;
640 -> 652 ;
653 [label="gini = 0.0\nsamples = 1\nvalue = [0, 1]"] ;
639 -> 653 ;
654 [label="X[0] <= 0.5\ngini = 0.153\nsamples = 12\nvalue = [11, 1]"] ;
638 -> 654 ;
655 [label="gini = 0.0\nsamples = 9\nvalue = [9, 0]"] ;
654 -> 655 ;
656 [label="X[3] <= 2101.85\ngini = 0.444\nsamples = 3\nvalue = [2, 1]"] ;
654 -> 656 ;
657 [label="gini = 0.0\nsamples = 1\nvalue = [0, 1]"] ;
656 -> 657 ;
658 [label="gini = 0.0\nsamples = 2\nvalue = [2, 0]"] ;
656 -> 658 ;
659 [label="X[2] <= 36.075\ngini = 0.5\nsamples = 16\nvalue = [8, 8]"] ;
637 -> 659 ;
660 [label="X[2] <= 33.9\ngini = 0.32\nsamples = 5\nvalue = [4, 1]"] ;
659 -> 660 ;
661 [label="gini = 0.0\nsamples = 1\nvalue = [0, 1]"] ;
660 -> 661 ;
662 [label="gini = 0.0\nsamples = 4\nvalue = [4, 0]"] ;
660 -> 662 ;
663 [label="X[2] <= 43.975\ngini = 0.463\nsamples = 11\nvalue = [4, 7]"] ;
659 -> 663 ;
664 [label="gini = 0.0\nsamples = 5\nvalue = [0, 5]"] ;
663 -> 664 ;
665 [label="X[3] <= 987.75\ngini = 0.444\nsamples = 6\nvalue = [4, 2]"] ;
663 -> 665 ;
666 [label="gini = 0.0\nsamples = 1\nvalue = [0, 1]"] ;
665 -> 666 ;
667 [label="X[0] <= 0.5\ngini = 0.32\nsamples = 5\nvalue = [4, 1]"] ;
665 -> 667 ;
668 [label="gini = 0.0\nsamples = 4\nvalue = [4, 0]"] ;
667 -> 668 ;
669 [label="gini = 0.0\nsamples = 1\nvalue = [0, 1]"] ;
667 -> 669 ;
670 [label="X[0] <= 0.5\ngini = 0.42\nsamples = 10\nvalue = [3, 7]"] ;
628 -> 670 ;
671 [label="gini = 0.0\nsamples = 5\nvalue = [0, 5]"] ;
670 -> 671 ;
672 [label="X[1] <= 42.0\ngini = 0.48\nsamples = 5\nvalue = [3, 2]"] ;
670 -> 672 ;
673 [label="gini = 0.0\nsamples = 3\nvalue = [3, 0]"] ;
672 -> 673 ;
674 [label="gini = 0.0\nsamples = 2\nvalue = [0, 2]"] ;
672 -> 674 ;
675 [label="gini = 0.0\nsamples = 6\nvalue = [6, 0]"] ;
627 -> 675 ;
676 [label="X[2] <= 37.5\ngini = 0.105\nsamples = 18\nvalue = [17, 1]"] ;
614 -> 676 ;
677 [label="gini = 0.0\nsamples = 16\nvalue = [16, 0]"] ;
676 -> 677 ;
678 [label="X[0] <= 0.5\ngini = 0.5\nsamples = 2\nvalue = [1, 1]"] ;
676 -> 678 ;
679 [label="gini = 0.0\nsamples = 1\nvalue = [1, 0]"] ;
678 -> 679 ;
680 [label="gini = 0.0\nsamples = 1\nvalue = [0, 1]"] ;
678 -> 680 ;
681 [label="X[3] <= 487.85\ngini = 0.253\nsamples = 175\nvalue = [149, 26]"] ;
613 -> 681 ;
682 [label="gini = 0.0\nsamples = 2\nvalue = [0, 2]"] ;
681 -> 682 ;
683 [label="X[2] <= 66.375\ngini = 0.239\nsamples = 173\nvalue = [149, 24]"] ;
681 -> 683 ;
684 [label="X[2] <= 54.95\ngini = 0.275\nsamples = 146\nvalue = [122, 24]"] ;
683 -> 684 ;
685 [label="X[3] <= 904.625\ngini = 0.185\nsamples = 87\nvalue = [78, 9]"] ;
684 -> 685 ;
686 [label="X[3] <= 765.475\ngini = 0.326\nsamples = 39\nvalue = [31, 8]"] ;
685 -> 686 ;
687 [label="X[3] <= 609.375\ngini = 0.18\nsamples = 30\nvalue = [27, 3]"] ;
686 -> 687 ;
688 [label="X[3] <= 593.4\ngini = 0.375\nsamples = 12\nvalue = [9, 3]"] ;
687 -> 688 ;
689 [label="X[3] <= 520.4\ngini = 0.198\nsamples = 9\nvalue = [8, 1]"] ;
688 -> 689 ;
690 [label="X[3] <= 512.425\ngini = 0.444\nsamples = 3\nvalue = [2, 1]"] ;
689 -> 690 ;
691 [label="gini = 0.0\nsamples = 2\nvalue = [2, 0]"] ;
690 -> 691 ;
692 [label="gini = 0.0\nsamples = 1\nvalue = [0, 1]"] ;
690 -> 692 ;
693 [label="gini = 0.0\nsamples = 6\nvalue = [6, 0]"] ;
689 -> 693 ;
694 [label="X[17] <= 0.5\ngini = 0.444\nsamples = 3\nvalue = [1, 2]"] ;
688 -> 694 ;
695 [label="gini = 0.0\nsamples = 2\nvalue = [0, 2]"] ;
694 -> 695 ;
696 [label="gini = 0.0\nsamples = 1\nvalue = [1, 0]"] ;
694 -> 696 ;
697 [label="gini = 0.0\nsamples = 18\nvalue = [18, 0]"] ;
687 -> 697 ;
698 [label="X[2] <= 50.75\ngini = 0.494\nsamples = 9\nvalue = [4, 5]"] ;
686 -> 698 ;
699 [label="X[4] <= 0.5\ngini = 0.444\nsamples = 6\nvalue = [4, 2]"] ;
698 -> 699 ;
700 [label="gini = 0.0\nsamples = 2\nvalue = [2, 0]"] ;
699 -> 700 ;
701 [label="X[2] <= 44.7\ngini = 0.5\nsamples = 4\nvalue = [2, 2]"] ;
699 -> 701 ;
702 [label="gini = 0.0\nsamples = 1\nvalue = [1, 0]"] ;
701 -> 702 ;
703 [label="X[13] <= 1.0\ngini = 0.444\nsamples = 3\nvalue = [1, 2]"] ;
701 -> 703 ;
704 [label="gini = 0.0\nsamples = 2\nvalue = [0, 2]"] ;
703 -> 704 ;
705 [label="gini = 0.0\nsamples = 1\nvalue = [1, 0]"] ;
703 -> 705 ;
706 [label="gini = 0.0\nsamples = 3\nvalue = [0, 3]"] ;
698 -> 706 ;
707 [label="X[0] <= 0.5\ngini = 0.041\nsamples = 48\nvalue = [47, 1]"] ;
685 -> 707 ;
708 [label="gini = 0.0\nsamples = 42\nvalue = [42, 0]"] ;
707 -> 708 ;
709 [label="X[2] <= 51.0\ngini = 0.278\nsamples = 6\nvalue = [5, 1]"] ;
707 -> 709 ;
710 [label="gini = 0.0\nsamples = 1\nvalue = [0, 1]"] ;
709 -> 710 ;
711 [label="gini = 0.0\nsamples = 5\nvalue = [5, 0]"] ;
709 -> 711 ;
712 [label="X[2] <= 55.025\ngini = 0.379\nsamples = 59\nvalue = [44, 15]"] ;
684 -> 712 ;
713 [label="gini = 0.0\nsamples = 3\nvalue = [0, 3]"] ;
712 -> 713 ;
714 [label="X[2] <= 65.1\ngini = 0.337\nsamples = 56\nvalue = [44, 12]"] ;
712 -> 714 ;
715 [label="X[2] <= 61.625\ngini = 0.306\nsamples = 53\nvalue = [43, 10]"] ;
714 -> 715 ;
716 [label="X[15] <= 1.0\ngini = 0.369\nsamples = 41\nvalue = [31, 10]"] ;
715 -> 716 ;
717 [label="X[2] <= 55.275\ngini = 0.298\nsamples = 33\nvalue = [27, 6]"] ;
716 -> 717 ;
718 [label="X[3] <= 1132.075\ngini = 0.5\nsamples = 4\nvalue = [2, 2]"] ;
717 -> 718 ;
719 [label="gini = 0.0\nsamples = 2\nvalue = [2, 0]"] ;
718 -> 719 ;
720 [label="gini = 0.0\nsamples = 2\nvalue = [0, 2]"] ;
718 -> 720 ;
721 [label="X[2] <= 59.975\ngini = 0.238\nsamples = 29\nvalue = [25, 4]"] ;
717 -> 721 ;
722 [label="X[1] <= 42.5\ngini = 0.159\nsamples = 23\nvalue = [21, 2]"] ;
721 -> 722 ;
723 [label="X[11] <= 1.0\ngini = 0.091\nsamples = 21\nvalue = [20, 1]"] ;
722 -> 723 ;
724 [label="gini = 0.0\nsamples = 15\nvalue = [15, 0]"] ;
723 -> 724 ;
725 [label="X[18] <= 1.5\ngini = 0.278\nsamples = 6\nvalue = [5, 1]"] ;
723 -> 725 ;
726 [label="X[6] <= 0.5\ngini = 0.5\nsamples = 2\nvalue = [1, 1]"] ;
725 -> 726 ;
727 [label="gini = 0.0\nsamples = 1\nvalue = [0, 1]"] ;
726 -> 727 ;
728 [label="gini = 0.0\nsamples = 1\nvalue = [1, 0]"] ;
726 -> 728 ;
729 [label="gini = 0.0\nsamples = 4\nvalue = [4, 0]"] ;
725 -> 729 ;
730 [label="X[3] <= 2611.35\ngini = 0.5\nsamples = 2\nvalue = [1, 1]"] ;
722 -> 730 ;
731 [label="gini = 0.0\nsamples = 1\nvalue = [0, 1]"] ;
730 -> 731 ;
732 [label="gini = 0.0\nsamples = 1\nvalue = [1, 0]"] ;
730 -> 732 ;
733 [label="X[2] <= 60.2\ngini = 0.444\nsamples = 6\nvalue = [4, 2]"] ;
721 -> 733 ;
734 [label="gini = 0.0\nsamples = 2\nvalue = [0, 2]"] ;
733 -> 734 ;
735 [label="gini = 0.0\nsamples = 4\nvalue = [4, 0]"] ;
733 -> 735 ;
736 [label="X[12] <= 1.0\ngini = 0.5\nsamples = 8\nvalue = [4, 4]"] ;
716 -> 736 ;
737 [label="X[17] <= 0.5\ngini = 0.444\nsamples = 6\nvalue = [4, 2]"] ;
736 -> 737 ;
738 [label="gini = 0.0\nsamples = 1\nvalue = [0, 1]"] ;
737 -> 738 ;
739 [label="X[2] <= 60.8\ngini = 0.32\nsamples = 5\nvalue = [4, 1]"] ;
737 -> 739 ;
740 [label="gini = 0.0\nsamples = 4\nvalue = [4, 0]"] ;
739 -> 740 ;
741 [label="gini = 0.0\nsamples = 1\nvalue = [0, 1]"] ;
739 -> 741 ;
742 [label="gini = 0.0\nsamples = 2\nvalue = [0, 2]"] ;
736 -> 742 ;
743 [label="gini = 0.0\nsamples = 12\nvalue = [12, 0]"] ;
715 -> 743 ;
744 [label="X[1] <= 21.0\ngini = 0.444\nsamples = 3\nvalue = [1, 2]"] ;
714 -> 744 ;
745 [label="gini = 0.0\nsamples = 2\nvalue = [0, 2]"] ;
744 -> 745 ;
746 [label="gini = 0.0\nsamples = 1\nvalue = [1, 0]"] ;
744 -> 746 ;
747 [label="gini = 0.0\nsamples = 27\nvalue = [27, 0]"] ;
683 -> 747 ;
748 [label="X[3] <= 3083.6\ngini = 0.499\nsamples = 818\nvalue = [428, 390]"] ;
612 -> 748 ;
749 [label="X[18] <= 1.5\ngini = 0.497\nsamples = 507\nvalue = [235, 272]"] ;
748 -> 749 ;
750 [label="X[12] <= 1.0\ngini = 0.488\nsamples = 168\nvalue = [97, 71]"] ;
749 -> 750 ;
751 [label="X[3] <= 858.8\ngini = 0.499\nsamples = 112\nvalue = [58, 54]"] ;
750 -> 751 ;
752 [label="gini = 0.0\nsamples = 4\nvalue = [4, 0]"] ;
751 -> 752 ;
753 [label="X[3] <= 936.125\ngini = 0.5\nsamples = 108\nvalue = [54, 54]"] ;
751 -> 753 ;
754 [label="gini = 0.0\nsamples = 6\nvalue = [0, 6]"] ;
753 -> 754 ;
755 [label="X[0] <= 0.5\ngini = 0.498\nsamples = 102\nvalue = [54, 48]"] ;
753 -> 755 ;
756 [label="X[1] <= 30.5\ngini = 0.478\nsamples = 71\nvalue = [43, 28]"] ;
755 -> 756 ;
757 [label="X[2] <= 85.55\ngini = 0.444\nsamples = 57\nvalue = [38, 19]"] ;
756 -> 757 ;
758 [label="X[2] <= 75.675\ngini = 0.375\nsamples = 36\nvalue = [27, 9]"] ;
757 -> 758 ;
759 [label="X[3] <= 1209.775\ngini = 0.498\nsamples = 17\nvalue = [9, 8]"] ;
758 -> 759 ;
760 [label="X[3] <= 1054.675\ngini = 0.245\nsamples = 7\nvalue = [6, 1]"] ;
759 -> 760 ;
761 [label="gini = 0.0\nsamples = 1\nvalue = [0, 1]"] ;
760 -> 761 ;
762 [label="gini = 0.0\nsamples = 6\nvalue = [6, 0]"] ;
760 -> 762 ;
763 [label="X[5] <= 0.5\ngini = 0.42\nsamples = 10\nvalue = [3, 7]"] ;
759 -> 763 ;
764 [label="X[2] <= 72.2\ngini = 0.5\nsamples = 6\nvalue = [3, 3]"] ;
763 -> 764 ;
765 [label="gini = 0.0\nsamples = 2\nvalue = [2, 0]"] ;
764 -> 765 ;
766 [label="X[3] <= 1409.775\ngini = 0.375\nsamples = 4\nvalue = [1, 3]"] ;
764 -> 766 ;
767 [label="gini = 0.0\nsamples = 1\nvalue = [1, 0]"] ;
766 -> 767 ;
768 [label="gini = 0.0\nsamples = 3\nvalue = [0, 3]"] ;
766 -> 768 ;
769 [label="gini = 0.0\nsamples = 4\nvalue = [0, 4]"] ;
763 -> 769 ;
770 [label="X[3] <= 2240.25\ngini = 0.1\nsamples = 19\nvalue = [18, 1]"] ;
758 -> 770 ;
771 [label="gini = 0.0\nsamples = 17\nvalue = [17, 0]"] ;
770 -> 771 ;
772 [label="X[6] <= 0.5\ngini = 0.5\nsamples = 2\nvalue = [1, 1]"] ;
770 -> 772 ;
773 [label="gini = 0.0\nsamples = 1\nvalue = [0, 1]"] ;
772 -> 773 ;
774 [label="gini = 0.0\nsamples = 1\nvalue = [1, 0]"] ;
772 -> 774 ;
775 [label="X[2] <= 94.85\ngini = 0.499\nsamples = 21\nvalue = [11, 10]"] ;
757 -> 775 ;
776 [label="X[18] <= 0.5\ngini = 0.459\nsamples = 14\nvalue = [5, 9]"] ;
775 -> 776 ;
777 [label="X[2] <= 92.775\ngini = 0.245\nsamples = 7\nvalue = [1, 6]"] ;
776 -> 777 ;
778 [label="gini = 0.0\nsamples = 5\nvalue = [0, 5]"] ;
777 -> 778 ;
779 [label="X[1] <= 20.5\ngini = 0.5\nsamples = 2\nvalue = [1, 1]"] ;
777 -> 779 ;
780 [label="gini = 0.0\nsamples = 1\nvalue = [1, 0]"] ;
779 -> 780 ;
781 [label="gini = 0.0\nsamples = 1\nvalue = [0, 1]"] ;
779 -> 781 ;
782 [label="X[2] <= 90.225\ngini = 0.49\nsamples = 7\nvalue = [4, 3]"] ;
776 -> 782 ;
783 [label="gini = 0.0\nsamples = 4\nvalue = [4, 0]"] ;
782 -> 783 ;
784 [label="gini = 0.0\nsamples = 3\nvalue = [0, 3]"] ;
782 -> 784 ;
785 [label="X[2] <= 99.75\ngini = 0.245\nsamples = 7\nvalue = [6, 1]"] ;
775 -> 785 ;
786 [label="gini = 0.0\nsamples = 6\nvalue = [6, 0]"] ;
785 -> 786 ;
787 [label="gini = 0.0\nsamples = 1\nvalue = [0, 1]"] ;
785 -> 787 ;
788 [label="X[4] <= 0.5\ngini = 0.459\nsamples = 14\nvalue = [5, 9]"] ;
756 -> 788 ;
789 [label="X[3] <= 2944.6\ngini = 0.32\nsamples = 10\nvalue = [2, 8]"] ;
788 -> 789 ;
790 [label="X[3] <= 2790.8\ngini = 0.198\nsamples = 9\nvalue = [1, 8]"] ;
789 -> 790 ;
791 [label="gini = 0.0\nsamples = 6\nvalue = [0, 6]"] ;
790 -> 791 ;
792 [label="X[3] <= 2851.975\ngini = 0.444\nsamples = 3\nvalue = [1, 2]"] ;
790 -> 792 ;
793 [label="gini = 0.0\nsamples = 1\nvalue = [1, 0]"] ;
792 -> 793 ;
794 [label="gini = 0.0\nsamples = 2\nvalue = [0, 2]"] ;
792 -> 794 ;
795 [label="gini = 0.0\nsamples = 1\nvalue = [1, 0]"] ;
789 -> 795 ;
796 [label="X[17] <= 0.5\ngini = 0.375\nsamples = 4\nvalue = [3, 1]"] ;
788 -> 796 ;
797 [label="gini = 0.0\nsamples = 1\nvalue = [0, 1]"] ;
796 -> 797 ;
798 [label="gini = 0.0\nsamples = 3\nvalue = [3, 0]"] ;
796 -> 798 ;
799 [label="X[1] <= 33.5\ngini = 0.458\nsamples = 31\nvalue = [11, 20]"] ;
755 -> 799 ;
800 [label="X[3] <= 1219.8\ngini = 0.393\nsamples = 26\nvalue = [7, 19]"] ;
799 -> 800 ;
801 [label="gini = 0.0\nsamples = 6\nvalue = [0, 6]"] ;
800 -> 801 ;
802 [label="X[1] <= 26.0\ngini = 0.455\nsamples = 20\nvalue = [7, 13]"] ;
800 -> 802 ;
803 [label="X[11] <= 1.0\ngini = 0.498\nsamples = 15\nvalue = [7, 8]"] ;
802 -> 803 ;
804 [label="X[3] <= 1924.75\ngini = 0.444\nsamples = 12\nvalue = [4, 8]"] ;
803 -> 804 ;
805 [label="X[1] <= 23.0\ngini = 0.32\nsamples = 10\nvalue = [2, 8]"] ;
804 -> 805 ;
806 [label="X[3] <= 1263.725\ngini = 0.198\nsamples = 9\nvalue = [1, 8]"] ;
805 -> 806 ;
807 [label="gini = 0.0\nsamples = 1\nvalue = [1, 0]"] ;
806 -> 807 ;
808 [label="gini = 0.0\nsamples = 8\nvalue = [0, 8]"] ;
806 -> 808 ;
809 [label="gini = 0.0\nsamples = 1\nvalue = [1, 0]"] ;
805 -> 809 ;
810 [label="gini = 0.0\nsamples = 2\nvalue = [2, 0]"] ;
804 -> 810 ;
811 [label="gini = 0.0\nsamples = 3\nvalue = [3, 0]"] ;
803 -> 811 ;
812 [label="gini = 0.0\nsamples = 5\nvalue = [0, 5]"] ;
802 -> 812 ;
813 [label="X[3] <= 2764.65\ngini = 0.32\nsamples = 5\nvalue = [4, 1]"] ;
799 -> 813 ;
814 [label="gini = 0.0\nsamples = 4\nvalue = [4, 0]"] ;
813 -> 814 ;
815 [label="gini = 0.0\nsamples = 1\nvalue = [0, 1]"] ;
813 -> 815 ;
816 [label="X[2] <= 97.225\ngini = 0.423\nsamples = 56\nvalue = [39, 17]"] ;
750 -> 816 ;
817 [label="X[1] <= 35.5\ngini = 0.32\nsamples = 40\nvalue = [32, 8]"] ;
816 -> 817 ;
818 [label="X[2] <= 89.05\ngini = 0.295\nsamples = 39\nvalue = [32, 7]"] ;
817 -> 818 ;
819 [label="X[3] <= 2434.4\ngini = 0.165\nsamples = 22\nvalue = [20, 2]"] ;
818 -> 819 ;
820 [label="gini = 0.0\nsamples = 14\nvalue = [14, 0]"] ;
819 -> 820 ;
821 [label="X[3] <= 2518.975\ngini = 0.375\nsamples = 8\nvalue = [6, 2]"] ;
819 -> 821 ;
822 [label="gini = 0.0\nsamples = 1\nvalue = [0, 1]"] ;
821 -> 822 ;
823 [label="X[5] <= 0.5\ngini = 0.245\nsamples = 7\nvalue = [6, 1]"] ;
821 -> 823 ;
824 [label="X[2] <= 82.475\ngini = 0.444\nsamples = 3\nvalue = [2, 1]"] ;
823 -> 824 ;
825 [label="gini = 0.0\nsamples = 2\nvalue = [2, 0]"] ;
824 -> 825 ;
826 [label="gini = 0.0\nsamples = 1\nvalue = [0, 1]"] ;
824 -> 826 ;
827 [label="gini = 0.0\nsamples = 4\nvalue = [4, 0]"] ;
823 -> 827 ;
828 [label="X[2] <= 89.675\ngini = 0.415\nsamples = 17\nvalue = [12, 5]"] ;
818 -> 828 ;
829 [label="gini = 0.0\nsamples = 2\nvalue = [0, 2]"] ;
828 -> 829 ;
830 [label="X[18] <= 0.5\ngini = 0.32\nsamples = 15\nvalue = [12, 3]"] ;
828 -> 830 ;
831 [label="gini = 0.0\nsamples = 6\nvalue = [6, 0]"] ;
830 -> 831 ;
832 [label="X[2] <= 94.35\ngini = 0.444\nsamples = 9\nvalue = [6, 3]"] ;
830 -> 832 ;
833 [label="gini = 0.0\nsamples = 3\nvalue = [3, 0]"] ;
832 -> 833 ;
834 [label="X[3] <= 2299.625\ngini = 0.5\nsamples = 6\nvalue = [3, 3]"] ;
832 -> 834 ;
835 [label="X[2] <= 95.925\ngini = 0.375\nsamples = 4\nvalue = [1, 3]"] ;
834 -> 835 ;
836 [label="gini = 0.0\nsamples = 3\nvalue = [0, 3]"] ;
835 -> 836 ;
837 [label="gini = 0.0\nsamples = 1\nvalue = [1, 0]"] ;
835 -> 837 ;
838 [label="gini = 0.0\nsamples = 2\nvalue = [2, 0]"] ;
834 -> 838 ;
839 [label="gini = 0.0\nsamples = 1\nvalue = [0, 1]"] ;
817 -> 839 ;
840 [label="X[1] <= 25.5\ngini = 0.492\nsamples = 16\nvalue = [7, 9]"] ;
816 -> 840 ;
841 [label="X[17] <= 0.5\ngini = 0.32\nsamples = 10\nvalue = [2, 8]"] ;
840 -> 841 ;
842 [label="gini = 0.0\nsamples = 1\nvalue = [1, 0]"] ;
841 -> 842 ;
843 [label="X[6] <= 0.5\ngini = 0.198\nsamples = 9\nvalue = [1, 8]"] ;
841 -> 843 ;
844 [label="gini = 0.0\nsamples = 7\nvalue = [0, 7]"] ;
843 -> 844 ;
845 [label="X[1] <= 17.5\ngini = 0.5\nsamples = 2\nvalue = [1, 1]"] ;
843 -> 845 ;
846 [label="gini = 0.0\nsamples = 1\nvalue = [1, 0]"] ;
845 -> 846 ;
847 [label="gini = 0.0\nsamples = 1\nvalue = [0, 1]"] ;
845 -> 847 ;
848 [label="X[3] <= 2905.975\ngini = 0.278\nsamples = 6\nvalue = [5, 1]"] ;
840 -> 848 ;
849 [label="gini = 0.0\nsamples = 4\nvalue = [4, 0]"] ;
848 -> 849 ;
850 [label="X[4] <= 0.5\ngini = 0.5\nsamples = 2\nvalue = [1, 1]"] ;
848 -> 850 ;
851 [label="gini = 0.0\nsamples = 1\nvalue = [0, 1]"] ;
850 -> 851 ;
852 [label="gini = 0.0\nsamples = 1\nvalue = [1, 0]"] ;
850 -> 852 ;
853 [label="X[3] <= 3002.2\ngini = 0.483\nsamples = 339\nvalue = [138, 201]"] ;
749 -> 853 ;
854 [label="X[3] <= 2893.6\ngini = 0.487\nsamples = 329\nvalue = [138, 191]"] ;
853 -> 854 ;
855 [label="X[2] <= 97.175\ngini = 0.481\nsamples = 310\nvalue = [125, 185]"] ;
854 -> 855 ;
856 [label="X[2] <= 96.75\ngini = 0.49\nsamples = 263\nvalue = [113, 150]"] ;
855 -> 856 ;
857 [label="X[2] <= 95.85\ngini = 0.487\nsamples = 259\nvalue = [109, 150]"] ;
856 -> 857 ;
858 [label="X[2] <= 95.575\ngini = 0.491\nsamples = 252\nvalue = [109, 143]"] ;
857 -> 858 ;
859 [label="X[18] <= 2.5\ngini = 0.489\nsamples = 249\nvalue = [106, 143]"] ;
858 -> 859 ;
860 [label="X[1] <= 31.5\ngini = 0.481\nsamples = 223\nvalue = [90, 133]"] ;
859 -> 860 ;
861 [label="X[3] <= 1556.35\ngini = 0.487\nsamples = 207\nvalue = [87, 120]"] ;
860 -> 861 ;
862 [label="X[1] <= 12.5\ngini = 0.447\nsamples = 98\nvalue = [33, 65]"] ;
861 -> 862 ;
863 [label="X[3] <= 834.45\ngini = 0.499\nsamples = 29\nvalue = [15, 14]"] ;
862 -> 863 ;
864 [label="gini = 0.0\nsamples = 4\nvalue = [0, 4]"] ;
863 -> 864 ;
865 [label="X[3] <= 905.05\ngini = 0.48\nsamples = 25\nvalue = [15, 10]"] ;
863 -> 865 ;
866 [label="X[3] <= 856.075\ngini = 0.245\nsamples = 7\nvalue = [6, 1]"] ;
865 -> 866 ;
867 [label="X[8] <= 1.0\ngini = 0.5\nsamples = 2\nvalue = [1, 1]"] ;
866 -> 867 ;
868 [label="gini = 0.0\nsamples = 1\nvalue = [1, 0]"] ;
867 -> 868 ;
869 [label="gini = 0.0\nsamples = 1\nvalue = [0, 1]"] ;
867 -> 869 ;
870 [label="gini = 0.0\nsamples = 5\nvalue = [5, 0]"] ;
866 -> 870 ;
871 [label="X[3] <= 958.375\ngini = 0.5\nsamples = 18\nvalue = [9, 9]"] ;
865 -> 871 ;
872 [label="gini = 0.0\nsamples = 3\nvalue = [0, 3]"] ;
871 -> 872 ;
873 [label="X[14] <= 1.0\ngini = 0.48\nsamples = 15\nvalue = [9, 6]"] ;
871 -> 873 ;
874 [label="gini = 0.0\nsamples = 4\nvalue = [4, 0]"] ;
873 -> 874 ;
875 [label="X[3] <= 1033.925\ngini = 0.496\nsamples = 11\nvalue = [5, 6]"] ;
873 -> 875 ;
876 [label="X[13] <= 1.0\ngini = 0.32\nsamples = 5\nvalue = [4, 1]"] ;
875 -> 876 ;
877 [label="gini = 0.0\nsamples = 4\nvalue = [4, 0]"] ;
876 -> 877 ;
878 [label="gini = 0.0\nsamples = 1\nvalue = [0, 1]"] ;
876 -> 878 ;
879 [label="X[17] <= 0.5\ngini = 0.278\nsamples = 6\nvalue = [1, 5]"] ;
875 -> 879 ;
880 [label="gini = 0.0\nsamples = 1\nvalue = [1, 0]"] ;
879 -> 880 ;
881 [label="gini = 0.0\nsamples = 5\nvalue = [0, 5]"] ;
879 -> 881 ;
882 [label="X[2] <= 78.85\ngini = 0.386\nsamples = 69\nvalue = [18, 51]"] ;
862 -> 882 ;
883 [label="X[1] <= 18.5\ngini = 0.486\nsamples = 24\nvalue = [10, 14]"] ;
882 -> 883 ;
884 [label="X[3] <= 1200.65\ngini = 0.5\nsamples = 20\nvalue = [10, 10]"] ;
883 -> 884 ;
885 [label="X[4] <= 0.5\ngini = 0.444\nsamples = 12\nvalue = [4, 8]"] ;
884 -> 885 ;
886 [label="gini = 0.0\nsamples = 5\nvalue = [0, 5]"] ;
885 -> 886 ;
887 [label="X[3] <= 1025.05\ngini = 0.49\nsamples = 7\nvalue = [4, 3]"] ;
885 -> 887 ;
888 [label="gini = 0.0\nsamples = 2\nvalue = [2, 0]"] ;
887 -> 888 ;
889 [label="X[2] <= 75.175\ngini = 0.48\nsamples = 5\nvalue = [2, 3]"] ;
887 -> 889 ;
890 [label="gini = 0.0\nsamples = 2\nvalue = [0, 2]"] ;
889 -> 890 ;
891 [label="X[0] <= 0.5\ngini = 0.444\nsamples = 3\nvalue = [2, 1]"] ;
889 -> 891 ;
892 [label="gini = 0.0\nsamples = 2\nvalue = [2, 0]"] ;
891 -> 892 ;
893 [label="gini = 0.0\nsamples = 1\nvalue = [0, 1]"] ;
891 -> 893 ;
894 [label="X[2] <= 75.4\ngini = 0.375\nsamples = 8\nvalue = [6, 2]"] ;
884 -> 894 ;
895 [label="gini = 0.0\nsamples = 4\nvalue = [4, 0]"] ;
894 -> 895 ;
896 [label="X[1] <= 16.5\ngini = 0.5\nsamples = 4\nvalue = [2, 2]"] ;
894 -> 896 ;
897 [label="gini = 0.0\nsamples = 1\nvalue = [1, 0]"] ;
896 -> 897 ;
898 [label="X[3] <= 1445.7\ngini = 0.444\nsamples = 3\nvalue = [1, 2]"] ;
896 -> 898 ;
899 [label="gini = 0.0\nsamples = 2\nvalue = [0, 2]"] ;
898 -> 899 ;
900 [label="gini = 0.0\nsamples = 1\nvalue = [1, 0]"] ;
898 -> 900 ;
901 [label="gini = 0.0\nsamples = 4\nvalue = [0, 4]"] ;
883 -> 901 ;
902 [label="X[3] <= 1181.7\ngini = 0.292\nsamples = 45\nvalue = [8, 37]"] ;
882 -> 902 ;
903 [label="gini = 0.0\nsamples = 14\nvalue = [0, 14]"] ;
902 -> 903 ;
904 [label="X[3] <= 1219.225\ngini = 0.383\nsamples = 31\nvalue = [8, 23]"] ;
902 -> 904 ;
905 [label="X[2] <= 88.225\ngini = 0.48\nsamples = 5\nvalue = [3, 2]"] ;
904 -> 905 ;
906 [label="gini = 0.0\nsamples = 3\nvalue = [3, 0]"] ;
905 -> 906 ;
907 [label="gini = 0.0\nsamples = 2\nvalue = [0, 2]"] ;
905 -> 907 ;
908 [label="X[8] <= 1.0\ngini = 0.311\nsamples = 26\nvalue = [5, 21]"] ;
904 -> 908 ;
909 [label="X[0] <= 0.5\ngini = 0.496\nsamples = 11\nvalue = [5, 6]"] ;
908 -> 909 ;
910 [label="X[11] <= 1.0\ngini = 0.278\nsamples = 6\nvalue = [1, 5]"] ;
909 -> 910 ;
911 [label="gini = 0.0\nsamples = 5\nvalue = [0, 5]"] ;
910 -> 911 ;
912 [label="gini = 0.0\nsamples = 1\nvalue = [1, 0]"] ;
910 -> 912 ;
913 [label="X[13] <= 1.0\ngini = 0.32\nsamples = 5\nvalue = [4, 1]"] ;
909 -> 913 ;
914 [label="gini = 0.0\nsamples = 3\nvalue = [3, 0]"] ;
913 -> 914 ;
915 [label="X[14] <= 1.0\ngini = 0.5\nsamples = 2\nvalue = [1, 1]"] ;
913 -> 915 ;
916 [label="gini = 0.0\nsamples = 1\nvalue = [1, 0]"] ;
915 -> 916 ;
917 [label="gini = 0.0\nsamples = 1\nvalue = [0, 1]"] ;
915 -> 917 ;
918 [label="gini = 0.0\nsamples = 15\nvalue = [0, 15]"] ;
908 -> 918 ;
919 [label="X[3] <= 1679.775\ngini = 0.5\nsamples = 109\nvalue = [54, 55]"] ;
861 -> 919 ;
920 [label="X[13] <= 1.0\ngini = 0.278\nsamples = 12\nvalue = [10, 2]"] ;
919 -> 920 ;
921 [label="gini = 0.0\nsamples = 9\nvalue = [9, 0]"] ;
920 -> 921 ;
922 [label="X[5] <= 0.5\ngini = 0.444\nsamples = 3\nvalue = [1, 2]"] ;
920 -> 922 ;
923 [label="gini = 0.0\nsamples = 2\nvalue = [0, 2]"] ;
922 -> 923 ;
924 [label="gini = 0.0\nsamples = 1\nvalue = [1, 0]"] ;
922 -> 924 ;
925 [label="X[2] <= 88.85\ngini = 0.496\nsamples = 97\nvalue = [44, 53]"] ;
919 -> 925 ;
926 [label="X[2] <= 85.35\ngini = 0.499\nsamples = 55\nvalue = [29, 26]"] ;
925 -> 926 ;
927 [label="X[13] <= 1.0\ngini = 0.498\nsamples = 45\nvalue = [21, 24]"] ;
926 -> 927 ;
928 [label="X[2] <= 84.925\ngini = 0.499\nsamples = 40\nvalue = [21, 19]"] ;
927 -> 928 ;
929 [label="X[3] <= 2406.625\ngini = 0.486\nsamples = 36\nvalue = [21, 15]"] ;
928 -> 929 ;
930 [label="X[3] <= 1733.9\ngini = 0.498\nsamples = 32\nvalue = [17, 15]"] ;
929 -> 930 ;
931 [label="gini = 0.0\nsamples = 2\nvalue = [0, 2]"] ;
930 -> 931 ;
932 [label="X[3] <= 1829.5\ngini = 0.491\nsamples = 30\nvalue = [17, 13]"] ;
930 -> 932 ;
933 [label="gini = 0.0\nsamples = 5\nvalue = [5, 0]"] ;
932 -> 933 ;
934 [label="X[1] <= 22.5\ngini = 0.499\nsamples = 25\nvalue = [12, 13]"] ;
932 -> 934 ;
935 [label="gini = 0.0\nsamples = 2\nvalue = [0, 2]"] ;
934 -> 935 ;
936 [label="X[11] <= 1.0\ngini = 0.499\nsamples = 23\nvalue = [12, 11]"] ;
934 -> 936 ;
937 [label="X[3] <= 1871.95\ngini = 0.494\nsamples = 18\nvalue = [8, 10]"] ;
936 -> 937 ;
938 [label="gini = 0.0\nsamples = 1\nvalue = [1, 0]"] ;
937 -> 938 ;
939 [label="X[6] <= 0.5\ngini = 0.484\nsamples = 17\nvalue = [7, 10]"] ;
937 -> 939 ;
940 [label="X[3] <= 1930.5\ngini = 0.5\nsamples = 14\nvalue = [7, 7]"] ;
939 -> 940 ;
941 [label="gini = 0.0\nsamples = 2\nvalue = [0, 2]"] ;
940 -> 941 ;
942 [label="X[5] <= 0.5\ngini = 0.486\nsamples = 12\nvalue = [7, 5]"] ;
940 -> 942 ;
943 [label="X[2] <= 78.425\ngini = 0.494\nsamples = 9\nvalue = [4, 5]"] ;
942 -> 943 ;
944 [label="gini = 0.0\nsamples = 2\nvalue = [0, 2]"] ;
943 -> 944 ;
945 [label="X[2] <= 82.625\ngini = 0.49\nsamples = 7\nvalue = [4, 3]"] ;
943 -> 945 ;
946 [label="X[3] <= 2328.475\ngini = 0.32\nsamples = 5\nvalue = [4, 1]"] ;
945 -> 946 ;
947 [label="gini = 0.0\nsamples = 4\nvalue = [4, 0]"] ;
946 -> 947 ;
948 [label="gini = 0.0\nsamples = 1\nvalue = [0, 1]"] ;
946 -> 948 ;
949 [label="gini = 0.0\nsamples = 2\nvalue = [0, 2]"] ;
945 -> 949 ;
950 [label="gini = 0.0\nsamples = 3\nvalue = [3, 0]"] ;
942 -> 950 ;
951 [label="gini = 0.0\nsamples = 3\nvalue = [0, 3]"] ;
939 -> 951 ;
952 [label="X[3] <= 2107.725\ngini = 0.32\nsamples = 5\nvalue = [4, 1]"] ;
936 -> 952 ;
953 [label="gini = 0.0\nsamples = 4\nvalue = [4, 0]"] ;
952 -> 953 ;
954 [label="gini = 0.0\nsamples = 1\nvalue = [0, 1]"] ;
952 -> 954 ;
955 [label="gini = 0.0\nsamples = 4\nvalue = [4, 0]"] ;
929 -> 955 ;
956 [label="gini = 0.0\nsamples = 4\nvalue = [0, 4]"] ;
928 -> 956 ;
957 [label="gini = 0.0\nsamples = 5\nvalue = [0, 5]"] ;
927 -> 957 ;
958 [label="X[3] <= 1813.8\ngini = 0.32\nsamples = 10\nvalue = [8, 2]"] ;
926 -> 958 ;
959 [label="gini = 0.0\nsamples = 2\nvalue = [0, 2]"] ;
958 -> 959 ;
960 [label="gini = 0.0\nsamples = 8\nvalue = [8, 0]"] ;
958 -> 960 ;
961 [label="X[0] <= 0.5\ngini = 0.459\nsamples = 42\nvalue = [15, 27]"] ;
925 -> 961 ;
962 [label="X[2] <= 90.9\ngini = 0.5\nsamples = 24\nvalue = [12, 12]"] ;
961 -> 962 ;
963 [label="X[14] <= 1.0\ngini = 0.391\nsamples = 15\nvalue = [4, 11]"] ;
962 -> 963 ;
964 [label="X[1] <= 27.5\ngini = 0.49\nsamples = 7\nvalue = [4, 3]"] ;
963 -> 964 ;
965 [label="gini = 0.0\nsamples = 4\nvalue = [4, 0]"] ;
964 -> 965 ;
966 [label="gini = 0.0\nsamples = 3\nvalue = [0, 3]"] ;
964 -> 966 ;
967 [label="gini = 0.0\nsamples = 8\nvalue = [0, 8]"] ;
963 -> 967 ;
968 [label="X[3] <= 1689.925\ngini = 0.198\nsamples = 9\nvalue = [8, 1]"] ;
962 -> 968 ;
969 [label="gini = 0.0\nsamples = 1\nvalue = [0, 1]"] ;
968 -> 969 ;
970 [label="gini = 0.0\nsamples = 8\nvalue = [8, 0]"] ;
968 -> 970 ;
971 [label="X[1] <= 30.0\ngini = 0.278\nsamples = 18\nvalue = [3, 15]"] ;
961 -> 971 ;
972 [label="X[3] <= 2152.4\ngini = 0.208\nsamples = 17\nvalue = [2, 15]"] ;
971 -> 972 ;
973 [label="X[2] <= 90.625\ngini = 0.408\nsamples = 7\nvalue = [2, 5]"] ;
972 -> 973 ;
974 [label="gini = 0.0\nsamples = 1\nvalue = [1, 0]"] ;
973 -> 974 ;
975 [label="X[1] <= 19.5\ngini = 0.278\nsamples = 6\nvalue = [1, 5]"] ;
973 -> 975 ;
976 [label="X[3] <= 1756.4\ngini = 0.5\nsamples = 2\nvalue = [1, 1]"] ;
975 -> 976 ;
977 [label="gini = 0.0\nsamples = 1\nvalue = [0, 1]"] ;
976 -> 977 ;
978 [label="gini = 0.0\nsamples = 1\nvalue = [1, 0]"] ;
976 -> 978 ;
979 [label="gini = 0.0\nsamples = 4\nvalue = [0, 4]"] ;
975 -> 979 ;
980 [label="gini = 0.0\nsamples = 10\nvalue = [0, 10]"] ;
972 -> 980 ;
981 [label="gini = 0.0\nsamples = 1\nvalue = [1, 0]"] ;
971 -> 981 ;
982 [label="X[2] <= 89.25\ngini = 0.305\nsamples = 16\nvalue = [3, 13]"] ;
860 -> 982 ;
983 [label="X[0] <= 0.5\ngini = 0.231\nsamples = 15\nvalue = [2, 13]"] ;
982 -> 983 ;
984 [label="gini = 0.0\nsamples = 7\nvalue = [0, 7]"] ;
983 -> 984 ;
985 [label="X[2] <= 75.225\ngini = 0.375\nsamples = 8\nvalue = [2, 6]"] ;
983 -> 985 ;
986 [label="gini = 0.0\nsamples = 2\nvalue = [0, 2]"] ;
985 -> 986 ;
987 [label="X[8] <= 1.0\ngini = 0.444\nsamples = 6\nvalue = [2, 4]"] ;
985 -> 987 ;
988 [label="gini = 0.0\nsamples = 1\nvalue = [1, 0]"] ;
987 -> 988 ;
989 [label="X[2] <= 75.9\ngini = 0.32\nsamples = 5\nvalue = [1, 4]"] ;
987 -> 989 ;
990 [label="gini = 0.0\nsamples = 1\nvalue = [1, 0]"] ;
989 -> 990 ;
991 [label="gini = 0.0\nsamples = 4\nvalue = [0, 4]"] ;
989 -> 991 ;
992 [label="gini = 0.0\nsamples = 1\nvalue = [1, 0]"] ;
982 -> 992 ;
993 [label="X[2] <= 79.475\ngini = 0.473\nsamples = 26\nvalue = [16, 10]"] ;
859 -> 993 ;
994 [label="X[3] <= 1780.3\ngini = 0.278\nsamples = 12\nvalue = [10, 2]"] ;
993 -> 994 ;
995 [label="X[3] <= 1669.025\ngini = 0.408\nsamples = 7\nvalue = [5, 2]"] ;
994 -> 995 ;
996 [label="X[2] <= 75.95\ngini = 0.278\nsamples = 6\nvalue = [5, 1]"] ;
995 -> 996 ;
997 [label="gini = 0.0\nsamples = 4\nvalue = [4, 0]"] ;
996 -> 997 ;
998 [label="X[3] <= 991.325\ngini = 0.5\nsamples = 2\nvalue = [1, 1]"] ;
996 -> 998 ;
999 [label="gini = 0.0\nsamples = 1\nvalue = [1, 0]"] ;
998 -> 999 ;
1000 [label="gini = 0.0\nsamples = 1\nvalue = [0, 1]"] ;
998 -> 1000 ;
1001 [label="gini = 0.0\nsamples = 1\nvalue = [0, 1]"] ;
995 -> 1001 ;
1002 [label="gini = 0.0\nsamples = 5\nvalue = [5, 0]"] ;
994 -> 1002 ;
1003 [label="X[13] <= 1.0\ngini = 0.49\nsamples = 14\nvalue = [6, 8]"] ;
993 -> 1003 ;
1004 [label="X[3] <= 1079.0\ngini = 0.444\nsamples = 12\nvalue = [4, 8]"] ;
1003 -> 1004 ;
1005 [label="gini = 0.0\nsamples = 1\nvalue = [1, 0]"] ;
1004 -> 1005 ;
1006 [label="X[3] <= 1892.175\ngini = 0.397\nsamples = 11\nvalue = [3, 8]"] ;
1004 -> 1006 ;
1007 [label="gini = 0.0\nsamples = 5\nvalue = [0, 5]"] ;
1006 -> 1007 ;
1008 [label="X[3] <= 2161.175\ngini = 0.5\nsamples = 6\nvalue = [3, 3]"] ;
1006 -> 1008 ;
1009 [label="gini = 0.0\nsamples = 2\nvalue = [2, 0]"] ;
1008 -> 1009 ;
1010 [label="X[3] <= 2789.875\ngini = 0.375\nsamples = 4\nvalue = [1, 3]"] ;
1008 -> 1010 ;
1011 [label="gini = 0.0\nsamples = 3\nvalue = [0, 3]"] ;
1010 -> 1011 ;
1012 [label="gini = 0.0\nsamples = 1\nvalue = [1, 0]"] ;
1010 -> 1012 ;
1013 [label="gini = 0.0\nsamples = 2\nvalue = [2, 0]"] ;
1003 -> 1013 ;
1014 [label="gini = 0.0\nsamples = 3\nvalue = [3, 0]"] ;
858 -> 1014 ;
1015 [label="gini = 0.0\nsamples = 7\nvalue = [0, 7]"] ;
857 -> 1015 ;
1016 [label="gini = 0.0\nsamples = 4\nvalue = [4, 0]"] ;
856 -> 1016 ;
1017 [label="X[3] <= 2217.4\ngini = 0.38\nsamples = 47\nvalue = [12, 35]"] ;
855 -> 1017 ;
1018 [label="X[2] <= 101.575\ngini = 0.452\nsamples = 29\nvalue = [10, 19]"] ;
1017 -> 1018 ;
1019 [label="X[17] <= 0.5\ngini = 0.291\nsamples = 17\nvalue = [3, 14]"] ;
1018 -> 1019 ;
1020 [label="gini = 0.0\nsamples = 1\nvalue = [1, 0]"] ;
1019 -> 1020 ;
1021 [label="X[1] <= 19.5\ngini = 0.219\nsamples = 16\nvalue = [2, 14]"] ;
1019 -> 1021 ;
1022 [label="X[4] <= 0.5\ngini = 0.133\nsamples = 14\nvalue = [1, 13]"] ;
1021 -> 1022 ;
1023 [label="X[5] <= 0.5\ngini = 0.278\nsamples = 6\nvalue = [1, 5]"] ;
1022 -> 1023 ;
1024 [label="X[8] <= 1.0\ngini = 0.5\nsamples = 2\nvalue = [1, 1]"] ;
1023 -> 1024 ;
1025 [label="gini = 0.0\nsamples = 1\nvalue = [0, 1]"] ;
1024 -> 1025 ;
1026 [label="gini = 0.0\nsamples = 1\nvalue = [1, 0]"] ;
1024 -> 1026 ;
1027 [label="gini = 0.0\nsamples = 4\nvalue = [0, 4]"] ;
1023 -> 1027 ;
1028 [label="gini = 0.0\nsamples = 8\nvalue = [0, 8]"] ;
1022 -> 1028 ;
1029 [label="X[1] <= 20.5\ngini = 0.5\nsamples = 2\nvalue = [1, 1]"] ;
1021 -> 1029 ;
1030 [label="gini = 0.0\nsamples = 1\nvalue = [1, 0]"] ;
1029 -> 1030 ;
1031 [label="gini = 0.0\nsamples = 1\nvalue = [0, 1]"] ;
1029 -> 1031 ;
1032 [label="X[1] <= 14.0\ngini = 0.486\nsamples = 12\nvalue = [7, 5]"] ;
1018 -> 1032 ;
1033 [label="X[6] <= 0.5\ngini = 0.444\nsamples = 6\nvalue = [2, 4]"] ;
1032 -> 1033 ;
1034 [label="X[1] <= 11.5\ngini = 0.32\nsamples = 5\nvalue = [1, 4]"] ;
1033 -> 1034 ;
1035 [label="X[13] <= 1.0\ngini = 0.5\nsamples = 2\nvalue = [1, 1]"] ;
1034 -> 1035 ;
1036 [label="gini = 0.0\nsamples = 1\nvalue = [0, 1]"] ;
1035 -> 1036 ;
1037 [label="gini = 0.0\nsamples = 1\nvalue = [1, 0]"] ;
1035 -> 1037 ;
1038 [label="gini = 0.0\nsamples = 3\nvalue = [0, 3]"] ;
1034 -> 1038 ;
1039 [label="gini = 0.0\nsamples = 1\nvalue = [1, 0]"] ;
1033 -> 1039 ;
1040 [label="X[6] <= 0.5\ngini = 0.278\nsamples = 6\nvalue = [5, 1]"] ;
1032 -> 1040 ;
1041 [label="gini = 0.0\nsamples = 5\nvalue = [5, 0]"] ;
1040 -> 1041 ;
1042 [label="gini = 0.0\nsamples = 1\nvalue = [0, 1]"] ;
1040 -> 1042 ;
1043 [label="X[1] <= 22.5\ngini = 0.198\nsamples = 18\nvalue = [2, 16]"] ;
1017 -> 1043 ;
1044 [label="X[12] <= 1.0\ngini = 0.444\nsamples = 3\nvalue = [1, 2]"] ;
1043 -> 1044 ;
1045 [label="gini = 0.0\nsamples = 1\nvalue = [1, 0]"] ;
1044 -> 1045 ;
1046 [label="gini = 0.0\nsamples = 2\nvalue = [0, 2]"] ;
1044 -> 1046 ;
1047 [label="X[2] <= 104.1\ngini = 0.124\nsamples = 15\nvalue = [1, 14]"] ;
1043 -> 1047 ;
1048 [label="gini = 0.0\nsamples = 9\nvalue = [0, 9]"] ;
1047 -> 1048 ;
1049 [label="X[2] <= 104.2\ngini = 0.278\nsamples = 6\nvalue = [1, 5]"] ;
1047 -> 1049 ;
1050 [label="gini = 0.0\nsamples = 1\nvalue = [1, 0]"] ;
1049 -> 1050 ;
1051 [label="gini = 0.0\nsamples = 5\nvalue = [0, 5]"] ;
1049 -> 1051 ;
1052 [label="X[1] <= 31.5\ngini = 0.432\nsamples = 19\nvalue = [13, 6]"] ;
854 -> 1052 ;
1053 [label="X[2] <= 100.75\ngini = 0.5\nsamples = 10\nvalue = [5, 5]"] ;
1052 -> 1053 ;
1054 [label="X[4] <= 0.5\ngini = 0.32\nsamples = 5\nvalue = [1, 4]"] ;
1053 -> 1054 ;
1055 [label="gini = 0.0\nsamples = 4\nvalue = [0, 4]"] ;
1054 -> 1055 ;
1056 [label="gini = 0.0\nsamples = 1\nvalue = [1, 0]"] ;
1054 -> 1056 ;
1057 [label="X[0] <= 0.5\ngini = 0.32\nsamples = 5\nvalue = [4, 1]"] ;
1053 -> 1057 ;
1058 [label="gini = 0.0\nsamples = 1\nvalue = [0, 1]"] ;
1057 -> 1058 ;
1059 [label="gini = 0.0\nsamples = 4\nvalue = [4, 0]"] ;
1057 -> 1059 ;
1060 [label="X[2] <= 92.275\ngini = 0.198\nsamples = 9\nvalue = [8, 1]"] ;
1052 -> 1060 ;
1061 [label="gini = 0.0\nsamples = 7\nvalue = [7, 0]"] ;
1060 -> 1061 ;
1062 [label="X[14] <= 1.0\ngini = 0.5\nsamples = 2\nvalue = [1, 1]"] ;
1060 -> 1062 ;
1063 [label="gini = 0.0\nsamples = 1\nvalue = [1, 0]"] ;
1062 -> 1063 ;
1064 [label="gini = 0.0\nsamples = 1\nvalue = [0, 1]"] ;
1062 -> 1064 ;
1065 [label="gini = 0.0\nsamples = 10\nvalue = [0, 10]"] ;
853 -> 1065 ;
1066 [label="X[2] <= 95.6\ngini = 0.471\nsamples = 311\nvalue = [193, 118]"] ;
748 -> 1066 ;
1067 [label="X[0] <= 0.5\ngini = 0.403\nsamples = 161\nvalue = [116, 45]"] ;
1066 -> 1067 ;
1068 [label="X[1] <= 37.5\ngini = 0.322\nsamples = 104\nvalue = [83, 21]"] ;
1067 -> 1068 ;
1069 [label="gini = 0.0\nsamples = 15\nvalue = [15, 0]"] ;
1068 -> 1069 ;
1070 [label="X[1] <= 56.5\ngini = 0.361\nsamples = 89\nvalue = [68, 21]"] ;
1068 -> 1070 ;
1071 [label="X[3] <= 3256.95\ngini = 0.398\nsamples = 73\nvalue = [53, 20]"] ;
1070 -> 1071 ;
1072 [label="gini = 0.0\nsamples = 7\nvalue = [7, 0]"] ;
1071 -> 1072 ;
1073 [label="X[3] <= 3279.15\ngini = 0.422\nsamples = 66\nvalue = [46, 20]"] ;
1071 -> 1073 ;
1074 [label="gini = 0.0\nsamples = 2\nvalue = [0, 2]"] ;
1073 -> 1074 ;
1075 [label="X[8] <= 1.0\ngini = 0.404\nsamples = 64\nvalue = [46, 18]"] ;
1073 -> 1075 ;
1076 [label="X[1] <= 55.5\ngini = 0.208\nsamples = 17\nvalue = [15, 2]"] ;
1075 -> 1076 ;
1077 [label="X[15] <= 1.0\ngini = 0.124\nsamples = 15\nvalue = [14, 1]"] ;
1076 -> 1077 ;
1078 [label="gini = 0.0\nsamples = 11\nvalue = [11, 0]"] ;
1077 -> 1078 ;
1079 [label="X[14] <= 1.0\ngini = 0.375\nsamples = 4\nvalue = [3, 1]"] ;
1077 -> 1079 ;
1080 [label="X[1] <= 49.5\ngini = 0.5\nsamples = 2\nvalue = [1, 1]"] ;
1079 -> 1080 ;
1081 [label="gini = 0.0\nsamples = 1\nvalue = [0, 1]"] ;
1080 -> 1081 ;
1082 [label="gini = 0.0\nsamples = 1\nvalue = [1, 0]"] ;
1080 -> 1082 ;
1083 [label="gini = 0.0\nsamples = 2\nvalue = [2, 0]"] ;
1079 -> 1083 ;
1084 [label="X[15] <= 1.0\ngini = 0.5\nsamples = 2\nvalue = [1, 1]"] ;
1076 -> 1084 ;
1085 [label="gini = 0.0\nsamples = 1\nvalue = [0, 1]"] ;
1084 -> 1085 ;
1086 [label="gini = 0.0\nsamples = 1\nvalue = [1, 0]"] ;
1084 -> 1086 ;
1087 [label="X[1] <= 41.5\ngini = 0.449\nsamples = 47\nvalue = [31, 16]"] ;
1075 -> 1087 ;
1088 [label="X[13] <= 1.0\ngini = 0.198\nsamples = 9\nvalue = [8, 1]"] ;
1087 -> 1088 ;
1089 [label="gini = 0.0\nsamples = 8\nvalue = [8, 0]"] ;
1088 -> 1089 ;
1090 [label="gini = 0.0\nsamples = 1\nvalue = [0, 1]"] ;
1088 -> 1090 ;
1091 [label="X[1] <= 53.5\ngini = 0.478\nsamples = 38\nvalue = [23, 15]"] ;
1087 -> 1091 ;
1092 [label="X[2] <= 78.875\ngini = 0.497\nsamples = 28\nvalue = [15, 13]"] ;
1091 -> 1092 ;
1093 [label="gini = 0.0\nsamples = 2\nvalue = [0, 2]"] ;
1092 -> 1093 ;
1094 [label="X[14] <= 1.0\ngini = 0.488\nsamples = 26\nvalue = [15, 11]"] ;
1092 -> 1094 ;
1095 [label="X[12] <= 1.0\ngini = 0.415\nsamples = 17\nvalue = [12, 5]"] ;
1094 -> 1095 ;
1096 [label="gini = 0.0\nsamples = 7\nvalue = [7, 0]"] ;
1095 -> 1096 ;
1097 [label="X[3] <= 4064.0\ngini = 0.5\nsamples = 10\nvalue = [5, 5]"] ;
1095 -> 1097 ;
1098 [label="X[3] <= 3950.275\ngini = 0.469\nsamples = 8\nvalue = [5, 3]"] ;
1097 -> 1098 ;
1099 [label="X[1] <= 43.0\ngini = 0.48\nsamples = 5\nvalue = [2, 3]"] ;
1098 -> 1099 ;
1100 [label="X[5] <= 0.5\ngini = 0.444\nsamples = 3\nvalue = [2, 1]"] ;
1099 -> 1100 ;
1101 [label="gini = 0.0\nsamples = 1\nvalue = [1, 0]"] ;
1100 -> 1101 ;
1102 [label="X[2] <= 85.1\ngini = 0.5\nsamples = 2\nvalue = [1, 1]"] ;
1100 -> 1102 ;
1103 [label="gini = 0.0\nsamples = 1\nvalue = [0, 1]"] ;
1102 -> 1103 ;
1104 [label="gini = 0.0\nsamples = 1\nvalue = [1, 0]"] ;
1102 -> 1104 ;
1105 [label="gini = 0.0\nsamples = 2\nvalue = [0, 2]"] ;
1099 -> 1105 ;
1106 [label="gini = 0.0\nsamples = 3\nvalue = [3, 0]"] ;
1098 -> 1106 ;
1107 [label="gini = 0.0\nsamples = 2\nvalue = [0, 2]"] ;
1097 -> 1107 ;
1108 [label="X[3] <= 4565.6\ngini = 0.444\nsamples = 9\nvalue = [3, 6]"] ;
1094 -> 1108 ;
1109 [label="X[17] <= 0.5\ngini = 0.278\nsamples = 6\nvalue = [1, 5]"] ;
1108 -> 1109 ;
1110 [label="X[5] <= 0.5\ngini = 0.5\nsamples = 2\nvalue = [1, 1]"] ;
1109 -> 1110 ;
1111 [label="gini = 0.0\nsamples = 1\nvalue = [0, 1]"] ;
1110 -> 1111 ;
1112 [label="gini = 0.0\nsamples = 1\nvalue = [1, 0]"] ;
1110 -> 1112 ;
1113 [label="gini = 0.0\nsamples = 4\nvalue = [0, 4]"] ;
1109 -> 1113 ;
1114 [label="X[18] <= 1.0\ngini = 0.444\nsamples = 3\nvalue = [2, 1]"] ;
1108 -> 1114 ;
1115 [label="gini = 0.0\nsamples = 2\nvalue = [2, 0]"] ;
1114 -> 1115 ;
1116 [label="gini = 0.0\nsamples = 1\nvalue = [0, 1]"] ;
1114 -> 1116 ;
1117 [label="X[18] <= 1.5\ngini = 0.32\nsamples = 10\nvalue = [8, 2]"] ;
1091 -> 1117 ;
1118 [label="gini = 0.0\nsamples = 7\nvalue = [7, 0]"] ;
1117 -> 1118 ;
1119 [label="X[2] <= 75.425\ngini = 0.444\nsamples = 3\nvalue = [1, 2]"] ;
1117 -> 1119 ;
1120 [label="gini = 0.0\nsamples = 1\nvalue = [1, 0]"] ;
1119 -> 1120 ;
1121 [label="gini = 0.0\nsamples = 2\nvalue = [0, 2]"] ;
1119 -> 1121 ;
1122 [label="X[3] <= 5935.925\ngini = 0.117\nsamples = 16\nvalue = [15, 1]"] ;
1070 -> 1122 ;
1123 [label="gini = 0.0\nsamples = 12\nvalue = [12, 0]"] ;
1122 -> 1123 ;
1124 [label="X[14] <= 1.0\ngini = 0.375\nsamples = 4\nvalue = [3, 1]"] ;
1122 -> 1124 ;
1125 [label="gini = 0.0\nsamples = 3\nvalue = [3, 0]"] ;
1124 -> 1125 ;
1126 [label="gini = 0.0\nsamples = 1\nvalue = [0, 1]"] ;
1124 -> 1126 ;
1127 [label="X[3] <= 3643.025\ngini = 0.488\nsamples = 57\nvalue = [33, 24]"] ;
1067 -> 1127 ;
1128 [label="X[17] <= 0.5\ngini = 0.43\nsamples = 16\nvalue = [5, 11]"] ;
1127 -> 1128 ;
1129 [label="X[2] <= 72.2\ngini = 0.375\nsamples = 4\nvalue = [3, 1]"] ;
1128 -> 1129 ;
1130 [label="gini = 0.0\nsamples = 1\nvalue = [0, 1]"] ;
1129 -> 1130 ;
1131 [label="gini = 0.0\nsamples = 3\nvalue = [3, 0]"] ;
1129 -> 1131 ;
1132 [label="X[11] <= 1.0\ngini = 0.278\nsamples = 12\nvalue = [2, 10]"] ;
1128 -> 1132 ;
1133 [label="gini = 0.0\nsamples = 9\nvalue = [0, 9]"] ;
1132 -> 1133 ;
1134 [label="X[12] <= 1.0\ngini = 0.444\nsamples = 3\nvalue = [2, 1]"] ;
1132 -> 1134 ;
1135 [label="gini = 0.0\nsamples = 2\nvalue = [2, 0]"] ;
1134 -> 1135 ;
1136 [label="gini = 0.0\nsamples = 1\nvalue = [0, 1]"] ;
1134 -> 1136 ;
1137 [label="X[3] <= 4099.225\ngini = 0.433\nsamples = 41\nvalue = [28, 13]"] ;
1127 -> 1137 ;
1138 [label="X[18] <= 2.5\ngini = 0.142\nsamples = 13\nvalue = [12, 1]"] ;
1137 -> 1138 ;
1139 [label="gini = 0.0\nsamples = 12\nvalue = [12, 0]"] ;
1138 -> 1139 ;
1140 [label="gini = 0.0\nsamples = 1\nvalue = [0, 1]"] ;
1138 -> 1140 ;
1141 [label="X[1] <= 55.5\ngini = 0.49\nsamples = 28\nvalue = [16, 12]"] ;
1137 -> 1141 ;
1142 [label="X[15] <= 1.0\ngini = 0.397\nsamples = 11\nvalue = [3, 8]"] ;
1141 -> 1142 ;
1143 [label="gini = 0.0\nsamples = 6\nvalue = [0, 6]"] ;
1142 -> 1143 ;
1144 [label="X[2] <= 90.95\ngini = 0.48\nsamples = 5\nvalue = [3, 2]"] ;
1142 -> 1144 ;
1145 [label="X[1] <= 51.5\ngini = 0.444\nsamples = 3\nvalue = [1, 2]"] ;
1144 -> 1145 ;
1146 [label="gini = 0.0\nsamples = 2\nvalue = [0, 2]"] ;
1145 -> 1146 ;
1147 [label="gini = 0.0\nsamples = 1\nvalue = [1, 0]"] ;
1145 -> 1147 ;
1148 [label="gini = 0.0\nsamples = 2\nvalue = [2, 0]"] ;
1144 -> 1148 ;
1149 [label="X[12] <= 1.0\ngini = 0.36\nsamples = 17\nvalue = [13, 4]"] ;
1141 -> 1149 ;
1150 [label="X[3] <= 5074.85\ngini = 0.5\nsamples = 8\nvalue = [4, 4]"] ;
1149 -> 1150 ;
1151 [label="gini = 0.0\nsamples = 3\nvalue = [3, 0]"] ;
1150 -> 1151 ;
1152 [label="X[2] <= 94.25\ngini = 0.32\nsamples = 5\nvalue = [1, 4]"] ;
1150 -> 1152 ;
1153 [label="gini = 0.0\nsamples = 4\nvalue = [0, 4]"] ;
1152 -> 1153 ;
1154 [label="gini = 0.0\nsamples = 1\nvalue = [1, 0]"] ;
1152 -> 1154 ;
1155 [label="gini = 0.0\nsamples = 9\nvalue = [9, 0]"] ;
1149 -> 1155 ;
1156 [label="X[4] <= 0.5\ngini = 0.5\nsamples = 150\nvalue = [77, 73]"] ;
1066 -> 1156 ;
1157 [label="X[13] <= 1.0\ngini = 0.469\nsamples = 72\nvalue = [45, 27]"] ;
1156 -> 1157 ;
1158 [label="X[3] <= 3136.8\ngini = 0.499\nsamples = 48\nvalue = [25, 23]"] ;
1157 -> 1158 ;
1159 [label="gini = 0.0\nsamples = 3\nvalue = [3, 0]"] ;
1158 -> 1159 ;
1160 [label="X[3] <= 3630.55\ngini = 0.5\nsamples = 45\nvalue = [22, 23]"] ;
1158 -> 1160 ;
1161 [label="X[1] <= 33.5\ngini = 0.375\nsamples = 12\nvalue = [3, 9]"] ;
1160 -> 1161 ;
1162 [label="X[1] <= 31.5\ngini = 0.5\nsamples = 6\nvalue = [3, 3]"] ;
1161 -> 1162 ;
1163 [label="gini = 0.0\nsamples = 2\nvalue = [0, 2]"] ;
1162 -> 1163 ;
1164 [label="X[5] <= 0.5\ngini = 0.375\nsamples = 4\nvalue = [3, 1]"] ;
1162 -> 1164 ;
1165 [label="gini = 0.0\nsamples = 3\nvalue = [3, 0]"] ;
1164 -> 1165 ;
1166 [label="gini = 0.0\nsamples = 1\nvalue = [0, 1]"] ;
1164 -> 1166 ;
1167 [label="gini = 0.0\nsamples = 6\nvalue = [0, 6]"] ;
1161 -> 1167 ;
1168 [label="X[3] <= 6771.2\ngini = 0.489\nsamples = 33\nvalue = [19, 14]"] ;
1160 -> 1168 ;
1169 [label="X[3] <= 6398.85\ngini = 0.475\nsamples = 31\nvalue = [19, 12]"] ;
1168 -> 1169 ;
1170 [label="X[3] <= 5076.475\ngini = 0.49\nsamples = 28\nvalue = [16, 12]"] ;
1169 -> 1170 ;
1171 [label="X[2] <= 96.2\ngini = 0.415\nsamples = 17\nvalue = [12, 5]"] ;
1170 -> 1171 ;
1172 [label="gini = 0.0\nsamples = 1\nvalue = [0, 1]"] ;
1171 -> 1172 ;
1173 [label="X[1] <= 42.5\ngini = 0.375\nsamples = 16\nvalue = [12, 4]"] ;
1171 -> 1173 ;
1174 [label="X[3] <= 4228.7\ngini = 0.48\nsamples = 10\nvalue = [6, 4]"] ;
1173 -> 1174 ;
1175 [label="X[1] <= 39.5\ngini = 0.375\nsamples = 8\nvalue = [6, 2]"] ;
1174 -> 1175 ;
1176 [label="X[5] <= 0.5\ngini = 0.48\nsamples = 5\nvalue = [3, 2]"] ;
1175 -> 1176 ;
1177 [label="X[1] <= 38.0\ngini = 0.375\nsamples = 4\nvalue = [3, 1]"] ;
1176 -> 1177 ;
1178 [label="gini = 0.0\nsamples = 2\nvalue = [2, 0]"] ;
1177 -> 1178 ;
1179 [label="X[3] <= 4015.225\ngini = 0.5\nsamples = 2\nvalue = [1, 1]"] ;
1177 -> 1179 ;
1180 [label="gini = 0.0\nsamples = 1\nvalue = [0, 1]"] ;
1179 -> 1180 ;
1181 [label="gini = 0.0\nsamples = 1\nvalue = [1, 0]"] ;
1179 -> 1181 ;
1182 [label="gini = 0.0\nsamples = 1\nvalue = [0, 1]"] ;
1176 -> 1182 ;
1183 [label="gini = 0.0\nsamples = 3\nvalue = [3, 0]"] ;
1175 -> 1183 ;
1184 [label="gini = 0.0\nsamples = 2\nvalue = [0, 2]"] ;
1174 -> 1184 ;
1185 [label="gini = 0.0\nsamples = 6\nvalue = [6, 0]"] ;
1173 -> 1185 ;
1186 [label="X[1] <= 54.0\ngini = 0.463\nsamples = 11\nvalue = [4, 7]"] ;
1170 -> 1186 ;
1187 [label="gini = 0.0\nsamples = 3\nvalue = [0, 3]"] ;
1186 -> 1187 ;
1188 [label="X[3] <= 5682.35\ngini = 0.5\nsamples = 8\nvalue = [4, 4]"] ;
1186 -> 1188 ;
1189 [label="gini = 0.0\nsamples = 2\nvalue = [2, 0]"] ;
1188 -> 1189 ;
1190 [label="X[17] <= 0.5\ngini = 0.444\nsamples = 6\nvalue = [2, 4]"] ;
1188 -> 1190 ;
1191 [label="gini = 0.0\nsamples = 1\nvalue = [1, 0]"] ;
1190 -> 1191 ;
1192 [label="X[12] <= 1.0\ngini = 0.32\nsamples = 5\nvalue = [1, 4]"] ;
1190 -> 1192 ;
1193 [label="X[2] <= 99.475\ngini = 0.5\nsamples = 2\nvalue = [1, 1]"] ;
1192 -> 1193 ;
1194 [label="gini = 0.0\nsamples = 1\nvalue = [0, 1]"] ;
1193 -> 1194 ;
1195 [label="gini = 0.0\nsamples = 1\nvalue = [1, 0]"] ;
1193 -> 1195 ;
1196 [label="gini = 0.0\nsamples = 3\nvalue = [0, 3]"] ;
1192 -> 1196 ;
1197 [label="gini = 0.0\nsamples = 3\nvalue = [3, 0]"] ;
1169 -> 1197 ;
1198 [label="gini = 0.0\nsamples = 2\nvalue = [0, 2]"] ;
1168 -> 1198 ;
1199 [label="X[1] <= 33.5\ngini = 0.278\nsamples = 24\nvalue = [20, 4]"] ;
1157 -> 1199 ;
1200 [label="X[1] <= 30.5\ngini = 0.5\nsamples = 4\nvalue = [2, 2]"] ;
1199 -> 1200 ;
1201 [label="gini = 0.0\nsamples = 2\nvalue = [2, 0]"] ;
1200 -> 1201 ;
1202 [label="gini = 0.0\nsamples = 2\nvalue = [0, 2]"] ;
1200 -> 1202 ;
1203 [label="X[17] <= 0.5\ngini = 0.18\nsamples = 20\nvalue = [18, 2]"] ;
1199 -> 1203 ;
1204 [label="X[5] <= 0.5\ngini = 0.5\nsamples = 2\nvalue = [1, 1]"] ;
1203 -> 1204 ;
1205 [label="gini = 0.0\nsamples = 1\nvalue = [0, 1]"] ;
1204 -> 1205 ;
1206 [label="gini = 0.0\nsamples = 1\nvalue = [1, 0]"] ;
1204 -> 1206 ;
1207 [label="X[2] <= 101.4\ngini = 0.105\nsamples = 18\nvalue = [17, 1]"] ;
1203 -> 1207 ;
1208 [label="X[2] <= 100.075\ngini = 0.278\nsamples = 6\nvalue = [5, 1]"] ;
1207 -> 1208 ;
1209 [label="gini = 0.0\nsamples = 5\nvalue = [5, 0]"] ;
1208 -> 1209 ;
1210 [label="gini = 0.0\nsamples = 1\nvalue = [0, 1]"] ;
1208 -> 1210 ;
1211 [label="gini = 0.0\nsamples = 12\nvalue = [12, 0]"] ;
1207 -> 1211 ;
1212 [label="X[1] <= 38.5\ngini = 0.484\nsamples = 78\nvalue = [32, 46]"] ;
1156 -> 1212 ;
1213 [label="X[2] <= 100.425\ngini = 0.484\nsamples = 17\nvalue = [10, 7]"] ;
1212 -> 1213 ;
1214 [label="X[18] <= 1.5\ngini = 0.408\nsamples = 7\nvalue = [2, 5]"] ;
1213 -> 1214 ;
1215 [label="X[12] <= 1.0\ngini = 0.444\nsamples = 3\nvalue = [2, 1]"] ;
1214 -> 1215 ;
1216 [label="gini = 0.0\nsamples = 2\nvalue = [2, 0]"] ;
1215 -> 1216 ;
1217 [label="gini = 0.0\nsamples = 1\nvalue = [0, 1]"] ;
1215 -> 1217 ;
1218 [label="gini = 0.0\nsamples = 4\nvalue = [0, 4]"] ;
1214 -> 1218 ;
1219 [label="X[5] <= 0.5\ngini = 0.32\nsamples = 10\nvalue = [8, 2]"] ;
1213 -> 1219 ;
1220 [label="X[3] <= 3544.95\ngini = 0.5\nsamples = 4\nvalue = [2, 2]"] ;
1219 -> 1220 ;
1221 [label="gini = 0.0\nsamples = 2\nvalue = [2, 0]"] ;
1220 -> 1221 ;
1222 [label="gini = 0.0\nsamples = 2\nvalue = [0, 2]"] ;
1220 -> 1222 ;
1223 [label="gini = 0.0\nsamples = 6\nvalue = [6, 0]"] ;
1219 -> 1223 ;
1224 [label="X[1] <= 44.5\ngini = 0.461\nsamples = 61\nvalue = [22, 39]"] ;
1212 -> 1224 ;
1225 [label="X[2] <= 100.425\ngini = 0.133\nsamples = 14\nvalue = [1, 13]"] ;
1224 -> 1225 ;
1226 [label="X[2] <= 99.875\ngini = 0.32\nsamples = 5\nvalue = [1, 4]"] ;
1225 -> 1226 ;
1227 [label="gini = 0.0\nsamples = 4\nvalue = [0, 4]"] ;
1226 -> 1227 ;
1228 [label="gini = 0.0\nsamples = 1\nvalue = [1, 0]"] ;
1226 -> 1228 ;
1229 [label="gini = 0.0\nsamples = 9\nvalue = [0, 9]"] ;
1225 -> 1229 ;
1230 [label="X[2] <= 99.25\ngini = 0.494\nsamples = 47\nvalue = [21, 26]"] ;
1224 -> 1230 ;
1231 [label="X[11] <= 1.0\ngini = 0.444\nsamples = 18\nvalue = [12, 6]"] ;
1230 -> 1231 ;
1232 [label="X[2] <= 98.775\ngini = 0.408\nsamples = 7\nvalue = [2, 5]"] ;
1231 -> 1232 ;
1233 [label="gini = 0.0\nsamples = 5\nvalue = [0, 5]"] ;
1232 -> 1233 ;
1234 [label="gini = 0.0\nsamples = 2\nvalue = [2, 0]"] ;
1232 -> 1234 ;
1235 [label="X[15] <= 1.0\ngini = 0.165\nsamples = 11\nvalue = [10, 1]"] ;
1231 -> 1235 ;
1236 [label="X[1] <= 58.0\ngini = 0.5\nsamples = 2\nvalue = [1, 1]"] ;
1235 -> 1236 ;
1237 [label="gini = 0.0\nsamples = 1\nvalue = [1, 0]"] ;
1236 -> 1237 ;
1238 [label="gini = 0.0\nsamples = 1\nvalue = [0, 1]"] ;
1236 -> 1238 ;
1239 [label="gini = 0.0\nsamples = 9\nvalue = [9, 0]"] ;
1235 -> 1239 ;
1240 [label="X[5] <= 0.5\ngini = 0.428\nsamples = 29\nvalue = [9, 20]"] ;
1230 -> 1240 ;
1241 [label="X[0] <= 0.5\ngini = 0.444\nsamples = 9\nvalue = [6, 3]"] ;
1240 -> 1241 ;
1242 [label="X[1] <= 58.5\ngini = 0.48\nsamples = 5\nvalue = [2, 3]"] ;
1241 -> 1242 ;
1243 [label="X[2] <= 103.675\ngini = 0.444\nsamples = 3\nvalue = [2, 1]"] ;
1242 -> 1243 ;
1244 [label="gini = 0.0\nsamples = 2\nvalue = [2, 0]"] ;
1243 -> 1244 ;
1245 [label="gini = 0.0\nsamples = 1\nvalue = [0, 1]"] ;
1243 -> 1245 ;
1246 [label="gini = 0.0\nsamples = 2\nvalue = [0, 2]"] ;
1242 -> 1246 ;
1247 [label="gini = 0.0\nsamples = 4\nvalue = [4, 0]"] ;
1241 -> 1247 ;
1248 [label="X[2] <= 107.55\ngini = 0.255\nsamples = 20\nvalue = [3, 17]"] ;
1240 -> 1248 ;
1249 [label="X[1] <= 48.0\ngini = 0.111\nsamples = 17\nvalue = [1, 16]"] ;
1248 -> 1249 ;
1250 [label="X[3] <= 5127.05\ngini = 0.375\nsamples = 4\nvalue = [1, 3]"] ;
1249 -> 1250 ;
1251 [label="gini = 0.0\nsamples = 3\nvalue = [0, 3]"] ;
1250 -> 1251 ;
1252 [label="gini = 0.0\nsamples = 1\nvalue = [1, 0]"] ;
1250 -> 1252 ;
1253 [label="gini = 0.0\nsamples = 13\nvalue = [0, 13]"] ;
1249 -> 1253 ;
1254 [label="X[2] <= 108.65\ngini = 0.444\nsamples = 3\nvalue = [2, 1]"] ;
1248 -> 1254 ;
1255 [label="gini = 0.0\nsamples = 1\nvalue = [1, 0]"] ;
1254 -> 1255 ;
1256 [label="X[3] <= 6128.35\ngini = 0.5\nsamples = 2\nvalue = [1, 1]"] ;
1254 -> 1256 ;
1257 [label="gini = 0.0\nsamples = 1\nvalue = [0, 1]"] ;
1256 -> 1257 ;
1258 [label="gini = 0.0\nsamples = 1\nvalue = [1, 0]"] ;
1256 -> 1258 ;
1259 [label="X[2] <= 91.45\ngini = 0.366\nsamples = 987\nvalue = [749, 238]"] ;
1 -> 1259 ;
1260 [label="X[1] <= 2.5\ngini = 0.333\nsamples = 839\nvalue = [662, 177]"] ;
1259 -> 1260 ;
1261 [label="X[17] <= 0.5\ngini = 0.442\nsamples = 203\nvalue = [136, 67]"] ;
1260 -> 1261 ;
1262 [label="X[0] <= 0.5\ngini = 0.371\nsamples = 130\nvalue = [98, 32]"] ;
1261 -> 1262 ;
1263 [label="X[3] <= 39.0\ngini = 0.354\nsamples = 126\nvalue = [97, 29]"] ;
1262 -> 1263 ;
1264 [label="X[2] <= 19.225\ngini = 0.398\nsamples = 95\nvalue = [69, 26]"] ;
1263 -> 1264 ;
1265 [label="gini = 0.0\nsamples = 8\nvalue = [8, 0]"] ;
1264 -> 1265 ;
1266 [label="X[2] <= 30.2\ngini = 0.419\nsamples = 87\nvalue = [61, 26]"] ;
1264 -> 1266 ;
1267 [label="X[18] <= 2.5\ngini = 0.412\nsamples = 86\nvalue = [61, 25]"] ;
1266 -> 1267 ;
1268 [label="X[18] <= 0.5\ngini = 0.278\nsamples = 24\nvalue = [20, 4]"] ;
1267 -> 1268 ;
1269 [label="X[6] <= 0.5\ngini = 0.444\nsamples = 6\nvalue = [4, 2]"] ;
1268 -> 1269 ;
1270 [label="X[3] <= 19.975\ngini = 0.32\nsamples = 5\nvalue = [4, 1]"] ;
1269 -> 1270 ;
1271 [label="gini = 0.0\nsamples = 2\nvalue = [2, 0]"] ;
1270 -> 1271 ;
1272 [label="X[3] <= 20.125\ngini = 0.444\nsamples = 3\nvalue = [2, 1]"] ;
1270 -> 1272 ;
1273 [label="gini = 0.0\nsamples = 1\nvalue = [0, 1]"] ;
1272 -> 1273 ;
