digraph Tree {
node [shape=box] ;
0 [label="X[16] <= 0.5\ngini = 0.395\nsamples = 5634\nvalue = [4108, 1526]"] ;
1 [label="X[10] <= 0.5\ngini = 0.491\nsamples = 3117\nvalue = [1767, 1350]"] ;
0 -> 1 [labeldistance=2.5, labelangle=45, headlabel="True"] ;
2 [label="X[1] <= 10.5\ngini = 0.499\nsamples = 2130\nvalue = [1018, 1112]"] ;
1 -> 2 ;
3 [label="X[9] <= 0.5\ngini = 0.457\nsamples = 1025\nvalue = [362, 663]"] ;
2 -> 3 ;
4 [label="X[3] <= 225.625\ngini = 0.5\nsamples = 394\nvalue = [200, 194]"] ;
3 -> 4 ;
5 [label="X[17] <= 0.5\ngini = 0.491\nsamples = 278\nvalue = [120, 158]"] ;
4 -> 5 ;
6 [label="X[2] <= 45.625\ngini = 0.499\nsamples = 120\nvalue = [63, 57]"] ;
5 -> 6 ;
7 [label="X[18] <= 2.5\ngini = 0.465\nsamples = 68\nvalue = [43, 25]"] ;
6 -> 7 ;
8 [label="X[3] <= 42.825\ngini = 0.497\nsamples = 41\nvalue = [22, 19]"] ;
7 -> 8 ;
9 [label="X[15] <= 1.0\ngini = 0.346\nsamples = 9\nvalue = [2, 7]"] ;
8 -> 9 ;
10 [label="X[18] <= 1.0\ngini = 0.219\nsamples = 8\nvalue = [1, 7]"] ;
9 -> 10 ;
11 [label="X[3] <= 25.025\ngini = 0.5\nsamples = 2\nvalue = [1, 1]"] ;
10 -> 11 ;
12 [label="gini = 0.0\nsamples = 1\nvalue = [0, 1]"] ;
11 -> 12 ;
13 [label="gini = 0.0\nsamples = 1\nvalue = [1, 0]"] ;
11 -> 13 ;
14 [label="gini = 0.0\nsamples = 6\nvalue = [0, 6]"] ;
10 -> 14 ;
15 [label="gini = 0.0\nsamples = 1\nvalue = [1, 0]"] ;
9 -> 15 ;
16 [label="X[3] <= 44.625\ngini = 0.469\nsamples = 32\nvalue = [20, 12]"] ;
8 -> 16 ;
17 [label="gini = 0.0\nsamples = 6\nvalue = [6, 0]"] ;
16 -> 17 ;
18 [label="X[3] <= 147.3\ngini = 0.497\nsamples = 26\nvalue = [14, 12]"] ;
16 -> 18 ;
19 [label="X[14] <= 1.0\ngini = 0.496\nsamples = 22\nvalue = [10, 12]"] ;
18 -> 19 ;
20 [label="X[3] <= 81.7\ngini = 0.5\nsamples = 20\nvalue = [10, 10]"] ;
19 -> 20 ;
21 [label="X[2] <= 24.625\ngini = 0.444\nsamples = 12\nvalue = [4, 8]"] ;
20 -> 21 ;
22 [label="gini = 0.0\nsamples = 1\nvalue = [1, 0]"] ;
21 -> 22 ;
23 [label="X[0] <= 0.5\ngini = 0.397\nsamples = 11\nvalue = [3, 8]"] ;
21 -> 23 ;
24 [label="X[2] <= 25.175\ngini = 0.219\nsamples = 8\nvalue = [1, 7]"] ;
23 -> 24 ;
25 [label="X[3] <= 73.375\ngini = 0.5\nsamples = 2\nvalue = [1, 1]"] ;
24 -> 25 ;
26 [label="gini = 0.0\nsamples = 1\nvalue = [0, 1]"] ;
25 -> 26 ;
27 [label="gini = 0.0\nsamples = 1\nvalue = [1, 0]"] ;
25 -> 27 ;
28 [label="gini = 0.0\nsamples = 6\nvalue = [0, 6]"] ;
24 -> 28 ;
29 [label="X[2] <= 45.15\ngini = 0.444\nsamples = 3\nvalue = [2, 1]"] ;
23 -> 29 ;
30 [label="gini = 0.0\nsamples = 1\nvalue = [0, 1]"] ;
29 -> 30 ;
31 [label="gini = 0.0\nsamples = 2\nvalue = [2, 0]"] ;
29 -> 31 ;
32 [label="X[1] <= 4.5\ngini = 0.375\nsamples = 8\nvalue = [6, 2]"] ;
20 -> 32 ;
33 [label="X[2] <= 44.975\ngini = 0.245\nsamples = 7\nvalue = [6, 1]"] ;
32 -> 33 ;
34 [label="gini = 0.0\nsamples = 5\nvalue = [5, 0]"] ;
33 -> 34 ;
35 [label="X[2] <= 45.45\ngini = 0.5\nsamples = 2\nvalue = [1, 1]"] ;
33 -> 35 ;
36 [label="gini = 0.0\nsamples = 1\nvalue = [0, 1]"] ;
35 -> 36 ;
37 [label="gini = 0.0\nsamples = 1\nvalue = [1, 0]"] ;
35 -> 37 ;
38 [label="gini = 0.0\nsamples = 1\nvalue = [0, 1]"] ;
32 -> 38 ;
39 [label="gini = 0.0\nsamples = 2\nvalue = [0, 2]"] ;
19 -> 39 ;
40 [label="gini = 0.0\nsamples = 4\nvalue = [4, 0]"] ;
18 -> 40 ;
41 [label="X[1] <= 6.5\ngini = 0.346\nsamples = 27\nvalue = [21, 6]"] ;
7 -> 41 ;
42 [label="X[0] <= 0.5\ngini = 0.311\nsamples = 26\nvalue = [21, 5]"] ;
41 -> 42 ;
43 [label="X[2] <= 42.3\ngini = 0.269\nsamples = 25\nvalue = [21, 4]"] ;
42 -> 43 ;
44 [label="X[3] <= 25.275\ngini = 0.133\nsamples = 14\nvalue = [13, 1]"] ;
43 -> 44 ;
45 [label="X[2] <= 24.8\ngini = 0.375\nsamples = 4\nvalue = [3, 1]"] ;
44 -> 45 ;
46 [label="gini = 0.0\nsamples = 3\nvalue = [3, 0]"] ;
45 -> 46 ;
47 [label="gini = 0.0\nsamples = 1\nvalue = [0, 1]"] ;
45 -> 47 ;
48 [label="gini = 0.0\nsamples = 10\nvalue = [10, 0]"] ;
44 -> 48 ;
49 [label="X[2] <= 44.425\ngini = 0.397\nsamples = 11\nvalue = [8, 3]"] ;
43 -> 49 ;
50 [label="gini = 0.0\nsamples = 2\nvalue = [0, 2]"] ;
49 -> 50 ;
51 [label="X[3] <= 45.1\ngini = 0.198\nsamples = 9\nvalue = [8, 1]"] ;
49 -> 51 ;
52 [label="X[2] <= 44.9\ngini = 0.444\nsamples = 3\nvalue = [2, 1]"] ;
51 -> 52 ;
53 [label="gini = 0.0\nsamples = 2\nvalue = [2, 0]"] ;
52 -> 53 ;
54 [label="gini = 0.0\nsamples = 1\nvalue = [0, 1]"] ;
52 -> 54 ;
55 [label="gini = 0.0\nsamples = 6\nvalue = [6, 0]"] ;
51 -> 55 ;
56 [label="gini = 0.0\nsamples = 1\nvalue = [0, 1]"] ;
42 -> 56 ;
57 [label="gini = 0.0\nsamples = 1\nvalue = [0, 1]"] ;
41 -> 57 ;
58 [label="X[2] <= 47.95\ngini = 0.473\nsamples = 52\nvalue = [20, 32]"] ;
6 -> 58 ;
59 [label="gini = 0.0\nsamples = 10\nvalue = [0, 10]"] ;
58 -> 59 ;
60 [label="X[2] <= 50.0\ngini = 0.499\nsamples = 42\nvalue = [20, 22]"] ;
58 -> 60 ;
61 [label="X[3] <= 48.975\ngini = 0.245\nsamples = 7\nvalue = [6, 1]"] ;
60 -> 61 ;
62 [label="gini = 0.0\nsamples = 1\nvalue = [0, 1]"] ;
61 -> 62 ;
63 [label="gini = 0.0\nsamples = 6\nvalue = [6, 0]"] ;
61 -> 63 ;
64 [label="X[2] <= 51.4\ngini = 0.48\nsamples = 35\nvalue = [14, 21]"] ;
60 -> 64 ;
65 [label="X[8] <= 1.0\ngini = 0.337\nsamples = 14\nvalue = [3, 11]"] ;
64 -> 65 ;
66 [label="gini = 0.0\nsamples = 9\nvalue = [0, 9]"] ;
65 -> 66 ;
67 [label="X[2] <= 50.625\ngini = 0.48\nsamples = 5\nvalue = [3, 2]"] ;
65 -> 67 ;
68 [label="X[18] <= 1.5\ngini = 0.444\nsamples = 3\nvalue = [1, 2]"] ;
67 -> 68 ;
69 [label="gini = 0.0\nsamples = 1\nvalue = [1, 0]"] ;
68 -> 69 ;
70 [label="gini = 0.0\nsamples = 2\nvalue = [0, 2]"] ;
68 -> 70 ;
71 [label="gini = 0.0\nsamples = 2\nvalue = [2, 0]"] ;
67 -> 71 ;
72 [label="X[3] <= 55.125\ngini = 0.499\nsamples = 21\nvalue = [11, 10]"] ;
64 -> 72 ;
73 [label="gini = 0.0\nsamples = 2\nvalue = [2, 0]"] ;
72 -> 73 ;
74 [label="X[3] <= 81.85\ngini = 0.499\nsamples = 19\nvalue = [9, 10]"] ;
72 -> 74 ;
75 [label="X[3] <= 57.375\ngini = 0.32\nsamples = 5\nvalue = [1, 4]"] ;
74 -> 75 ;
76 [label="X[2] <= 55.375\ngini = 0.5\nsamples = 2\nvalue = [1, 1]"] ;
75 -> 76 ;
77 [label="gini = 0.0\nsamples = 1\nvalue = [0, 1]"] ;
76 -> 77 ;
78 [label="gini = 0.0\nsamples = 1\nvalue = [1, 0]"] ;
76 -> 78 ;
79 [label="gini = 0.0\nsamples = 3\nvalue = [0, 3]"] ;
75 -> 79 ;
80 [label="X[3] <= 114.85\ngini = 0.49\nsamples = 14\nvalue = [8, 6]"] ;
74 -> 80 ;
81 [label="gini = 0.0\nsamples = 3\nvalue = [3, 0]"] ;
80 -> 81 ;
82 [label="X[3] <= 161.125\ngini = 0.496\nsamples = 11\nvalue = [5, 6]"] ;
80 -> 82 ;
83 [label="X[18] <= 1.5\ngini = 0.32\nsamples = 5\nvalue = [1, 4]"] ;
82 -> 83 ;
84 [label="X[2] <= 65.525\ngini = 0.5\nsamples = 2\nvalue = [1, 1]"] ;
83 -> 84 ;
85 [label="gini = 0.0\nsamples = 1\nvalue = [0, 1]"] ;
84 -> 85 ;
86 [label="gini = 0.0\nsamples = 1\nvalue = [1, 0]"] ;
84 -> 86 ;
87 [label="gini = 0.0\nsamples = 3\nvalue = [0, 3]"] ;
83 -> 87 ;
88 [label="X[2] <= 54.475\ngini = 0.444\nsamples = 6\nvalue = [4, 2]"] ;
82 -> 88 ;
89 [label="gini = 0.0\nsamples = 2\nvalue = [0, 2]"] ;
88 -> 89 ;
90 [label="gini = 0.0\nsamples = 4\nvalue = [4, 0]"] ;
88 -> 90 ;
91 [label="X[1] <= 6.5\ngini = 0.461\nsamples = 158\nvalue = [57, 101]"] ;
5 -> 91 ;
92 [label="X[7] <= 0.5\ngini = 0.451\nsamples = 154\nvalue = [53, 101]"] ;
91 -> 92 ;
93 [label="X[2] <= 40.1\ngini = 0.295\nsamples = 50\nvalue = [9, 41]"] ;
92 -> 93 ;
94 [label="X[2] <= 39.85\ngini = 0.349\nsamples = 40\nvalue = [9, 31]"] ;
93 -> 94 ;
95 [label="X[18] <= 1.5\ngini = 0.326\nsamples = 39\nvalue = [8, 31]"] ;
94 -> 95 ;
96 [label="X[1] <= 3.5\ngini = 0.5\nsamples = 4\nvalue = [2, 2]"] ;
95 -> 96 ;
97 [label="gini = 0.0\nsamples = 2\nvalue = [2, 0]"] ;
96 -> 97 ;
98 [label="gini = 0.0\nsamples = 2\nvalue = [0, 2]"] ;
96 -> 98 ;
99 [label="X[11] <= 1.0\ngini = 0.284\nsamples = 35\nvalue = [6, 29]"] ;
95 -> 99 ;
100 [label="X[3] <= 96.45\ngini = 0.225\nsamples = 31\nvalue = [4, 27]"] ;
99 -> 100 ;
101 [label="X[3] <= 25.175\ngini = 0.142\nsamples = 26\nvalue = [2, 24]"] ;
100 -> 101 ;
102 [label="X[6] <= 0.5\ngini = 0.346\nsamples = 9\nvalue = [2, 7]"] ;
101 -> 102 ;
103 [label="X[3] <= 25.125\ngini = 0.219\nsamples = 8\nvalue = [1, 7]"] ;
102 -> 103 ;
104 [label="gini = 0.0\nsamples = 6\nvalue = [0, 6]"] ;
103 -> 104 ;
105 [label="X[18] <= 2.5\ngini = 0.5\nsamples = 2\nvalue = [1, 1]"] ;
103 -> 105 ;
106 [label="gini = 0.0\nsamples = 1\nvalue = [0, 1]"] ;
105 -> 106 ;
107 [label="gini = 0.0\nsamples = 1\nvalue = [1, 0]"] ;
105 -> 107 ;
108 [label="gini = 0.0\nsamples = 1\nvalue = [1, 0]"] ;
102 -> 108 ;
109 [label="gini = 0.0\nsamples = 17\nvalue = [0, 17]"] ;
101 -> 109 ;
110 [label="X[3] <= 100.175\ngini = 0.48\nsamples = 5\nvalue = [2, 3]"] ;
100 -> 110 ;
111 [label="X[2] <= 32.45\ngini = 0.444\nsamples = 3\nvalue = [2, 1]"] ;
110 -> 111 ;
112 [label="gini = 0.0\nsamples = 2\nvalue = [2, 0]"] ;
111 -> 112 ;
113 [label="gini = 0.0\nsamples = 1\nvalue = [0, 1]"] ;
111 -> 113 ;
114 [label="gini = 0.0\nsamples = 2\nvalue = [0, 2]"] ;
110 -> 114 ;
115 [label="X[4] <= 0.5\ngini = 0.5\nsamples = 4\nvalue = [2, 2]"] ;
99 -> 115 ;
116 [label="gini = 0.0\nsamples = 2\nvalue = [2, 0]"] ;
115 -> 116 ;
117 [label="gini = 0.0\nsamples = 2\nvalue = [0, 2]"] ;
115 -> 117 ;
118 [label="gini = 0.0\nsamples = 1\nvalue = [1, 0]"] ;
94 -> 118 ;
119 [label="gini = 0.0\nsamples = 10\nvalue = [0, 10]"] ;
93 -> 119 ;
120 [label="X[2] <= 56.4\ngini = 0.488\nsamples = 104\nvalue = [44, 60]"] ;
92 -> 120 ;
121 [label="X[3] <= 45.05\ngini = 0.477\nsamples = 94\nvalue = [37, 57]"] ;
120 -> 121 ;
122 [label="X[3] <= 44.5\ngini = 0.48\nsamples = 15\nvalue = [9, 6]"] ;
121 -> 122 ;
123 [label="X[3] <= 44.075\ngini = 0.494\nsamples = 9\nvalue = [4, 5]"] ;
122 -> 123 ;
124 [label="X[2] <= 43.375\ngini = 0.375\nsamples = 4\nvalue = [3, 1]"] ;
123 -> 124 ;
125 [label="gini = 0.0\nsamples = 1\nvalue = [0, 1]"] ;
124 -> 125 ;
126 [label="gini = 0.0\nsamples = 3\nvalue = [3, 0]"] ;
124 -> 126 ;
127 [label="X[4] <= 0.5\ngini = 0.32\nsamples = 5\nvalue = [1, 4]"] ;
123 -> 127 ;
128 [label="gini = 0.0\nsamples = 3\nvalue = [0, 3]"] ;
127 -> 128 ;
129 [label="X[2] <= 44.225\ngini = 0.5\nsamples = 2\nvalue = [1, 1]"] ;
127 -> 129 ;
130 [label="gini = 0.0\nsamples = 1\nvalue = [0, 1]"] ;
129 -> 130 ;
131 [label="gini = 0.0\nsamples = 1\nvalue = [1, 0]"] ;
129 -> 131 ;
132 [label="X[18] <= 0.5\ngini = 0.278\nsamples = 6\nvalue = [5, 1]"] ;
122 -> 132 ;
133 [label="gini = 0.0\nsamples = 1\nvalue = [0, 1]"] ;
132 -> 133 ;
134 [label="gini = 0.0\nsamples = 5\nvalue = [5, 0]"] ;
132 -> 134 ;
135 [label="X[0] <= 0.5\ngini = 0.458\nsamples = 79\nvalue = [28, 51]"] ;
121 -> 135 ;
136 [label="X[13] <= 1.0\ngini = 0.468\nsamples = 75\nvalue = [28, 47]"] ;
135 -> 136 ;
137 [label="X[3] <= 94.6\ngini = 0.448\nsamples = 65\nvalue = [22, 43]"] ;
136 -> 137 ;
138 [label="X[3] <= 49.725\ngini = 0.488\nsamples = 45\nvalue = [19, 26]"] ;
137 -> 138 ;
139 [label="X[18] <= 2.5\ngini = 0.337\nsamples = 14\nvalue = [3, 11]"] ;
138 -> 139 ;
140 [label="gini = 0.0\nsamples = 6\nvalue = [0, 6]"] ;
139 -> 140 ;
141 [label="X[3] <= 45.625\ngini = 0.469\nsamples = 8\nvalue = [3, 5]"] ;
139 -> 141 ;
142 [label="X[3] <= 45.475\ngini = 0.444\nsamples = 3\nvalue = [2, 1]"] ;
141 -> 142 ;
143 [label="gini = 0.5\nsamples = 2\nvalue = [1, 1]"] ;
142 -> 143 ;
144 [label="gini = 0.0\nsamples = 1\nvalue = [1, 0]"] ;
142 -> 144 ;
145 [label="X[2] <= 45.75\ngini = 0.32\nsamples = 5\nvalue = [1, 4]"] ;
141 -> 145 ;
146 [label="gini = 0.0\nsamples = 2\nvalue = [0, 2]"] ;
145 -> 146 ;
147 [label="X[2] <= 45.825\ngini = 0.444\nsamples = 3\nvalue = [1, 2]"] ;
145 -> 147 ;
148 [label="gini = 0.0\nsamples = 1\nvalue = [1, 0]"] ;
147 -> 148 ;
149 [label="gini = 0.0\nsamples = 2\nvalue = [0, 2]"] ;
147 -> 149 ;
150 [label="X[2] <= 50.375\ngini = 0.499\nsamples = 31\nvalue = [16, 15]"] ;
138 -> 150 ;
151 [label="X[18] <= 1.5\ngini = 0.375\nsamples = 16\nvalue = [12, 4]"] ;
150 -> 151 ;
152 [label="X[2] <= 46.3\ngini = 0.48\nsamples = 5\nvalue = [2, 3]"] ;
151 -> 152 ;
153 [label="gini = 0.0\nsamples = 2\nvalue = [0, 2]"] ;
152 -> 153 ;
154 [label="X[11] <= 1.0\ngini = 0.444\nsamples = 3\nvalue = [2, 1]"] ;
152 -> 154 ;
155 [label="gini = 0.0\nsamples = 2\nvalue = [2, 0]"] ;
154 -> 155 ;
156 [label="gini = 0.0\nsamples = 1\nvalue = [0, 1]"] ;
154 -> 156 ;
157 [label="X[8] <= 1.0\ngini = 0.165\nsamples = 11\nvalue = [10, 1]"] ;
151 -> 157 ;
158 [label="gini = 0.0\nsamples = 8\nvalue = [8, 0]"] ;
157 -> 158 ;
159 [label="X[18] <= 2.5\ngini = 0.444\nsamples = 3\nvalue = [2, 1]"] ;
157 -> 159 ;
160 [label="gini = 0.0\nsamples = 2\nvalue = [2, 0]"] ;
159 -> 160 ;
161 [label="gini = 0.0\nsamples = 1\nvalue = [0, 1]"] ;
159 -> 161 ;
162 [label="X[2] <= 54.1\ngini = 0.391\nsamples = 15\nvalue = [4, 11]"] ;
150 -> 162 ;
163 [label="gini = 0.0\nsamples = 6\nvalue = [0, 6]"] ;
162 -> 163 ;
164 [label="X[14] <= 1.0\ngini = 0.494\nsamples = 9\nvalue = [4, 5]"] ;
162 -> 164 ;
165 [label="X[2] <= 55.125\ngini = 0.408\nsamples = 7\nvalue = [2, 5]"] ;
164 -> 165 ;
166 [label="gini = 0.0\nsamples = 2\nvalue = [0, 2]"] ;
165 -> 166 ;
167 [label="X[3] <= 55.575\ngini = 0.48\nsamples = 5\nvalue = [2, 3]"] ;
165 -> 167 ;
168 [label="X[2] <= 55.325\ngini = 0.444\nsamples = 3\nvalue = [2, 1]"] ;
167 -> 168 ;
169 [label="gini = 0.0\nsamples = 1\nvalue = [1, 0]"] ;
168 -> 169 ;
170 [label="X[2] <= 55.425\ngini = 0.5\nsamples = 2\nvalue = [1, 1]"] ;
168 -> 170 ;
171 [label="gini = 0.0\nsamples = 1\nvalue = [0, 1]"] ;
170 -> 171 ;
172 [label="gini = 0.0\nsamples = 1\nvalue = [1, 0]"] ;
170 -> 172 ;
173 [label="gini = 0.0\nsamples = 2\nvalue = [0, 2]"] ;
167 -> 173 ;
174 [label="gini = 0.0\nsamples = 2\nvalue = [2, 0]"] ;
164 -> 174 ;
175 [label="X[18] <= 1.5\ngini = 0.255\nsamples = 20\nvalue = [3, 17]"] ;
137 -> 175 ;
176 [label="X[14] <= 1.0\ngini = 0.444\nsamples = 3\nvalue = [2, 1]"] ;
175 -> 176 ;
177 [label="gini = 0.0\nsamples = 2\nvalue = [2, 0]"] ;
176 -> 177 ;
178 [label="gini = 0.0\nsamples = 1\nvalue = [0, 1]"] ;
176 -> 178 ;
179 [label="X[5] <= 0.5\ngini = 0.111\nsamples = 17\nvalue = [1, 16]"] ;
175 -> 179 ;
180 [label="gini = 0.0\nsamples = 13\nvalue = [0, 13]"] ;
179 -> 180 ;
181 [label="X[2] <= 48.125\ngini = 0.375\nsamples = 4\nvalue = [1, 3]"] ;
179 -> 181 ;
182 [label="gini = 0.0\nsamples = 1\nvalue = [1, 0]"] ;
181 -> 182 ;
183 [label="gini = 0.0\nsamples = 3\nvalue = [0, 3]"] ;
181 -> 183 ;
184 [label="X[18] <= 2.5\ngini = 0.48\nsamples = 10\nvalue = [6, 4]"] ;
136 -> 184 ;
185 [label="X[3] <= 50.35\ngini = 0.48\nsamples = 5\nvalue = [2, 3]"] ;
184 -> 185 ;
186 [label="gini = 0.0\nsamples = 2\nvalue = [2, 0]"] ;
185 -> 186 ;
187 [label="gini = 0.0\nsamples = 3\nvalue = [0, 3]"] ;
185 -> 187 ;
188 [label="X[3] <= 83.475\ngini = 0.32\nsamples = 5\nvalue = [4, 1]"] ;
184 -> 188 ;
189 [label="gini = 0.0\nsamples = 1\nvalue = [0, 1]"] ;
188 -> 189 ;
190 [label="gini = 0.0\nsamples = 4\nvalue = [4, 0]"] ;
188 -> 190 ;
191 [label="gini = 0.0\nsamples = 4\nvalue = [0, 4]"] ;
135 -> 191 ;
192 [label="X[11] <= 1.0\ngini = 0.42\nsamples = 10\nvalue = [7, 3]"] ;
120 -> 192 ;
193 [label="X[18] <= 2.5\ngini = 0.49\nsamples = 7\nvalue = [4, 3]"] ;
192 -> 193 ;
194 [label="X[2] <= 72.425\ngini = 0.48\nsamples = 5\nvalue = [2, 3]"] ;
193 -> 194 ;
195 [label="X[15] <= 1.0\ngini = 0.375\nsamples = 4\nvalue = [1, 3]"] ;
194 -> 195 ;
196 [label="X[3] <= 163.075\ngini = 0.5\nsamples = 2\nvalue = [1, 1]"] ;
195 -> 196 ;
197 [label="gini = 0.0\nsamples = 1\nvalue = [0, 1]"] ;
196 -> 197 ;
198 [label="gini = 0.0\nsamples = 1\nvalue = [1, 0]"] ;
196 -> 198 ;
199 [label="gini = 0.0\nsamples = 2\nvalue = [0, 2]"] ;
195 -> 199 ;
200 [label="gini = 0.0\nsamples = 1\nvalue = [1, 0]"] ;
194 -> 200 ;
201 [label="gini = 0.0\nsamples = 2\nvalue = [2, 0]"] ;
193 -> 201 ;
202 [label="gini = 0.0\nsamples = 3\nvalue = [3, 0]"] ;
192 -> 202 ;
203 [label="gini = 0.0\nsamples = 4\nvalue = [4, 0]"] ;
91 -> 203 ;
204 [label="X[2] <= 67.875\ngini = 0.428\nsamples = 116\nvalue = [80, 36]"] ;
4 -> 204 ;
205 [label="X[2] <= 51.1\ngini = 0.4\nsamples = 105\nvalue = [76, 29]"] ;
204 -> 205 ;
206 [label="X[3] <= 309.325\ngini = 0.481\nsamples = 57\nvalue = [34, 23]"] ;
205 -> 206 ;
207 [label="X[3] <= 236.225\ngini = 0.497\nsamples = 26\nvalue = [12, 14]"] ;
206 -> 207 ;
208 [label="gini = 0.0\nsamples = 3\nvalue = [3, 0]"] ;
207 -> 208 ;
209 [label="X[17] <= 0.5\ngini = 0.476\nsamples = 23\nvalue = [9, 14]"] ;
207 -> 209 ;
210 [label="X[3] <= 273.725\ngini = 0.48\nsamples = 10\nvalue = [6, 4]"] ;
209 -> 210 ;
211 [label="X[11] <= 1.0\ngini = 0.32\nsamples = 5\nvalue = [1, 4]"] ;
210 -> 211 ;
212 [label="gini = 0.0\nsamples = 4\nvalue = [0, 4]"] ;
211 -> 212 ;
213 [label="gini = 0.0\nsamples = 1\nvalue = [1, 0]"] ;
211 -> 213 ;
214 [label="gini = 0.0\nsamples = 5\nvalue = [5, 0]"] ;
210 -> 214 ;
215 [label="X[6] <= 0.5\ngini = 0.355\nsamples = 13\nvalue = [3, 10]"] ;
209 -> 215 ;
216 [label="X[3] <= 265.2\ngini = 0.18\nsamples = 10\nvalue = [1, 9]"] ;
215 -> 216 ;
217 [label="X[15] <= 1.0\ngini = 0.5\nsamples = 2\nvalue = [1, 1]"] ;
216 -> 217 ;
218 [label="gini = 0.0\nsamples = 1\nvalue = [0, 1]"] ;
217 -> 218 ;
219 [label="gini = 0.0\nsamples = 1\nvalue = [1, 0]"] ;
217 -> 219 ;
220 [label="gini = 0.0\nsamples = 8\nvalue = [0, 8]"] ;
216 -> 220 ;
221 [label="X[13] <= 1.0\ngini = 0.444\nsamples = 3\nvalue = [2, 1]"] ;
215 -> 221 ;
222 [label="gini = 0.0\nsamples = 1\nvalue = [0, 1]"] ;
221 -> 222 ;
223 [label="gini = 0.0\nsamples = 2\nvalue = [2, 0]"] ;
221 -> 223 ;
224 [label="X[14] <= 1.0\ngini = 0.412\nsamples = 31\nvalue = [22, 9]"] ;
206 -> 224 ;
225 [label="X[2] <= 48.75\ngini = 0.366\nsamples = 29\nvalue = [22, 7]"] ;
224 -> 225 ;
226 [label="X[2] <= 44.8\ngini = 0.444\nsamples = 21\nvalue = [14, 7]"] ;
225 -> 226 ;
227 [label="X[2] <= 35.225\ngini = 0.153\nsamples = 12\nvalue = [11, 1]"] ;
226 -> 227 ;
228 [label="X[2] <= 34.625\ngini = 0.5\nsamples = 2\nvalue = [1, 1]"] ;
227 -> 228 ;
229 [label="gini = 0.0\nsamples = 1\nvalue = [1, 0]"] ;
228 -> 229 ;
230 [label="gini = 0.0\nsamples = 1\nvalue = [0, 1]"] ;
228 -> 230 ;
231 [label="gini = 0.0\nsamples = 10\nvalue = [10, 0]"] ;
227 -> 231 ;
232 [label="X[2] <= 45.2\ngini = 0.444\nsamples = 9\nvalue = [3, 6]"] ;
226 -> 232 ;
233 [label="gini = 0.0\nsamples = 4\nvalue = [0, 4]"] ;
232 -> 233 ;
234 [label="X[18] <= 2.5\ngini = 0.48\nsamples = 5\nvalue = [3, 2]"] ;
232 -> 234 ;
235 [label="X[18] <= 1.5\ngini = 0.444\nsamples = 3\nvalue = [1, 2]"] ;
234 -> 235 ;
236 [label="gini = 0.0\nsamples = 1\nvalue = [1, 0]"] ;
235 -> 236 ;
237 [label="gini = 0.0\nsamples = 2\nvalue = [0, 2]"] ;
235 -> 237 ;
238 [label="gini = 0.0\nsamples = 2\nvalue = [2, 0]"] ;
234 -> 238 ;
239 [label="gini = 0.0\nsamples = 8\nvalue = [8, 0]"] ;
225 -> 239 ;
240 [label="gini = 0.0\nsamples = 2\nvalue = [0, 2]"] ;
224 -> 240 ;
241 [label="X[6] <= 0.5\ngini = 0.219\nsamples = 48\nvalue = [42, 6]"] ;
205 -> 241 ;
242 [label="X[18] <= 2.5\ngini = 0.105\nsamples = 36\nvalue = [34, 2]"] ;
241 -> 242 ;
243 [label="gini = 0.0\nsamples = 26\nvalue = [26, 0]"] ;
242 -> 243 ;
244 [label="X[2] <= 65.9\ngini = 0.32\nsamples = 10\nvalue = [8, 2]"] ;
242 -> 244 ;
245 [label="X[13] <= 1.0\ngini = 0.198\nsamples = 9\nvalue = [8, 1]"] ;
244 -> 245 ;
246 [label="gini = 0.0\nsamples = 6\nvalue = [6, 0]"] ;
245 -> 246 ;
247 [label="X[1] <= 5.5\ngini = 0.444\nsamples = 3\nvalue = [2, 1]"] ;
245 -> 247 ;
248 [label="gini = 0.0\nsamples = 2\nvalue = [2, 0]"] ;
247 -> 248 ;
249 [label="gini = 0.0\nsamples = 1\nvalue = [0, 1]"] ;
247 -> 249 ;
250 [label="gini = 0.0\nsamples = 1\nvalue = [0, 1]"] ;
244 -> 250 ;
251 [label="X[1] <= 4.5\ngini = 0.444\nsamples = 12\nvalue = [8, 4]"] ;
241 -> 251 ;
252 [label="gini = 0.0\nsamples = 2\nvalue = [0, 2]"] ;
251 -> 252 ;
253 [label="X[5] <= 0.5\ngini = 0.32\nsamples = 10\nvalue = [8, 2]"] ;
251 -> 253 ;
254 [label="gini = 0.0\nsamples = 1\nvalue = [0, 1]"] ;
253 -> 254 ;
255 [label="X[18] <= 1.5\ngini = 0.198\nsamples = 9\nvalue = [8, 1]"] ;
253 -> 255 ;
256 [label="X[1] <= 9.0\ngini = 0.5\nsamples = 2\nvalue = [1, 1]"] ;
255 -> 256 ;
257 [label="gini = 0.0\nsamples = 1\nvalue = [1, 0]"] ;
256 -> 257 ;
258 [label="gini = 0.0\nsamples = 1\nvalue = [0, 1]"] ;
256 -> 258 ;
259 [label="gini = 0.0\nsamples = 7\nvalue = [7, 0]"] ;
255 -> 259 ;
260 [label="X[1] <= 3.5\ngini = 0.463\nsamples = 11\nvalue = [4, 7]"] ;
204 -> 260 ;
261 [label="gini = 0.0\nsamples = 2\nvalue = [2, 0]"] ;
260 -> 261 ;
262 [label="X[2] <= 74.9\ngini = 0.346\nsamples = 9\nvalue = [2, 7]"] ;
260 -> 262 ;
263 [label="X[18] <= 2.5\ngini = 0.219\nsamples = 8\nvalue = [1, 7]"] ;
262 -> 263 ;
264 [label="gini = 0.0\nsamples = 6\nvalue = [0, 6]"] ;
263 -> 264 ;
265 [label="X[4] <= 0.5\ngini = 0.5\nsamples = 2\nvalue = [1, 1]"] ;
263 -> 265 ;
266 [label="gini = 0.0\nsamples = 1\nvalue = [0, 1]"] ;
265 -> 266 ;
267 [label="gini = 0.0\nsamples = 1\nvalue = [1, 0]"] ;
265 -> 267 ;
268 [label="gini = 0.0\nsamples = 1\nvalue = [1, 0]"] ;
262 -> 268 ;
269 [label="X[3] <= 120.0\ngini = 0.382\nsamples = 631\nvalue = [162, 469]"] ;
3 -> 269 ;
270 [label="X[13] <= 1.0\ngini = 0.218\nsamples = 185\nvalue = [23, 162]"] ;
269 -> 270 ;
271 [label="X[2] <= 69.875\ngini = 0.191\nsamples = 178\nvalue = [19, 159]"] ;
270 -> 271 ;
272 [label="gini = 0.0\nsamples = 33\nvalue = [0, 33]"] ;
271 -> 272 ;
273 [label="X[2] <= 71.3\ngini = 0.228\nsamples = 145\nvalue = [19, 126]"] ;
271 -> 273 ;
274 [label="X[18] <= 1.5\ngini = 0.375\nsamples = 40\nvalue = [10, 30]"] ;
273 -> 274 ;
275 [label="gini = 0.0\nsamples = 1\nvalue = [1, 0]"] ;
274 -> 275 ;
276 [label="X[2] <= 71.2\ngini = 0.355\nsamples = 39\nvalue = [9, 30]"] ;
274 -> 276 ;
277 [label="X[5] <= 0.5\ngini = 0.332\nsamples = 38\nvalue = [8, 30]"] ;
276 -> 277 ;
278 [label="X[4] <= 0.5\ngini = 0.375\nsamples = 32\nvalue = [8, 24]"] ;
277 -> 278 ;
279 [label="X[17] <= 0.5\ngini = 0.308\nsamples = 21\nvalue = [4, 17]"] ;
278 -> 279 ;
280 [label="X[3] <= 70.3\ngini = 0.48\nsamples = 5\nvalue = [2, 3]"] ;
279 -> 280 ;
281 [label="gini = 0.0\nsamples = 1\nvalue = [1, 0]"] ;
280 -> 281 ;
282 [label="X[2] <= 71.0\ngini = 0.375\nsamples = 4\nvalue = [1, 3]"] ;
280 -> 282 ;
283 [label="gini = 0.0\nsamples = 2\nvalue = [0, 2]"] ;
282 -> 283 ;
284 [label="gini = 0.5\nsamples = 2\nvalue = [1, 1]"] ;
282 -> 284 ;
285 [label="X[3] <= 70.175\ngini = 0.219\nsamples = 16\nvalue = [2, 14]"] ;
279 -> 285 ;
286 [label="gini = 0.0\nsamples = 7\nvalue = [0, 7]"] ;
285 -> 286 ;
287 [label="X[18] <= 2.5\ngini = 0.346\nsamples = 9\nvalue = [2, 7]"] ;
285 -> 287 ;
288 [label="X[3] <= 70.225\ngini = 0.219\nsamples = 8\nvalue = [1, 7]"] ;
287 -> 288 ;
289 [label="gini = 0.0\nsamples = 1\nvalue = [1, 0]"] ;
288 -> 289 ;
290 [label="gini = 0.0\nsamples = 7\nvalue = [0, 7]"] ;
288 -> 290 ;
291 [label="gini = 0.0\nsamples = 1\nvalue = [1, 0]"] ;
287 -> 291 ;
292 [label="X[17] <= 0.5\ngini = 0.463\nsamples = 11\nvalue = [4, 7]"] ;
278 -> 292 ;
293 [label="gini = 0.0\nsamples = 3\nvalue = [0, 3]"] ;
292 -> 293 ;
294 [label="X[3] <= 70.525\ngini = 0.5\nsamples = 8\nvalue = [4, 4]"] ;
292 -> 294 ;
295 [label="X[0] <= 0.5\ngini = 0.49\nsamples = 7\nvalue = [3, 4]"] ;
294 -> 295 ;
296 [label="X[18] <= 2.5\ngini = 0.444\nsamples = 6\nvalue = [2, 4]"] ;
295 -> 296 ;
297 [label="X[2] <= 70.325\ngini = 0.48\nsamples = 5\nvalue = [2, 3]"] ;
296 -> 297 ;
298 [label="X[3] <= 70.1\ngini = 0.375\nsamples = 4\nvalue = [1, 3]"] ;
297 -> 298 ;
299 [label="gini = 0.444\nsamples = 3\nvalue = [1, 2]"] ;
298 -> 299 ;
300 [label="gini = 0.0\nsamples = 1\nvalue = [0, 1]"] ;
298 -> 300 ;
301 [label="gini = 0.0\nsamples = 1\nvalue = [1, 0]"] ;
297 -> 301 ;
302 [label="gini = 0.0\nsamples = 1\nvalue = [0, 1]"] ;
296 -> 302 ;
303 [label="gini = 0.0\nsamples = 1\nvalue = [1, 0]"] ;
295 -> 303 ;
304 [label="gini = 0.0\nsamples = 1\nvalue = [1, 0]"] ;
294 -> 304 ;
305 [label="gini = 0.0\nsamples = 6\nvalue = [0, 6]"] ;
277 -> 305 ;
306 [label="gini = 0.0\nsamples = 1\nvalue = [1, 0]"] ;
276 -> 306 ;
307 [label="X[4] <= 0.5\ngini = 0.157\nsamples = 105\nvalue = [9, 96]"] ;
273 -> 307 ;
308 [label="X[6] <= 0.5\ngini = 0.075\nsamples = 51\nvalue = [2, 49]"] ;
307 -> 308 ;
309 [label="X[18] <= 2.5\ngini = 0.043\nsamples = 46\nvalue = [1, 45]"] ;
308 -> 309 ;
310 [label="gini = 0.0\nsamples = 39\nvalue = [0, 39]"] ;
309 -> 310 ;
311 [label="X[11] <= 1.0\ngini = 0.245\nsamples = 7\nvalue = [1, 6]"] ;
309 -> 311 ;
312 [label="gini = 0.0\nsamples = 5\nvalue = [0, 5]"] ;
311 -> 312 ;
313 [label="X[2] <= 79.675\ngini = 0.5\nsamples = 2\nvalue = [1, 1]"] ;
311 -> 313 ;
314 [label="gini = 0.0\nsamples = 1\nvalue = [1, 0]"] ;
313 -> 314 ;
315 [label="gini = 0.0\nsamples = 1\nvalue = [0, 1]"] ;
313 -> 315 ;
316 [label="X[3] <= 84.7\ngini = 0.32\nsamples = 5\nvalue = [1, 4]"] ;
308 -> 316 ;
317 [label="gini = 0.0\nsamples = 4\nvalue = [0, 4]"] ;
316 -> 317 ;
318 [label="gini = 0.0\nsamples = 1\nvalue = [1, 0]"] ;
316 -> 318 ;
319 [label="X[18] <= 1.5\ngini = 0.226\nsamples = 54\nvalue = [7, 47]"] ;
307 -> 319 ;
320 [label="X[17] <= 0.5\ngini = 0.5\nsamples = 4\nvalue = [2, 2]"] ;
319 -> 320 ;
321 [label="gini = 0.0\nsamples = 2\nvalue = [2, 0]"] ;
320 -> 321 ;
322 [label="gini = 0.0\nsamples = 2\nvalue = [0, 2]"] ;
320 -> 322 ;
323 [label="X[11] <= 1.0\ngini = 0.18\nsamples = 50\nvalue = [5, 45]"] ;
319 -> 323 ;
324 [label="X[2] <= 75.2\ngini = 0.156\nsamples = 47\nvalue = [4, 43]"] ;
323 -> 324 ;
325 [label="X[2] <= 75.0\ngini = 0.278\nsamples = 12\nvalue = [2, 10]"] ;
324 -> 325 ;
326 [label="X[17] <= 0.5\ngini = 0.165\nsamples = 11\nvalue = [1, 10]"] ;
325 -> 326 ;
327 [label="gini = 0.0\nsamples = 1\nvalue = [1, 0]"] ;
326 -> 327 ;
328 [label="gini = 0.0\nsamples = 10\nvalue = [0, 10]"] ;
326 -> 328 ;
329 [label="gini = 0.0\nsamples = 1\nvalue = [1, 0]"] ;
325 -> 329 ;
330 [label="X[2] <= 80.525\ngini = 0.108\nsamples = 35\nvalue = [2, 33]"] ;
324 -> 330 ;
331 [label="gini = 0.0\nsamples = 15\nvalue = [0, 15]"] ;
330 -> 331 ;
332 [label="X[3] <= 80.675\ngini = 0.18\nsamples = 20\nvalue = [2, 18]"] ;
330 -> 332 ;
333 [label="X[5] <= 0.5\ngini = 0.5\nsamples = 2\nvalue = [1, 1]"] ;
332 -> 333 ;
334 [label="gini = 0.0\nsamples = 1\nvalue = [1, 0]"] ;
333 -> 334 ;
335 [label="gini = 0.0\nsamples = 1\nvalue = [0, 1]"] ;
333 -> 335 ;
336 [label="X[8] <= 1.0\ngini = 0.105\nsamples = 18\nvalue = [1, 17]"] ;
332 -> 336 ;
337 [label="X[3] <= 89.2\ngini = 0.198\nsamples = 9\nvalue = [1, 8]"] ;
336 -> 337 ;
338 [label="gini = 0.0\nsamples = 5\nvalue = [0, 5]"] ;
337 -> 338 ;
339 [label="X[2] <= 89.4\ngini = 0.375\nsamples = 4\nvalue = [1, 3]"] ;
337 -> 339 ;
340 [label="gini = 0.0\nsamples = 1\nvalue = [1, 0]"] ;
339 -> 340 ;
341 [label="gini = 0.0\nsamples = 3\nvalue = [0, 3]"] ;
339 -> 341 ;
342 [label="gini = 0.0\nsamples = 9\nvalue = [0, 9]"] ;
336 -> 342 ;
343 [label="X[15] <= 1.0\ngini = 0.444\nsamples = 3\nvalue = [1, 2]"] ;
323 -> 343 ;
344 [label="gini = 0.0\nsamples = 2\nvalue = [0, 2]"] ;
343 -> 344 ;
345 [label="gini = 0.0\nsamples = 1\nvalue = [1, 0]"] ;
343 -> 345 ;
346 [label="X[2] <= 75.3\ngini = 0.49\nsamples = 7\nvalue = [4, 3]"] ;
270 -> 346 ;
347 [label="gini = 0.0\nsamples = 3\nvalue = [3, 0]"] ;
346 -> 347 ;
348 [label="X[15] <= 1.0\ngini = 0.375\nsamples = 4\nvalue = [1, 3]"] ;
346 -> 348 ;
349 [label="gini = 0.0\nsamples = 3\nvalue = [0, 3]"] ;
348 -> 349 ;
350 [label="gini = 0.0\nsamples = 1\nvalue = [1, 0]"] ;
348 -> 350 ;
351 [label="X[2] <= 75.7\ngini = 0.429\nsamples = 446\nvalue = [139, 307]"] ;
269 -> 351 ;
352 [label="X[8] <= 1.0\ngini = 0.498\nsamples = 134\nvalue = [63, 71]"] ;
351 -> 352 ;
353 [label="X[3] <= 658.575\ngini = 0.496\nsamples = 90\nvalue = [49, 41]"] ;
352 -> 353 ;
354 [label="X[3] <= 561.775\ngini = 0.488\nsamples = 85\nvalue = [49, 36]"] ;
353 -> 354 ;
355 [label="X[11] <= 1.0\ngini = 0.496\nsamples = 79\nvalue = [43, 36]"] ;
354 -> 355 ;
356 [label="X[3] <= 522.475\ngini = 0.5\nsamples = 71\nvalue = [36, 35]"] ;
355 -> 356 ;
357 [label="X[18] <= 0.5\ngini = 0.497\nsamples = 67\nvalue = [36, 31]"] ;
356 -> 357 ;
358 [label="X[1] <= 5.5\ngini = 0.375\nsamples = 8\nvalue = [2, 6]"] ;
357 -> 358 ;
359 [label="gini = 0.0\nsamples = 5\nvalue = [0, 5]"] ;
358 -> 359 ;
360 [label="X[12] <= 1.0\ngini = 0.444\nsamples = 3\nvalue = [2, 1]"] ;
358 -> 360 ;
361 [label="gini = 0.0\nsamples = 2\nvalue = [2, 0]"] ;
360 -> 361 ;
362 [label="gini = 0.0\nsamples = 1\nvalue = [0, 1]"] ;
360 -> 362 ;
363 [label="X[3] <= 309.75\ngini = 0.488\nsamples = 59\nvalue = [34, 25]"] ;
357 -> 363 ;
364 [label="X[2] <= 70.375\ngini = 0.444\nsamples = 39\nvalue = [26, 13]"] ;
363 -> 364 ;
365 [label="X[5] <= 0.5\ngini = 0.33\nsamples = 24\nvalue = [19, 5]"] ;
364 -> 365 ;
366 [label="X[3] <= 265.0\ngini = 0.43\nsamples = 16\nvalue = [11, 5]"] ;
365 -> 366 ;
367 [label="X[0] <= 0.5\ngini = 0.391\nsamples = 15\nvalue = [11, 4]"] ;
366 -> 367 ;
368 [label="X[3] <= 233.825\ngini = 0.278\nsamples = 12\nvalue = [10, 2]"] ;
367 -> 368 ;
369 [label="X[2] <= 69.675\ngini = 0.165\nsamples = 11\nvalue = [10, 1]"] ;
368 -> 369 ;
370 [label="X[3] <= 176.275\ngini = 0.5\nsamples = 2\nvalue = [1, 1]"] ;
369 -> 370 ;
371 [label="gini = 0.0\nsamples = 1\nvalue = [0, 1]"] ;
370 -> 371 ;
372 [label="gini = 0.0\nsamples = 1\nvalue = [1, 0]"] ;
370 -> 372 ;
373 [label="gini = 0.0\nsamples = 9\nvalue = [9, 0]"] ;
369 -> 373 ;
374 [label="gini = 0.0\nsamples = 1\nvalue = [0, 1]"] ;
368 -> 374 ;
375 [label="X[3] <= 200.35\ngini = 0.444\nsamples = 3\nvalue = [1, 2]"] ;
367 -> 375 ;
376 [label="gini = 0.0\nsamples = 2\nvalue = [0, 2]"] ;
375 -> 376 ;
377 [label="gini = 0.0\nsamples = 1\nvalue = [1, 0]"] ;
375 -> 377 ;
378 [label="gini = 0.0\nsamples = 1\nvalue = [0, 1]"] ;
366 -> 378 ;
379 [label="gini = 0.0\nsamples = 8\nvalue = [8, 0]"] ;
365 -> 379 ;
380 [label="X[4] <= 0.5\ngini = 0.498\nsamples = 15\nvalue = [7, 8]"] ;
364 -> 380 ;
381 [label="X[12] <= 1.0\ngini = 0.375\nsamples = 8\nvalue = [2, 6]"] ;
380 -> 381 ;
382 [label="X[18] <= 1.5\ngini = 0.245\nsamples = 7\nvalue = [1, 6]"] ;
381 -> 382 ;
383 [label="gini = 0.0\nsamples = 1\nvalue = [1, 0]"] ;
382 -> 383 ;
384 [label="gini = 0.0\nsamples = 6\nvalue = [0, 6]"] ;
382 -> 384 ;
385 [label="gini = 0.0\nsamples = 1\nvalue = [1, 0]"] ;
381 -> 385 ;
386 [label="X[3] <= 140.4\ngini = 0.408\nsamples = 7\nvalue = [5, 2]"] ;
380 -> 386 ;
387 [label="gini = 0.0\nsamples = 2\nvalue = [2, 0]"] ;
386 -> 387 ;
388 [label="X[3] <= 287.35\ngini = 0.48\nsamples = 5\nvalue = [3, 2]"] ;
386 -> 388 ;
389 [label="X[1] <= 3.0\ngini = 0.444\nsamples = 3\nvalue = [1, 2]"] ;
388 -> 389 ;
390 [label="X[17] <= 0.5\ngini = 0.5\nsamples = 2\nvalue = [1, 1]"] ;
389 -> 390 ;
391 [label="gini = 0.0\nsamples = 1\nvalue = [0, 1]"] ;
390 -> 391 ;
392 [label="gini = 0.0\nsamples = 1\nvalue = [1, 0]"] ;
390 -> 392 ;
393 [label="gini = 0.0\nsamples = 1\nvalue = [0, 1]"] ;
389 -> 393 ;
394 [label="gini = 0.0\nsamples = 2\nvalue = [2, 0]"] ;
388 -> 394 ;
395 [label="X[3] <= 350.575\ngini = 0.48\nsamples = 20\nvalue = [8, 12]"] ;
363 -> 395 ;
396 [label="gini = 0.0\nsamples = 7\nvalue = [0, 7]"] ;
395 -> 396 ;
397 [label="X[5] <= 0.5\ngini = 0.473\nsamples = 13\nvalue = [8, 5]"] ;
395 -> 397 ;
398 [label="X[3] <= 434.55\ngini = 0.346\nsamples = 9\nvalue = [7, 2]"] ;
397 -> 398 ;
399 [label="X[1] <= 5.5\ngini = 0.48\nsamples = 5\nvalue = [3, 2]"] ;
398 -> 399 ;
400 [label="gini = 0.0\nsamples = 2\nvalue = [2, 0]"] ;
399 -> 400 ;
401 [label="X[18] <= 1.5\ngini = 0.444\nsamples = 3\nvalue = [1, 2]"] ;
399 -> 401 ;
402 [label="gini = 0.0\nsamples = 1\nvalue = [1, 0]"] ;
401 -> 402 ;
403 [label="gini = 0.0\nsamples = 2\nvalue = [0, 2]"] ;
401 -> 403 ;
404 [label="gini = 0.0\nsamples = 4\nvalue = [4, 0]"] ;
398 -> 404 ;
405 [label="X[2] <= 68.975\ngini = 0.375\nsamples = 4\nvalue = [1, 3]"] ;
397 -> 405 ;
406 [label="gini = 0.0\nsamples = 1\nvalue = [1, 0]"] ;
405 -> 406 ;
407 [label="gini = 0.0\nsamples = 3\nvalue = [0, 3]"] ;
405 -> 407 ;
408 [label="gini = 0.0\nsamples = 4\nvalue = [0, 4]"] ;
356 -> 408 ;
409 [label="X[3] <= 193.25\ngini = 0.219\nsamples = 8\nvalue = [7, 1]"] ;
355 -> 409 ;
410 [label="X[0] <= 0.5\ngini = 0.444\nsamples = 3\nvalue = [2, 1]"] ;
409 -> 410 ;
411 [label="gini = 0.0\nsamples = 2\nvalue = [2, 0]"] ;
410 -> 411 ;
412 [label="gini = 0.0\nsamples = 1\nvalue = [0, 1]"] ;
410 -> 412 ;
413 [label="gini = 0.0\nsamples = 5\nvalue = [5, 0]"] ;
409 -> 413 ;
414 [label="gini = 0.0\nsamples = 6\nvalue = [6, 0]"] ;
354 -> 414 ;
415 [label="gini = 0.0\nsamples = 5\nvalue = [0, 5]"] ;
353 -> 415 ;
416 [label="X[3] <= 530.475\ngini = 0.434\nsamples = 44\nvalue = [14, 30]"] ;
352 -> 416 ;
417 [label="X[2] <= 75.575\ngini = 0.334\nsamples = 33\nvalue = [7, 26]"] ;
416 -> 417 ;
418 [label="X[2] <= 74.975\ngini = 0.271\nsamples = 31\nvalue = [5, 26]"] ;
417 -> 418 ;
419 [label="X[2] <= 74.925\ngini = 0.375\nsamples = 20\nvalue = [5, 15]"] ;
418 -> 419 ;
420 [label="X[1] <= 5.5\ngini = 0.332\nsamples = 19\nvalue = [4, 15]"] ;
419 -> 420 ;
421 [label="X[0] <= 0.5\ngini = 0.231\nsamples = 15\nvalue = [2, 13]"] ;
420 -> 421 ;
422 [label="gini = 0.0\nsamples = 9\nvalue = [0, 9]"] ;
421 -> 422 ;
423 [label="X[3] <= 300.525\ngini = 0.444\nsamples = 6\nvalue = [2, 4]"] ;
421 -> 423 ;
424 [label="X[2] <= 74.65\ngini = 0.444\nsamples = 3\nvalue = [2, 1]"] ;
423 -> 424 ;
425 [label="gini = 0.0\nsamples = 2\nvalue = [2, 0]"] ;
424 -> 425 ;
426 [label="gini = 0.0\nsamples = 1\nvalue = [0, 1]"] ;
424 -> 426 ;
427 [label="gini = 0.0\nsamples = 3\nvalue = [0, 3]"] ;
423 -> 427 ;
428 [label="X[3] <= 502.625\ngini = 0.5\nsamples = 4\nvalue = [2, 2]"] ;
420 -> 428 ;
429 [label="gini = 0.0\nsamples = 2\nvalue = [2, 0]"] ;
428 -> 429 ;
430 [label="gini = 0.0\nsamples = 2\nvalue = [0, 2]"] ;
428 -> 430 ;
431 [label="gini = 0.0\nsamples = 1\nvalue = [1, 0]"] ;
419 -> 431 ;
432 [label="gini = 0.0\nsamples = 11\nvalue = [0, 11]"] ;
418 -> 432 ;
433 [label="gini = 0.0\nsamples = 2\nvalue = [2, 0]"] ;
417 -> 433 ;
434 [label="X[3] <= 792.975\ngini = 0.463\nsamples = 11\nvalue = [7, 4]"] ;
416 -> 434 ;
435 [label="X[4] <= 0.5\ngini = 0.346\nsamples = 9\nvalue = [7, 2]"] ;
434 -> 435 ;
436 [label="X[18] <= 1.5\ngini = 0.48\nsamples = 5\nvalue = [3, 2]"] ;
435 -> 436 ;
437 [label="gini = 0.0\nsamples = 2\nvalue = [2, 0]"] ;
436 -> 437 ;
438 [label="X[2] <= 74.125\ngini = 0.444\nsamples = 3\nvalue = [1, 2]"] ;
436 -> 438 ;
439 [label="gini = 0.0\nsamples = 1\nvalue = [1, 0]"] ;
438 -> 439 ;
440 [label="gini = 0.0\nsamples = 2\nvalue = [0, 2]"] ;
438 -> 440 ;
441 [label="gini = 0.0\nsamples = 4\nvalue = [4, 0]"] ;
435 -> 441 ;
442 [label="gini = 0.0\nsamples = 2\nvalue = [0, 2]"] ;
434 -> 442 ;
443 [label="X[2] <= 106.925\ngini = 0.369\nsamples = 312\nvalue = [76, 236]"] ;
351 -> 443 ;
444 [label="X[18] <= 2.5\ngini = 0.363\nsamples = 310\nvalue = [74, 236]"] ;
443 -> 444 ;
445 [label="X[13] <= 1.0\ngini = 0.346\nsamples = 283\nvalue = [63, 220]"] ;
444 -> 445 ;
446 [label="X[3] <= 138.7\ngini = 0.323\nsamples = 252\nvalue = [51, 201]"] ;
445 -> 446 ;
447 [label="gini = 0.0\nsamples = 1\nvalue = [1, 0]"] ;
446 -> 447 ;
448 [label="X[2] <= 96.575\ngini = 0.319\nsamples = 251\nvalue = [50, 201]"] ;
446 -> 448 ;
449 [label="X[2] <= 96.525\ngini = 0.339\nsamples = 222\nvalue = [48, 174]"] ;
448 -> 449 ;
450 [label="X[3] <= 817.425\ngini = 0.335\nsamples = 221\nvalue = [47, 174]"] ;
449 -> 450 ;
451 [label="X[3] <= 779.75\ngini = 0.352\nsamples = 202\nvalue = [46, 156]"] ;
450 -> 451 ;
452 [label="X[3] <= 727.3\ngini = 0.336\nsamples = 192\nvalue = [41, 151]"] ;
451 -> 452 ;
453 [label="X[3] <= 682.45\ngini = 0.353\nsamples = 179\nvalue = [41, 138]"] ;
452 -> 453 ;
454 [label="X[2] <= 79.425\ngini = 0.326\nsamples = 171\nvalue = [35, 136]"] ;
453 -> 454 ;
455 [label="X[3] <= 662.4\ngini = 0.121\nsamples = 31\nvalue = [2, 29]"] ;
454 -> 455 ;
456 [label="X[11] <= 1.0\ngini = 0.064\nsamples = 30\nvalue = [1, 29]"] ;
455 -> 456 ;
457 [label="gini = 0.0\nsamples = 25\nvalue = [0, 25]"] ;
456 -> 457 ;
458 [label="X[3] <= 428.275\ngini = 0.32\nsamples = 5\nvalue = [1, 4]"] ;
456 -> 458 ;
459 [label="gini = 0.0\nsamples = 4\nvalue = [0, 4]"] ;
458 -> 459 ;
460 [label="gini = 0.0\nsamples = 1\nvalue = [1, 0]"] ;
458 -> 460 ;
461 [label="gini = 0.0\nsamples = 1\nvalue = [1, 0]"] ;
455 -> 461 ;
462 [label="X[8] <= 1.0\ngini = 0.36\nsamples = 140\nvalue = [33, 107]"] ;
454 -> 462 ;
463 [label="X[0] <= 0.5\ngini = 0.424\nsamples = 72\nvalue = [22, 50]"] ;
462 -> 463 ;
464 [label="X[3] <= 386.925\ngini = 0.361\nsamples = 55\nvalue = [13, 42]"] ;
463 -> 464 ;
465 [label="X[3] <= 215.025\ngini = 0.464\nsamples = 30\nvalue = [11, 19]"] ;
464 -> 465 ;
466 [label="X[2] <= 80.075\ngini = 0.142\nsamples = 13\nvalue = [1, 12]"] ;
465 -> 466 ;
467 [label="X[3] <= 169.725\ngini = 0.444\nsamples = 3\nvalue = [1, 2]"] ;
466 -> 467 ;
468 [label="gini = 0.0\nsamples = 2\nvalue = [0, 2]"] ;
467 -> 468 ;
469 [label="gini = 0.0\nsamples = 1\nvalue = [1, 0]"] ;
467 -> 469 ;
470 [label="gini = 0.0\nsamples = 10\nvalue = [0, 10]"] ;
466 -> 470 ;
471 [label="X[3] <= 239.95\ngini = 0.484\nsamples = 17\nvalue = [10, 7]"] ;
465 -> 471 ;
472 [label="gini = 0.0\nsamples = 3\nvalue = [3, 0]"] ;
471 -> 472 ;
473 [label="X[3] <= 253.4\ngini = 0.5\nsamples = 14\nvalue = [7, 7]"] ;
471 -> 473 ;
474 [label="gini = 0.0\nsamples = 3\nvalue = [0, 3]"] ;
473 -> 474 ;
475 [label="X[3] <= 297.95\ngini = 0.463\nsamples = 11\nvalue = [7, 4]"] ;
473 -> 475 ;
476 [label="gini = 0.0\nsamples = 4\nvalue = [4, 0]"] ;
475 -> 476 ;
477 [label="X[3] <= 313.5\ngini = 0.49\nsamples = 7\nvalue = [3, 4]"] ;
475 -> 477 ;
478 [label="gini = 0.0\nsamples = 3\nvalue = [0, 3]"] ;
477 -> 478 ;
479 [label="X[4] <= 0.5\ngini = 0.375\nsamples = 4\nvalue = [3, 1]"] ;
477 -> 479 ;
480 [label="gini = 0.0\nsamples = 3\nvalue = [3, 0]"] ;
479 -> 480 ;
481 [label="gini = 0.0\nsamples = 1\nvalue = [0, 1]"] ;
479 -> 481 ;
482 [label="X[1] <= 8.5\ngini = 0.147\nsamples = 25\nvalue = [2, 23]"] ;
464 -> 482 ;
483 [label="X[2] <= 80.05\ngini = 0.08\nsamples = 24\nvalue = [1, 23]"] ;
482 -> 483 ;
484 [label="X[18] <= 1.0\ngini = 0.444\nsamples = 3\nvalue = [1, 2]"] ;
483 -> 484 ;
485 [label="gini = 0.0\nsamples = 1\nvalue = [1, 0]"] ;
484 -> 485 ;
486 [label="gini = 0.0\nsamples = 2\nvalue = [0, 2]"] ;
484 -> 486 ;
487 [label="gini = 0.0\nsamples = 21\nvalue = [0, 21]"] ;
483 -> 487 ;
488 [label="gini = 0.0\nsamples = 1\nvalue = [1, 0]"] ;
482 -> 488 ;
489 [label="X[12] <= 1.0\ngini = 0.498\nsamples = 17\nvalue = [9, 8]"] ;
463 -> 489 ;
490 [label="X[5] <= 0.5\ngini = 0.49\nsamples = 14\nvalue = [6, 8]"] ;
489 -> 490 ;
491 [label="X[2] <= 89.425\ngini = 0.48\nsamples = 10\nvalue = [6, 4]"] ;
490 -> 491 ;
492 [label="X[1] <= 4.0\ngini = 0.375\nsamples = 8\nvalue = [6, 2]"] ;
491 -> 492 ;
493 [label="X[18] <= 1.0\ngini = 0.444\nsamples = 3\nvalue = [1, 2]"] ;
492 -> 493 ;
494 [label="gini = 0.0\nsamples = 1\nvalue = [1, 0]"] ;
493 -> 494 ;
495 [label="gini = 0.0\nsamples = 2\nvalue = [0, 2]"] ;
493 -> 495 ;
496 [label="gini = 0.0\nsamples = 5\nvalue = [5, 0]"] ;
492 -> 496 ;
497 [label="gini = 0.0\nsamples = 2\nvalue = [0, 2]"] ;
491 -> 497 ;
498 [label="gini = 0.0\nsamples = 4\nvalue = [0, 4]"] ;
490 -> 498 ;
499 [label="gini = 0.0\nsamples = 3\nvalue = [3, 0]"] ;
489 -> 499 ;
500 [label="X[3] <= 153.325\ngini = 0.271\nsamples = 68\nvalue = [11, 57]"] ;
462 -> 500 ;
501 [label="gini = 0.0\nsamples = 1\nvalue = [1, 0]"] ;
500 -> 501 ;
502 [label="X[2] <= 96.1\ngini = 0.254\nsamples = 67\nvalue = [10, 57]"] ;
500 -> 502 ;
503 [label="X[3] <= 654.55\ngini = 0.236\nsamples = 66\nvalue = [9, 57]"] ;
502 -> 503 ;
504 [label="X[14] <= 1.0\ngini = 0.219\nsamples = 64\nvalue = [8, 56]"] ;
503 -> 504 ;
505 [label="X[2] <= 90.4\ngini = 0.117\nsamples = 32\nvalue = [2, 30]"] ;
504 -> 505 ;
506 [label="X[1] <= 2.5\ngini = 0.067\nsamples = 29\nvalue = [1, 28]"] ;
505 -> 506 ;
507 [label="X[3] <= 185.35\ngini = 0.32\nsamples = 5\nvalue = [1, 4]"] ;
506 -> 507 ;
508 [label="gini = 0.0\nsamples = 4\nvalue = [0, 4]"] ;
507 -> 508 ;
509 [label="gini = 0.0\nsamples = 1\nvalue = [1, 0]"] ;
507 -> 509 ;
510 [label="gini = 0.0\nsamples = 24\nvalue = [0, 24]"] ;
506 -> 510 ;
511 [label="X[1] <= 4.5\ngini = 0.444\nsamples = 3\nvalue = [1, 2]"] ;
505 -> 511 ;
512 [label="gini = 0.0\nsamples = 2\nvalue = [0, 2]"] ;
511 -> 512 ;
513 [label="gini = 0.0\nsamples = 1\nvalue = [1, 0]"] ;
511 -> 513 ;
514 [label="X[2] <= 84.4\ngini = 0.305\nsamples = 32\nvalue = [6, 26]"] ;
504 -> 514 ;
515 [label="X[2] <= 83.2\ngini = 0.5\nsamples = 4\nvalue = [2, 2]"] ;
514 -> 515 ;
516 [label="gini = 0.0\nsamples = 2\nvalue = [0, 2]"] ;
515 -> 516 ;
517 [label="gini = 0.0\nsamples = 2\nvalue = [2, 0]"] ;
515 -> 517 ;
518 [label="X[5] <= 0.5\ngini = 0.245\nsamples = 28\nvalue = [4, 24]"] ;
514 -> 518 ;
519 [label="X[11] <= 1.0\ngini = 0.165\nsamples = 22\nvalue = [2, 20]"] ;
518 -> 519 ;
520 [label="X[2] <= 94.575\ngini = 0.1\nsamples = 19\nvalue = [1, 18]"] ;
519 -> 520 ;
521 [label="gini = 0.0\nsamples = 15\nvalue = [0, 15]"] ;
520 -> 521 ;
522 [label="X[4] <= 0.5\ngini = 0.375\nsamples = 4\nvalue = [1, 3]"] ;
520 -> 522 ;
523 [label="gini = 0.0\nsamples = 2\nvalue = [0, 2]"] ;
522 -> 523 ;
524 [label="X[3] <= 399.275\ngini = 0.5\nsamples = 2\nvalue = [1, 1]"] ;
522 -> 524 ;
525 [label="gini = 0.0\nsamples = 1\nvalue = [1, 0]"] ;
524 -> 525 ;
526 [label="gini = 0.0\nsamples = 1\nvalue = [0, 1]"] ;
524 -> 526 ;
527 [label="X[3] <= 536.975\ngini = 0.444\nsamples = 3\nvalue = [1, 2]"] ;
519 -> 527 ;
528 [label="gini = 0.0\nsamples = 2\nvalue = [0, 2]"] ;
527 -> 528 ;
529 [label="gini = 0.0\nsamples = 1\nvalue = [1, 0]"] ;
527 -> 529 ;
530 [label="X[3] <= 276.375\ngini = 0.444\nsamples = 6\nvalue = [2, 4]"] ;
518 -> 530 ;
531 [label="gini = 0.0\nsamples = 2\nvalue = [2, 0]"] ;
530 -> 531 ;
532 [label="gini = 0.0\nsamples = 4\nvalue = [0, 4]"] ;
530 -> 532 ;
533 [label="X[5] <= 0.5\ngini = 0.5\nsamples = 2\nvalue = [1, 1]"] ;
503 -> 533 ;
534 [label="gini = 0.0\nsamples = 1\nvalue = [0, 1]"] ;
533 -> 534 ;
535 [label="gini = 0.0\nsamples = 1\nvalue = [1, 0]"] ;
533 -> 535 ;
536 [label="gini = 0.0\nsamples = 1\nvalue = [1, 0]"] ;
502 -> 536 ;
537 [label="X[8] <= 1.0\ngini = 0.375\nsamples = 8\nvalue = [6, 2]"] ;
453 -> 537 ;
538 [label="X[0] <= 0.5\ngini = 0.5\nsamples = 4\nvalue = [2, 2]"] ;
537 -> 538 ;
539 [label="gini = 0.0\nsamples = 2\nvalue = [0, 2]"] ;
538 -> 539 ;
540 [label="gini = 0.0\nsamples = 2\nvalue = [2, 0]"] ;
538 -> 540 ;
541 [label="gini = 0.0\nsamples = 4\nvalue = [4, 0]"] ;
537 -> 541 ;
542 [label="gini = 0.0\nsamples = 13\nvalue = [0, 13]"] ;
452 -> 542 ;
543 [label="X[12] <= 1.0\ngini = 0.5\nsamples = 10\nvalue = [5, 5]"] ;
451 -> 543 ;
544 [label="X[17] <= 0.5\ngini = 0.408\nsamples = 7\nvalue = [2, 5]"] ;
543 -> 544 ;
545 [label="gini = 0.0\nsamples = 1\nvalue = [1, 0]"] ;
544 -> 545 ;
546 [label="X[3] <= 792.625\ngini = 0.278\nsamples = 6\nvalue = [1, 5]"] ;
544 -> 546 ;
547 [label="X[3] <= 790.25\ngini = 0.5\nsamples = 2\nvalue = [1, 1]"] ;
546 -> 547 ;
548 [label="gini = 0.0\nsamples = 1\nvalue = [0, 1]"] ;
547 -> 548 ;
549 [label="gini = 0.0\nsamples = 1\nvalue = [1, 0]"] ;
547 -> 549 ;
550 [label="gini = 0.0\nsamples = 4\nvalue = [0, 4]"] ;
546 -> 550 ;
551 [label="gini = 0.0\nsamples = 3\nvalue = [3, 0]"] ;
543 -> 551 ;
552 [label="X[6] <= 0.5\ngini = 0.1\nsamples = 19\nvalue = [1, 18]"] ;
450 -> 552 ;
553 [label="gini = 0.0\nsamples = 17\nvalue = [0, 17]"] ;
552 -> 553 ;
554 [label="X[14] <= 1.0\ngini = 0.5\nsamples = 2\nvalue = [1, 1]"] ;
552 -> 554 ;
555 [label="gini = 0.0\nsamples = 1\nvalue = [1, 0]"] ;
554 -> 555 ;
556 [label="gini = 0.0\nsamples = 1\nvalue = [0, 1]"] ;
554 -> 556 ;
557 [label="gini = 0.0\nsamples = 1\nvalue = [1, 0]"] ;
449 -> 557 ;
558 [label="X[18] <= 1.5\ngini = 0.128\nsamples = 29\nvalue = [2, 27]"] ;
448 -> 558 ;
559 [label="X[11] <= 1.0\ngini = 0.375\nsamples = 8\nvalue = [2, 6]"] ;
558 -> 559 ;
560 [label="gini = 0.0\nsamples = 3\nvalue = [0, 3]"] ;
559 -> 560 ;
561 [label="X[3] <= 919.075\ngini = 0.48\nsamples = 5\nvalue = [2, 3]"] ;
559 -> 561 ;
562 [label="X[1] <= 6.0\ngini = 0.444\nsamples = 3\nvalue = [2, 1]"] ;
561 -> 562 ;
563 [label="gini = 0.0\nsamples = 1\nvalue = [0, 1]"] ;
562 -> 563 ;
564 [label="gini = 0.0\nsamples = 2\nvalue = [2, 0]"] ;
562 -> 564 ;
565 [label="gini = 0.0\nsamples = 2\nvalue = [0, 2]"] ;
561 -> 565 ;
566 [label="gini = 0.0\nsamples = 21\nvalue = [0, 21]"] ;
558 -> 566 ;
567 [label="X[3] <= 479.0\ngini = 0.475\nsamples = 31\nvalue = [12, 19]"] ;
445 -> 567 ;
568 [label="X[2] <= 84.075\ngini = 0.266\nsamples = 19\nvalue = [3, 16]"] ;
567 -> 568 ;
569 [label="X[4] <= 0.5\ngini = 0.48\nsamples = 5\nvalue = [2, 3]"] ;
568 -> 569 ;
570 [label="gini = 0.0\nsamples = 2\nvalue = [2, 0]"] ;
569 -> 570 ;
571 [label="gini = 0.0\nsamples = 3\nvalue = [0, 3]"] ;
569 -> 571 ;
572 [label="X[12] <= 1.0\ngini = 0.133\nsamples = 14\nvalue = [1, 13]"] ;
568 -> 572 ;
573 [label="gini = 0.0\nsamples = 9\nvalue = [0, 9]"] ;
572 -> 573 ;
574 [label="X[1] <= 3.5\ngini = 0.32\nsamples = 5\nvalue = [1, 4]"] ;
572 -> 574 ;
575 [label="gini = 0.0\nsamples = 3\nvalue = [0, 3]"] ;
574 -> 575 ;
576 [label="X[14] <= 1.0\ngini = 0.5\nsamples = 2\nvalue = [1, 1]"] ;
574 -> 576 ;
577 [label="gini = 0.0\nsamples = 1\nvalue = [1, 0]"] ;
576 -> 577 ;
578 [label="gini = 0.0\nsamples = 1\nvalue = [0, 1]"] ;
576 -> 578 ;
579 [label="X[3] <= 977.625\ngini = 0.375\nsamples = 12\nvalue = [9, 3]"] ;
567 -> 579 ;
580 [label="X[11] <= 1.0\ngini = 0.18\nsamples = 10\nvalue = [9, 1]"] ;
579 -> 580 ;
581 [label="gini = 0.0\nsamples = 8\nvalue = [8, 0]"] ;
580 -> 581 ;
582 [label="X[1] <= 8.0\ngini = 0.5\nsamples = 2\nvalue = [1, 1]"] ;
580 -> 582 ;
583 [label="gini = 0.0\nsamples = 1\nvalue = [0, 1]"] ;
582 -> 583 ;
584 [label="gini = 0.0\nsamples = 1\nvalue = [1, 0]"] ;
582 -> 584 ;
585 [label="gini = 0.0\nsamples = 2\nvalue = [0, 2]"] ;
579 -> 585 ;
586 [label="X[2] <= 79.275\ngini = 0.483\nsamples = 27\nvalue = [11, 16]"] ;
444 -> 586 ;
587 [label="gini = 0.0\nsamples = 2\nvalue = [2, 0]"] ;
586 -> 587 ;
588 [label="X[3] <= 522.725\ngini = 0.461\nsamples = 25\nvalue = [9, 16]"] ;
586 -> 588 ;
589 [label="X[3] <= 500.725\ngini = 0.494\nsamples = 18\nvalue = [8, 10]"] ;
588 -> 589 ;
590 [label="X[5] <= 0.5\ngini = 0.469\nsamples = 16\nvalue = [6, 10]"] ;
589 -> 590 ;
591 [label="X[2] <= 89.725\ngini = 0.5\nsamples = 12\nvalue = [6, 6]"] ;
590 -> 591 ;
592 [label="X[12] <= 1.0\ngini = 0.469\nsamples = 8\nvalue = [3, 5]"] ;
591 -> 592 ;
593 [label="X[3] <= 382.1\ngini = 0.48\nsamples = 5\nvalue = [3, 2]"] ;
592 -> 593 ;
594 [label="X[0] <= 0.5\ngini = 0.444\nsamples = 3\nvalue = [1, 2]"] ;
593 -> 594 ;
595 [label="gini = 0.0\nsamples = 2\nvalue = [0, 2]"] ;
594 -> 595 ;
596 [label="gini = 0.0\nsamples = 1\nvalue = [1, 0]"] ;
594 -> 596 ;
597 [label="gini = 0.0\nsamples = 2\nvalue = [2, 0]"] ;
593 -> 597 ;
598 [label="gini = 0.0\nsamples = 3\nvalue = [0, 3]"] ;
592 -> 598 ;
599 [label="X[1] <= 4.5\ngini = 0.375\nsamples = 4\nvalue = [3, 1]"] ;
591 -> 599 ;
600 [label="gini = 0.0\nsamples = 3\nvalue = [3, 0]"] ;
599 -> 600 ;
601 [label="gini = 0.0\nsamples = 1\nvalue = [0, 1]"] ;
599 -> 601 ;
602 [label="gini = 0.0\nsamples = 4\nvalue = [0, 4]"] ;
590 -> 602 ;
603 [label="gini = 0.0\nsamples = 2\nvalue = [2, 0]"] ;
589 -> 603 ;
604 [label="X[3] <= 722.05\ngini = 0.245\nsamples = 7\nvalue = [1, 6]"] ;
588 -> 604 ;
605 [label="gini = 0.0\nsamples = 5\nvalue = [0, 5]"] ;
604 -> 605 ;
606 [label="X[0] <= 0.5\ngini = 0.5\nsamples = 2\nvalue = [1, 1]"] ;
604 -> 606 ;
607 [label="gini = 0.0\nsamples = 1\nvalue = [1, 0]"] ;
606 -> 607 ;
608 [label="gini = 0.0\nsamples = 1\nvalue = [0, 1]"] ;
606 -> 608 ;
609 [label="gini = 0.0\nsamples = 2\nvalue = [2, 0]"] ;
443 -> 609 ;
610 [label="X[9] <= 0.5\ngini = 0.482\nsamples = 1105\nvalue = [656, 449]"] ;
2 -> 610 ;
611 [label="X[7] <= 0.5\ngini = 0.327\nsamples = 287\nvalue = [228, 59]"] ;
610 -> 611 ;
612 [label="X[18] <= 2.5\ngini = 0.416\nsamples = 112\nvalue = [79, 33]"] ;
611 -> 612 ;
613 [label="X[2] <= 29.6\ngini = 0.449\nsamples = 94\nvalue = [62, 32]"] ;
612 -> 613 ;
614 [label="X[3] <= 310.925\ngini = 0.266\nsamples = 19\nvalue = [16, 3]"] ;
613 -> 614 ;
615 [label="gini = 0.0\nsamples = 1\nvalue = [0, 1]"] ;
614 -> 615 ;
616 [label="X[4] <= 0.5\ngini = 0.198\nsamples = 18\nvalue = [16, 2]"] ;
614 -> 616 ;
617 [label="X[1] <= 24.5\ngini = 0.408\nsamples = 7\nvalue = [5, 2]"] ;
616 -> 617 ;
618 [label="gini = 0.0\nsamples = 3\nvalue = [3, 0]"] ;
617 -> 618 ;
619 [label="X[2] <= 24.625\ngini = 0.5\nsamples = 4\nvalue = [2, 2]"] ;
617 -> 619 ;
620 [label="gini = 0.0\nsamples = 1\nvalue = [1, 0]"] ;
619 -> 620 ;
621 [label="X[2] <= 29.05\ngini = 0.444\nsamples = 3\nvalue = [1, 2]"] ;
619 -> 621 ;
622 [label="gini = 0.0\nsamples = 2\nvalue = [0, 2]"] ;
621 -> 622 ;
623 [label="gini = 0.0\nsamples = 1\nvalue = [1, 0]"] ;
621 -> 623 ;
624 [label="gini = 0.0\nsamples = 11\nvalue = [11, 0]"] ;
616 -> 624 ;
625 [label="X[3] <= 2987.875\ngini = 0.474\nsamples = 75\nvalue = [46, 29]"] ;
613 -> 625 ;
626 [label="X[2] <= 50.7\ngini = 0.487\nsamples = 69\nvalue = [40, 29]"] ;
625 -> 626 ;
627 [label="X[2] <= 31.125\ngini = 0.468\nsamples = 59\nvalue = [37, 22]"] ;
626 -> 627 ;
628 [label="X[1] <= 48.5\ngini = 0.444\nsamples = 9\nvalue = [3, 6]"] ;
627 -> 628 ;
629 [label="X[6] <= 0.5\ngini = 0.375\nsamples = 8\nvalue = [2, 6]"] ;
628 -> 629 ;
630 [label="gini = 0.0\nsamples = 5\nvalue = [0, 5]"] ;
629 -> 630 ;
631 [label="X[1] <= 31.0\ngini = 0.444\nsamples = 3\nvalue = [2, 1]"] ;
629 -> 631 ;
632 [label="gini = 0.0\nsamples = 2\nvalue = [2, 0]"] ;
631 -> 632 ;
633 [label="gini = 0.0\nsamples = 1\nvalue = [0, 1]"] ;
631 -> 633 ;
634 [label="gini = 0.0\nsamples = 1\nvalue = [1, 0]"] ;
628 -> 634 ;
635 [label="X[4] <= 0.5\ngini = 0.435\nsamples = 50\nvalue = [34, 16]"] ;
627 -> 635 ;
636 [label="X[11] <= 1.0\ngini = 0.36\nsamples = 34\nvalue = [26, 8]"] ;
635 -> 636 ;
637 [label="X[3] <= 487.275\ngini = 0.434\nsamples = 22\nvalue = [15, 7]"] ;
636 -> 637 ;
638 [label="gini = 0.0\nsamples = 1\nvalue = [0, 1]"] ;
637 -> 638 ;
639 [label="X[1] <= 41.0\ngini = 0.408\nsamples = 21\nvalue = [15, 6]"] ;
637 -> 639 ;
640 [label="X[3] <= 1178.375\ngini = 0.375\nsamples = 20\nvalue = [15, 5]"] ;
639 -> 640 ;
641 [label="X[1] <= 15.0\ngini = 0.459\nsamples = 14\nvalue = [9, 5]"] ;
640 -> 641 ;
642 [label="gini = 0.0\nsamples = 4\nvalue = [4, 0]"] ;
641 -> 642 ;
643 [label="X[3] <= 868.45\ngini = 0.5\nsamples = 10\nvalue = [5, 5]"] ;
641 -> 643 ;
644 [label="X[15] <= 1.0\ngini = 0.375\nsamples = 4\nvalue = [1, 3]"] ;
643 -> 644 ;
645 [label="gini = 0.0\nsamples = 1\nvalue = [1, 0]"] ;
644 -> 645 ;
646 [label="gini = 0.0\nsamples = 3\nvalue = [0, 3]"] ;
644 -> 646 ;
647 [label="X[0] <= 0.5\ngini = 0.444\nsamples = 6\nvalue = [4, 2]"] ;
643 -> 647 ;
648 [label="gini = 0.0\nsamples = 3\nvalue = [3, 0]"] ;
647 -> 648 ;
649 [label="X[6] <= 0.5\ngini = 0.444\nsamples = 3\nvalue = [1, 2]"] ;
647 -> 649 ;
650 [label="gini = 0.0\nsamples = 2\nvalue = [0, 2]"] ;
649 -> 650 ;
651 [label="gini = 0.0\nsamples = 1\nvalue = [1, 0]"] ;
649 -> 651 ;
652 [label="gini = 0.0\nsamples = 6\nvalue = [6, 0]"] ;
640 -> 652 ;
653 [label="gini = 0.0\nsamples = 1\nvalue = [0, 1]"] ;
639 -> 653 ;
654 [label="X[0] <= 0.5\ngini = 0.153\nsamples = 12\nvalue = [11, 1]"] ;
636 -> 654 ;
655 [label="gini = 0.0\nsamples = 9\nvalue = [9, 0]"] ;
654 -> 655 ;
656 [label="X[13] <= 1.0\ngini = 0.444\nsamples = 3\nvalue = [2, 1]"] ;
654 -> 656 ;
657 [label="gini = 0.0\nsamples = 1\nvalue = [0, 1]"] ;
656 -> 657 ;
658 [label="gini = 0.0\nsamples = 2\nvalue = [2, 0]"] ;
656 -> 658 ;
659 [label="X[2] <= 36.075\ngini = 0.5\nsamples = 16\nvalue = [8, 8]"] ;
635 -> 659 ;
660 [label="X[2] <= 33.9\ngini = 0.32\nsamples = 5\nvalue = [4, 1]"] ;
659 -> 660 ;
661 [label="gini = 0.0\nsamples = 1\nvalue = [0, 1]"] ;
660 -> 661 ;
662 [label="gini = 0.0\nsamples = 4\nvalue = [4, 0]"] ;
660 -> 662 ;
663 [label="X[2] <= 43.975\ngini = 0.463\nsamples = 11\nvalue = [4, 7]"] ;
659 -> 663 ;
664 [label="gini = 0.0\nsamples = 5\nvalue = [0, 5]"] ;
663 -> 664 ;
665 [label="X[0] <= 0.5\ngini = 0.444\nsamples = 6\nvalue = [4, 2]"] ;
663 -> 665 ;
666 [label="X[3] <= 987.75\ngini = 0.32\nsamples = 5\nvalue = [4, 1]"] ;
665 -> 666 ;
667 [label="gini = 0.0\nsamples = 1\nvalue = [0, 1]"] ;
666 -> 667 ;
668 [label="gini = 0.0\nsamples = 4\nvalue = [4, 0]"] ;
666 -> 668 ;
669 [label="gini = 0.0\nsamples = 1\nvalue = [0, 1]"] ;
665 -> 669 ;
670 [label="X[0] <= 0.5\ngini = 0.42\nsamples = 10\nvalue = [3, 7]"] ;
626 -> 670 ;
671 [label="gini = 0.0\nsamples = 5\nvalue = [0, 5]"] ;
670 -> 671 ;
672 [label="X[3] <= 2278.8\ngini = 0.48\nsamples = 5\nvalue = [3, 2]"] ;
670 -> 672 ;
673 [label="gini = 0.0\nsamples = 3\nvalue = [3, 0]"] ;
672 -> 673 ;
674 [label="gini = 0.0\nsamples = 2\nvalue = [0, 2]"] ;
672 -> 674 ;
675 [label="gini = 0.0\nsamples = 6\nvalue = [6, 0]"] ;
625 -> 675 ;
676 [label="X[2] <= 37.5\ngini = 0.105\nsamples = 18\nvalue = [17, 1]"] ;
612 -> 676 ;
677 [label="gini = 0.0\nsamples = 16\nvalue = [16, 0]"] ;
676 -> 677 ;
678 [label="X[0] <= 0.5\ngini = 0.5\nsamples = 2\nvalue = [1, 1]"] ;
676 -> 678 ;
679 [label="gini = 0.0\nsamples = 1\nvalue = [1, 0]"] ;
678 -> 679 ;
680 [label="gini = 0.0\nsamples = 1\nvalue = [0, 1]"] ;
678 -> 680 ;
681 [label="X[3] <= 487.85\ngini = 0.253\nsamples = 175\nvalue = [149, 26]"] ;
611 -> 681 ;
682 [label="gini = 0.0\nsamples = 2\nvalue = [0, 2]"] ;
681 -> 682 ;
683 [label="X[2] <= 66.375\ngini = 0.239\nsamples = 173\nvalue = [149, 24]"] ;
681 -> 683 ;
684 [label="X[2] <= 54.95\ngini = 0.275\nsamples = 146\nvalue = [122, 24]"] ;
683 -> 684 ;
685 [label="X[3] <= 904.625\ngini = 0.185\nsamples = 87\nvalue = [78, 9]"] ;
684 -> 685 ;
686 [label="X[3] <= 765.475\ngini = 0.326\nsamples = 39\nvalue = [31, 8]"] ;
685 -> 686 ;
687 [label="X[3] <= 609.375\ngini = 0.18\nsamples = 30\nvalue = [27, 3]"] ;
686 -> 687 ;
688 [label="X[3] <= 593.4\ngini = 0.375\nsamples = 12\nvalue = [9, 3]"] ;
687 -> 688 ;
689 [label="X[3] <= 520.4\ngini = 0.198\nsamples = 9\nvalue = [8, 1]"] ;
688 -> 689 ;
690 [label="X[3] <= 512.425\ngini = 0.444\nsamples = 3\nvalue = [2, 1]"] ;
689 -> 690 ;
691 [label="gini = 0.0\nsamples = 2\nvalue = [2, 0]"] ;
690 -> 691 ;
692 [label="gini = 0.0\nsamples = 1\nvalue = [0, 1]"] ;
690 -> 692 ;
693 [label="gini = 0.0\nsamples = 6\nvalue = [6, 0]"] ;
689 -> 693 ;
694 [label="X[11] <= 1.0\ngini = 0.444\nsamples = 3\nvalue = [1, 2]"] ;
688 -> 694 ;
695 [label="gini = 0.0\nsamples = 2\nvalue = [0, 2]"] ;
694 -> 695 ;
696 [label="gini = 0.0\nsamples = 1\nvalue = [1, 0]"] ;
694 -> 696 ;
697 [label="gini = 0.0\nsamples = 18\nvalue = [18, 0]"] ;
687 -> 697 ;
698 [label="X[2] <= 50.75\ngini = 0.494\nsamples = 9\nvalue = [4, 5]"] ;
686 -> 698 ;
699 [label="X[2] <= 49.7\ngini = 0.444\nsamples = 6\nvalue = [4, 2]"] ;
698 -> 699 ;
700 [label="X[13] <= 1.0\ngini = 0.5\nsamples = 4\nvalue = [2, 2]"] ;
699 -> 700 ;
701 [label="X[18] <= 1.0\ngini = 0.444\nsamples = 3\nvalue = [1, 2]"] ;
700 -> 701 ;
702 [label="gini = 0.0\nsamples = 1\nvalue = [1, 0]"] ;
701 -> 702 ;
703 [label="gini = 0.0\nsamples = 2\nvalue = [0, 2]"] ;
701 -> 703 ;
704 [label="gini = 0.0\nsamples = 1\nvalue = [1, 0]"] ;
700 -> 704 ;
705 [label="gini = 0.0\nsamples = 2\nvalue = [2, 0]"] ;
699 -> 705 ;
706 [label="gini = 0.0\nsamples = 3\nvalue = [0, 3]"] ;
698 -> 706 ;
707 [label="X[0] <= 0.5\ngini = 0.041\nsamples = 48\nvalue = [47, 1]"] ;
685 -> 707 ;
708 [label="gini = 0.0\nsamples = 42\nvalue = [42, 0]"] ;
707 -> 708 ;
709 [label="X[2] <= 51.0\ngini = 0.278\nsamples = 6\nvalue = [5, 1]"] ;
707 -> 709 ;
710 [label="gini = 0.0\nsamples = 1\nvalue = [0, 1]"] ;
709 -> 710 ;
711 [label="gini = 0.0\nsamples = 5\nvalue = [5, 0]"] ;
709 -> 711 ;
712 [label="X[2] <= 55.025\ngini = 0.379\nsamples = 59\nvalue = [44, 15]"] ;
684 -> 712 ;
713 [label="gini = 0.0\nsamples = 3\nvalue = [0, 3]"] ;
712 -> 713 ;
714 [label="X[2] <= 65.1\ngini = 0.337\nsamples = 56\nvalue = [44, 12]"] ;
712 -> 714 ;
715 [label="X[2] <= 61.625\ngini = 0.306\nsamples = 53\nvalue = [43, 10]"] ;
714 -> 715 ;
716 [label="X[15] <= 1.0\ngini = 0.369\nsamples = 41\nvalue = [31, 10]"] ;
715 -> 716 ;
717 [label="X[2] <= 55.275\ngini = 0.298\nsamples = 33\nvalue = [27, 6]"] ;
716 -> 717 ;
718 [label="X[1] <= 20.0\ngini = 0.5\nsamples = 4\nvalue = [2, 2]"] ;
717 -> 718 ;
719 [label="gini = 0.0\nsamples = 2\nvalue = [2, 0]"] ;
718 -> 719 ;
720 [label="gini = 0.0\nsamples = 2\nvalue = [0, 2]"] ;
718 -> 720 ;
721 [label="X[2] <= 59.975\ngini = 0.238\nsamples = 29\nvalue = [25, 4]"] ;
717 -> 721 ;
722 [label="X[3] <= 2460.525\ngini = 0.159\nsamples = 23\nvalue = [21, 2]"] ;
721 -> 722 ;
723 [label="X[11] <= 1.0\ngini = 0.091\nsamples = 21\nvalue = [20, 1]"] ;
722 -> 723 ;
724 [label="gini = 0.0\nsamples = 15\nvalue = [15, 0]"] ;
723 -> 724 ;
725 [label="X[1] <= 15.5\ngini = 0.278\nsamples = 6\nvalue = [5, 1]"] ;
723 -> 725 ;
726 [label="X[14] <= 1.0\ngini = 0.5\nsamples = 2\nvalue = [1, 1]"] ;
725 -> 726 ;
727 [label="gini = 0.0\nsamples = 1\nvalue = [0, 1]"] ;
726 -> 727 ;
728 [label="gini = 0.0\nsamples = 1\nvalue = [1, 0]"] ;
726 -> 728 ;
729 [label="gini = 0.0\nsamples = 4\nvalue = [4, 0]"] ;
725 -> 729 ;
730 [label="X[18] <= 1.0\ngini = 0.5\nsamples = 2\nvalue = [1, 1]"] ;
722 -> 730 ;
731 [label="gini = 0.0\nsamples = 1\nvalue = [1, 0]"] ;
730 -> 731 ;
732 [label="gini = 0.0\nsamples = 1\nvalue = [0, 1]"] ;
730 -> 732 ;
733 [label="X[2] <= 60.2\ngini = 0.444\nsamples = 6\nvalue = [4, 2]"] ;
721 -> 733 ;
734 [label="gini = 0.0\nsamples = 2\nvalue = [0, 2]"] ;
733 -> 734 ;
735 [label="gini = 0.0\nsamples = 4\nvalue = [4, 0]"] ;
733 -> 735 ;
736 [label="X[11] <= 1.0\ngini = 0.5\nsamples = 8\nvalue = [4, 4]"] ;
716 -> 736 ;
737 [label="X[3] <= 667.975\ngini = 0.444\nsamples = 6\nvalue = [2, 4]"] ;
736 -> 737 ;
738 [label="gini = 0.0\nsamples = 1\nvalue = [1, 0]"] ;
737 -> 738 ;
739 [label="X[3] <= 1042.125\ngini = 0.32\nsamples = 5\nvalue = [1, 4]"] ;
737 -> 739 ;
740 [label="gini = 0.0\nsamples = 3\nvalue = [0, 3]"] ;
739 -> 740 ;
741 [label="X[0] <= 0.5\ngini = 0.5\nsamples = 2\nvalue = [1, 1]"] ;
739 -> 741 ;
742 [label="gini = 0.0\nsamples = 1\nvalue = [1, 0]"] ;
741 -> 742 ;
743 [label="gini = 0.0\nsamples = 1\nvalue = [0, 1]"] ;
741 -> 743 ;
744 [label="gini = 0.0\nsamples = 2\nvalue = [2, 0]"] ;
736 -> 744 ;
745 [label="gini = 0.0\nsamples = 12\nvalue = [12, 0]"] ;
715 -> 745 ;
746 [label="X[3] <= 1347.875\ngini = 0.444\nsamples = 3\nvalue = [1, 2]"] ;
714 -> 746 ;
747 [label="gini = 0.0\nsamples = 2\nvalue = [0, 2]"] ;
746 -> 747 ;
748 [label="gini = 0.0\nsamples = 1\nvalue = [1, 0]"] ;
746 -> 748 ;
749 [label="gini = 0.0\nsamples = 27\nvalue = [27, 0]"] ;
683 -> 749 ;
750 [label="X[3] <= 3083.6\ngini = 0.499\nsamples = 818\nvalue = [428, 390]"] ;
610 -> 750 ;
751 [label="X[18] <= 1.5\ngini = 0.497\nsamples = 507\nvalue = [235, 272]"] ;
750 -> 751 ;
752 [label="X[12] <= 1.0\ngini = 0.488\nsamples = 168\nvalue = [97, 71]"] ;
751 -> 752 ;
753 [label="X[3] <= 858.8\ngini = 0.499\nsamples = 112\nvalue = [58, 54]"] ;
752 -> 753 ;
754 [label="gini = 0.0\nsamples = 4\nvalue = [4, 0]"] ;
753 -> 754 ;
755 [label="X[3] <= 936.125\ngini = 0.5\nsamples = 108\nvalue = [54, 54]"] ;
753 -> 755 ;
756 [label="gini = 0.0\nsamples = 6\nvalue = [0, 6]"] ;
755 -> 756 ;
757 [label="X[0] <= 0.5\ngini = 0.498\nsamples = 102\nvalue = [54, 48]"] ;
755 -> 757 ;
758 [label="X[1] <= 30.5\ngini = 0.478\nsamples = 71\nvalue = [43, 28]"] ;
757 -> 758 ;
759 [label="X[2] <= 85.55\ngini = 0.444\nsamples = 57\nvalue = [38, 19]"] ;
758 -> 759 ;
760 [label="X[2] <= 75.675\ngini = 0.375\nsamples = 36\nvalue = [27, 9]"] ;
759 -> 760 ;
761 [label="X[3] <= 1209.775\ngini = 0.498\nsamples = 17\nvalue = [9, 8]"] ;
760 -> 761 ;
762 [label="X[2] <= 69.475\ngini = 0.245\nsamples = 7\nvalue = [6, 1]"] ;
761 -> 762 ;
763 [label="gini = 0.0\nsamples = 1\nvalue = [0, 1]"] ;
762 -> 763 ;
764 [label="gini = 0.0\nsamples = 6\nvalue = [6, 0]"] ;
762 -> 764 ;
765 [label="X[5] <= 0.5\ngini = 0.42\nsamples = 10\nvalue = [3, 7]"] ;
761 -> 765 ;
766 [label="X[2] <= 72.2\ngini = 0.5\nsamples = 6\nvalue = [3, 3]"] ;
765 -> 766 ;
767 [label="gini = 0.0\nsamples = 2\nvalue = [2, 0]"] ;
766 -> 767 ;
768 [label="X[1] <= 18.5\ngini = 0.375\nsamples = 4\nvalue = [1, 3]"] ;
766 -> 768 ;
769 [label="gini = 0.0\nsamples = 1\nvalue = [1, 0]"] ;
768 -> 769 ;
770 [label="gini = 0.0\nsamples = 3\nvalue = [0, 3]"] ;
768 -> 770 ;
771 [label="gini = 0.0\nsamples = 4\nvalue = [0, 4]"] ;
765 -> 771 ;
772 [label="X[3] <= 2240.25\ngini = 0.1\nsamples = 19\nvalue = [18, 1]"] ;
760 -> 772 ;
773 [label="gini = 0.0\nsamples = 17\nvalue = [17, 0]"] ;
772 -> 773 ;
774 [label="X[6] <= 0.5\ngini = 0.5\nsamples = 2\nvalue = [1, 1]"] ;
772 -> 774 ;
775 [label="gini = 0.0\nsamples = 1\nvalue = [0, 1]"] ;
774 -> 775 ;
776 [label="gini = 0.0\nsamples = 1\nvalue = [1, 0]"] ;
774 -> 776 ;
777 [label="X[2] <= 94.85\ngini = 0.499\nsamples = 21\nvalue = [11, 10]"] ;
759 -> 777 ;
778 [label="X[18] <= 0.5\ngini = 0.459\nsamples = 14\nvalue = [5, 9]"] ;
777 -> 778 ;
779 [label="X[2] <= 92.775\ngini = 0.245\nsamples = 7\nvalue = [1, 6]"] ;
778 -> 779 ;
780 [label="gini = 0.0\nsamples = 5\nvalue = [0, 5]"] ;
779 -> 780 ;
781 [label="X[2] <= 94.675\ngini = 0.5\nsamples = 2\nvalue = [1, 1]"] ;
779 -> 781 ;
782 [label="gini = 0.0\nsamples = 1\nvalue = [1, 0]"] ;
781 -> 782 ;
783 [label="gini = 0.0\nsamples = 1\nvalue = [0, 1]"] ;
781 -> 783 ;
784 [label="X[2] <= 90.225\ngini = 0.49\nsamples = 7\nvalue = [4, 3]"] ;
778 -> 784 ;
785 [label="gini = 0.0\nsamples = 4\nvalue = [4, 0]"] ;
784 -> 785 ;
786 [label="gini = 0.0\nsamples = 3\nvalue = [0, 3]"] ;
784 -> 786 ;
787 [label="X[3] <= 1866.675\ngini = 0.245\nsamples = 7\nvalue = [6, 1]"] ;
777 -> 787 ;
788 [label="gini = 0.0\nsamples = 1\nvalue = [0, 1]"] ;
787 -> 788 ;
789 [label="gini = 0.0\nsamples = 6\nvalue = [6, 0]"] ;
787 -> 789 ;
790 [label="X[1] <= 36.5\ngini = 0.459\nsamples = 14\nvalue = [5, 9]"] ;
758 -> 790 ;
791 [label="X[3] <= 2650.175\ngini = 0.32\nsamples = 10\nvalue = [2, 8]"] ;
790 -> 791 ;
792 [label="gini = 0.0\nsamples = 5\nvalue = [0, 5]"] ;
791 -> 792 ;
793 [label="X[6] <= 0.5\ngini = 0.48\nsamples = 5\nvalue = [2, 3]"] ;
791 -> 793 ;
794 [label="X[11] <= 1.0\ngini = 0.444\nsamples = 3\nvalue = [2, 1]"] ;
793 -> 794 ;
795 [label="gini = 0.0\nsamples = 2\nvalue = [2, 0]"] ;
794 -> 795 ;
796 [label="gini = 0.0\nsamples = 1\nvalue = [0, 1]"] ;
794 -> 796 ;
797 [label="gini = 0.0\nsamples = 2\nvalue = [0, 2]"] ;
793 -> 797 ;
798 [label="X[18] <= 0.5\ngini = 0.375\nsamples = 4\nvalue = [3, 1]"] ;
790 -> 798 ;
799 [label="gini = 0.0\nsamples = 1\nvalue = [0, 1]"] ;
798 -> 799 ;
800 [label="gini = 0.0\nsamples = 3\nvalue = [3, 0]"] ;
798 -> 800 ;
801 [label="X[1] <= 33.5\ngini = 0.458\nsamples = 31\nvalue = [11, 20]"] ;
757 -> 801 ;
802 [label="X[3] <= 1219.8\ngini = 0.393\nsamples = 26\nvalue = [7, 19]"] ;
801 -> 802 ;
803 [label="gini = 0.0\nsamples = 6\nvalue = [0, 6]"] ;
802 -> 803 ;
804 [label="X[3] <= 2222.325\ngini = 0.455\nsamples = 20\nvalue = [7, 13]"] ;
802 -> 804 ;
805 [label="X[11] <= 1.0\ngini = 0.498\nsamples = 15\nvalue = [7, 8]"] ;
804 -> 805 ;
806 [label="X[3] <= 1924.75\ngini = 0.444\nsamples = 12\nvalue = [4, 8]"] ;
805 -> 806 ;
807 [label="X[2] <= 70.65\ngini = 0.32\nsamples = 10\nvalue = [2, 8]"] ;
806 -> 807 ;
808 [label="gini = 0.0\nsamples = 1\nvalue = [1, 0]"] ;
807 -> 808 ;
809 [label="X[3] <= 1263.725\ngini = 0.198\nsamples = 9\nvalue = [1, 8]"] ;
807 -> 809 ;
810 [label="gini = 0.0\nsamples = 1\nvalue = [1, 0]"] ;
809 -> 810 ;
811 [label="gini = 0.0\nsamples = 8\nvalue = [0, 8]"] ;
809 -> 811 ;
812 [label="gini = 0.0\nsamples = 2\nvalue = [2, 0]"] ;
806 -> 812 ;
813 [label="gini = 0.0\nsamples = 3\nvalue = [3, 0]"] ;
805 -> 813 ;
814 [label="gini = 0.0\nsamples = 5\nvalue = [0, 5]"] ;
804 -> 814 ;
815 [label="X[2] <= 74.925\ngini = 0.32\nsamples = 5\nvalue = [4, 1]"] ;
801 -> 815 ;
816 [label="gini = 0.0\nsamples = 4\nvalue = [4, 0]"] ;
815 -> 816 ;
817 [label="gini = 0.0\nsamples = 1\nvalue = [0, 1]"] ;
815 -> 817 ;
818 [label="X[2] <= 97.225\ngini = 0.423\nsamples = 56\nvalue = [39, 17]"] ;
752 -> 818 ;
819 [label="X[1] <= 35.5\ngini = 0.32\nsamples = 40\nvalue = [32, 8]"] ;
818 -> 819 ;
820 [label="X[2] <= 89.05\ngini = 0.295\nsamples = 39\nvalue = [32, 7]"] ;
819 -> 820 ;
821 [label="X[3] <= 2434.4\ngini = 0.165\nsamples = 22\nvalue = [20, 2]"] ;
820 -> 821 ;
822 [label="gini = 0.0\nsamples = 14\nvalue = [14, 0]"] ;
821 -> 822 ;
823 [label="X[1] <= 28.5\ngini = 0.375\nsamples = 8\nvalue = [6, 2]"] ;
821 -> 823 ;
824 [label="gini = 0.0\nsamples = 1\nvalue = [0, 1]"] ;
823 -> 824 ;
825 [label="X[5] <= 0.5\ngini = 0.245\nsamples = 7\nvalue = [6, 1]"] ;
823 -> 825 ;
826 [label="X[3] <= 2667.775\ngini = 0.444\nsamples = 3\nvalue = [2, 1]"] ;
825 -> 826 ;
827 [label="gini = 0.0\nsamples = 2\nvalue = [2, 0]"] ;
826 -> 827 ;
828 [label="gini = 0.0\nsamples = 1\nvalue = [0, 1]"] ;
826 -> 828 ;
829 [label="gini = 0.0\nsamples = 4\nvalue = [4, 0]"] ;
825 -> 829 ;
830 [label="X[2] <= 89.675\ngini = 0.415\nsamples = 17\nvalue = [12, 5]"] ;
820 -> 830 ;
831 [label="gini = 0.0\nsamples = 2\nvalue = [0, 2]"] ;
830 -> 831 ;
832 [label="X[18] <= 0.5\ngini = 0.32\nsamples = 15\nvalue = [12, 3]"] ;
830 -> 832 ;
833 [label="gini = 0.0\nsamples = 6\nvalue = [6, 0]"] ;
832 -> 833 ;
834 [label="X[1] <= 25.0\ngini = 0.444\nsamples = 9\nvalue = [6, 3]"] ;
832 -> 834 ;
835 [label="X[1] <= 18.5\ngini = 0.5\nsamples = 6\nvalue = [3, 3]"] ;
834 -> 835 ;
836 [label="X[11] <= 1.0\ngini = 0.375\nsamples = 4\nvalue = [3, 1]"] ;
835 -> 836 ;
837 [label="gini = 0.0\nsamples = 2\nvalue = [2, 0]"] ;
836 -> 837 ;
838 [label="X[1] <= 16.5\ngini = 0.5\nsamples = 2\nvalue = [1, 1]"] ;
836 -> 838 ;
839 [label="gini = 0.0\nsamples = 1\nvalue = [0, 1]"] ;
838 -> 839 ;
840 [label="gini = 0.0\nsamples = 1\nvalue = [1, 0]"] ;
838 -> 840 ;
841 [label="gini = 0.0\nsamples = 2\nvalue = [0, 2]"] ;
835 -> 841 ;
842 [label="gini = 0.0\nsamples = 3\nvalue = [3, 0]"] ;
834 -> 842 ;
843 [label="gini = 0.0\nsamples = 1\nvalue = [0, 1]"] ;
819 -> 843 ;
844 [label="X[1] <= 25.5\ngini = 0.492\nsamples = 16\nvalue = [7, 9]"] ;
818 -> 844 ;
845 [label="X[17] <= 0.5\ngini = 0.32\nsamples = 10\nvalue = [2, 8]"] ;
844 -> 845 ;
846 [label="gini = 0.0\nsamples = 1\nvalue = [1, 0]"] ;
845 -> 846 ;
847 [label="X[6] <= 0.5\ngini = 0.198\nsamples = 9\nvalue = [1, 8]"] ;
845 -> 847 ;
848 [label="gini = 0.0\nsamples = 7\nvalue = [0, 7]"] ;
847 -> 848 ;
849 [label="X[1] <= 17.5\ngini = 0.5\nsamples = 2\nvalue = [1, 1]"] ;
847 -> 849 ;
850 [label="gini = 0.0\nsamples = 1\nvalue = [1, 0]"] ;
849 -> 850 ;
851 [label="gini = 0.0\nsamples = 1\nvalue = [0, 1]"] ;
849 -> 851 ;
852 [label="X[2] <= 98.7\ngini = 0.278\nsamples = 6\nvalue = [5, 1]"] ;
844 -> 852 ;
853 [label="X[5] <= 0.5\ngini = 0.5\nsamples = 2\nvalue = [1, 1]"] ;
852 -> 853 ;
854 [label="gini = 0.0\nsamples = 1\nvalue = [0, 1]"] ;
853 -> 854 ;
855 [label="gini = 0.0\nsamples = 1\nvalue = [1, 0]"] ;
853 -> 855 ;
856 [label="gini = 0.0\nsamples = 4\nvalue = [4, 0]"] ;
852 -> 856 ;
857 [label="X[3] <= 3002.2\ngini = 0.483\nsamples = 339\nvalue = [138, 201]"] ;
751 -> 857 ;
858 [label="X[3] <= 2893.6\ngini = 0.487\nsamples = 329\nvalue = [138, 191]"] ;
857 -> 858 ;
859 [label="X[2] <= 97.175\ngini = 0.481\nsamples = 310\nvalue = [125, 185]"] ;
858 -> 859 ;
860 [label="X[2] <= 96.75\ngini = 0.49\nsamples = 263\nvalue = [113, 150]"] ;
859 -> 860 ;
861 [label="X[2] <= 95.85\ngini = 0.487\nsamples = 259\nvalue = [109, 150]"] ;
860 -> 861 ;
862 [label="X[2] <= 95.575\ngini = 0.491\nsamples = 252\nvalue = [109, 143]"] ;
861 -> 862 ;
863 [label="X[18] <= 2.5\ngini = 0.489\nsamples = 249\nvalue = [106, 143]"] ;
862 -> 863 ;
864 [label="X[1] <= 31.5\ngini = 0.481\nsamples = 223\nvalue = [90, 133]"] ;
863 -> 864 ;
865 [label="X[3] <= 1556.35\ngini = 0.487\nsamples = 207\nvalue = [87, 120]"] ;
864 -> 865 ;
866 [label="X[1] <= 12.5\ngini = 0.447\nsamples = 98\nvalue = [33, 65]"] ;
865 -> 866 ;
867 [label="X[3] <= 834.45\ngini = 0.499\nsamples = 29\nvalue = [15, 14]"] ;
866 -> 867 ;
868 [label="gini = 0.0\nsamples = 4\nvalue = [0, 4]"] ;
867 -> 868 ;
869 [label="X[3] <= 905.05\ngini = 0.48\nsamples = 25\nvalue = [15, 10]"] ;
867 -> 869 ;
870 [label="X[3] <= 856.075\ngini = 0.245\nsamples = 7\nvalue = [6, 1]"] ;
869 -> 870 ;
871 [label="X[3] <= 836.325\ngini = 0.5\nsamples = 2\nvalue = [1, 1]"] ;
870 -> 871 ;
872 [label="gini = 0.0\nsamples = 1\nvalue = [1, 0]"] ;
871 -> 872 ;
873 [label="gini = 0.0\nsamples = 1\nvalue = [0, 1]"] ;
871 -> 873 ;
874 [label="gini = 0.0\nsamples = 5\nvalue = [5, 0]"] ;
870 -> 874 ;
875 [label="X[0] <= 0.5\ngini = 0.5\nsamples = 18\nvalue = [9, 9]"] ;
869 -> 875 ;
876 [label="X[3] <= 946.4\ngini = 0.48\nsamples = 15\nvalue = [9, 6]"] ;
875 -> 876 ;
877 [label="gini = 0.0\nsamples = 2\nvalue = [0, 2]"] ;
876 -> 877 ;
878 [label="X[14] <= 1.0\ngini = 0.426\nsamples = 13\nvalue = [9, 4]"] ;
876 -> 878 ;
879 [label="gini = 0.0\nsamples = 4\nvalue = [4, 0]"] ;
878 -> 879 ;
880 [label="X[3] <= 1033.925\ngini = 0.494\nsamples = 9\nvalue = [5, 4]"] ;
878 -> 880 ;
881 [label="X[13] <= 1.0\ngini = 0.32\nsamples = 5\nvalue = [4, 1]"] ;
880 -> 881 ;
882 [label="gini = 0.0\nsamples = 4\nvalue = [4, 0]"] ;
881 -> 882 ;
883 [label="gini = 0.0\nsamples = 1\nvalue = [0, 1]"] ;
881 -> 883 ;
884 [label="X[17] <= 0.5\ngini = 0.375\nsamples = 4\nvalue = [1, 3]"] ;
880 -> 884 ;
885 [label="gini = 0.0\nsamples = 1\nvalue = [1, 0]"] ;
884 -> 885 ;
886 [label="gini = 0.0\nsamples = 3\nvalue = [0, 3]"] ;
884 -> 886 ;
887 [label="gini = 0.0\nsamples = 3\nvalue = [0, 3]"] ;
875 -> 887 ;
888 [label="X[2] <= 78.85\ngini = 0.386\nsamples = 69\nvalue = [18, 51]"] ;
866 -> 888 ;
889 [label="X[1] <= 18.5\ngini = 0.486\nsamples = 24\nvalue = [10, 14]"] ;
888 -> 889 ;
890 [label="X[3] <= 1200.65\ngini = 0.5\nsamples = 20\nvalue = [10, 10]"] ;
889 -> 890 ;
891 [label="X[4] <= 0.5\ngini = 0.444\nsamples = 12\nvalue = [4, 8]"] ;
890 -> 891 ;
892 [label="gini = 0.0\nsamples = 5\nvalue = [0, 5]"] ;
891 -> 892 ;
893 [label="X[3] <= 1025.05\ngini = 0.49\nsamples = 7\nvalue = [4, 3]"] ;
891 -> 893 ;
894 [label="gini = 0.0\nsamples = 2\nvalue = [2, 0]"] ;
893 -> 894 ;
895 [label="X[0] <= 0.5\ngini = 0.48\nsamples = 5\nvalue = [2, 3]"] ;
893 -> 895 ;
896 [label="X[2] <= 72.2\ngini = 0.444\nsamples = 3\nvalue = [2, 1]"] ;
895 -> 896 ;
897 [label="gini = 0.0\nsamples = 1\nvalue = [0, 1]"] ;
896 -> 897 ;
898 [label="gini = 0.0\nsamples = 2\nvalue = [2, 0]"] ;
896 -> 898 ;
899 [label="gini = 0.0\nsamples = 2\nvalue = [0, 2]"] ;
895 -> 899 ;
900 [label="X[3] <= 1309.75\ngini = 0.375\nsamples = 8\nvalue = [6, 2]"] ;
890 -> 900 ;
901 [label="gini = 0.0\nsamples = 4\nvalue = [4, 0]"] ;
900 -> 901 ;
902 [label="X[13] <= 1.0\ngini = 0.5\nsamples = 4\nvalue = [2, 2]"] ;
900 -> 902 ;
903 [label="X[4] <= 0.5\ngini = 0.444\nsamples = 3\nvalue = [1, 2]"] ;
902 -> 903 ;
904 [label="gini = 0.0\nsamples = 1\nvalue = [1, 0]"] ;
903 -> 904 ;
905 [label="gini = 0.0\nsamples = 2\nvalue = [0, 2]"] ;
903 -> 905 ;
906 [label="gini = 0.0\nsamples = 1\nvalue = [1, 0]"] ;
902 -> 906 ;
907 [label="gini = 0.0\nsamples = 4\nvalue = [0, 4]"] ;
889 -> 907 ;
908 [label="X[3] <= 1181.7\ngini = 0.292\nsamples = 45\nvalue = [8, 37]"] ;
888 -> 908 ;
909 [label="gini = 0.0\nsamples = 14\nvalue = [0, 14]"] ;
908 -> 909 ;
910 [label="X[3] <= 1219.225\ngini = 0.383\nsamples = 31\nvalue = [8, 23]"] ;
908 -> 910 ;
911 [label="X[2] <= 88.225\ngini = 0.48\nsamples = 5\nvalue = [3, 2]"] ;
910 -> 911 ;
912 [label="gini = 0.0\nsamples = 3\nvalue = [3, 0]"] ;
911 -> 912 ;
913 [label="gini = 0.0\nsamples = 2\nvalue = [0, 2]"] ;
911 -> 913 ;
914 [label="X[8] <= 1.0\ngini = 0.311\nsamples = 26\nvalue = [5, 21]"] ;
910 -> 914 ;
915 [label="X[0] <= 0.5\ngini = 0.496\nsamples = 11\nvalue = [5, 6]"] ;
914 -> 915 ;
916 [label="X[11] <= 1.0\ngini = 0.278\nsamples = 6\nvalue = [1, 5]"] ;
915 -> 916 ;
917 [label="gini = 0.0\nsamples = 5\nvalue = [0, 5]"] ;
916 -> 917 ;
918 [label="gini = 0.0\nsamples = 1\nvalue = [1, 0]"] ;
916 -> 918 ;
919 [label="X[13] <= 1.0\ngini = 0.32\nsamples = 5\nvalue = [4, 1]"] ;
915 -> 919 ;
920 [label="gini = 0.0\nsamples = 3\nvalue = [3, 0]"] ;
919 -> 920 ;
921 [label="X[14] <= 1.0\ngini = 0.5\nsamples = 2\nvalue = [1, 1]"] ;
919 -> 921 ;
922 [label="gini = 0.0\nsamples = 1\nvalue = [1, 0]"] ;
921 -> 922 ;
923 [label="gini = 0.0\nsamples = 1\nvalue = [0, 1]"] ;
921 -> 923 ;
924 [label="gini = 0.0\nsamples = 15\nvalue = [0, 15]"] ;
914 -> 924 ;
925 [label="X[3] <= 1679.775\ngini = 0.5\nsamples = 109\nvalue = [54, 55]"] ;
865 -> 925 ;
926 [label="X[13] <= 1.0\ngini = 0.278\nsamples = 12\nvalue = [10, 2]"] ;
925 -> 926 ;
927 [label="gini = 0.0\nsamples = 9\nvalue = [9, 0]"] ;
926 -> 927 ;
928 [label="X[3] <= 1603.75\ngini = 0.444\nsamples = 3\nvalue = [1, 2]"] ;
926 -> 928 ;
929 [label="gini = 0.0\nsamples = 1\nvalue = [1, 0]"] ;
928 -> 929 ;
930 [label="gini = 0.0\nsamples = 2\nvalue = [0, 2]"] ;
928 -> 930 ;
931 [label="X[2] <= 88.85\ngini = 0.496\nsamples = 97\nvalue = [44, 53]"] ;
925 -> 931 ;
932 [label="X[2] <= 85.35\ngini = 0.499\nsamples = 55\nvalue = [29, 26]"] ;
931 -> 932 ;
933 [label="X[2] <= 84.925\ngini = 0.498\nsamples = 45\nvalue = [21, 24]"] ;
932 -> 933 ;
934 [label="X[13] <= 1.0\ngini = 0.499\nsamples = 40\nvalue = [21, 19]"] ;
933 -> 934 ;
935 [label="X[3] <= 2406.625\ngini = 0.486\nsamples = 36\nvalue = [21, 15]"] ;
934 -> 935 ;
936 [label="X[3] <= 1733.9\ngini = 0.498\nsamples = 32\nvalue = [17, 15]"] ;
935 -> 936 ;
937 [label="gini = 0.0\nsamples = 2\nvalue = [0, 2]"] ;
936 -> 937 ;
938 [label="X[3] <= 1829.5\ngini = 0.491\nsamples = 30\nvalue = [17, 13]"] ;
936 -> 938 ;
939 [label="gini = 0.0\nsamples = 5\nvalue = [5, 0]"] ;
938 -> 939 ;
940 [label="X[1] <= 22.5\ngini = 0.499\nsamples = 25\nvalue = [12, 13]"] ;
938 -> 940 ;
941 [label="gini = 0.0\nsamples = 2\nvalue = [0, 2]"] ;
940 -> 941 ;
942 [label="X[11] <= 1.0\ngini = 0.499\nsamples = 23\nvalue = [12, 11]"] ;
940 -> 942 ;
943 [label="X[3] <= 1871.95\ngini = 0.494\nsamples = 18\nvalue = [8, 10]"] ;
942 -> 943 ;
944 [label="gini = 0.0\nsamples = 1\nvalue = [1, 0]"] ;
943 -> 944 ;
945 [label="X[6] <= 0.5\ngini = 0.484\nsamples = 17\nvalue = [7, 10]"] ;
943 -> 945 ;
946 [label="X[3] <= 1930.5\ngini = 0.5\nsamples = 14\nvalue = [7, 7]"] ;
945 -> 946 ;
947 [label="gini = 0.0\nsamples = 2\nvalue = [0, 2]"] ;
946 -> 947 ;
948 [label="X[5] <= 0.5\ngini = 0.486\nsamples = 12\nvalue = [7, 5]"] ;
946 -> 948 ;
949 [label="X[1] <= 28.5\ngini = 0.494\nsamples = 9\nvalue = [4, 5]"] ;
948 -> 949 ;
950 [label="X[2] <= 82.625\ngini = 0.49\nsamples = 7\nvalue = [4, 3]"] ;
949 -> 950 ;
951 [label="X[2] <= 78.425\ngini = 0.32\nsamples = 5\nvalue = [4, 1]"] ;
950 -> 951 ;
952 [label="gini = 0.0\nsamples = 1\nvalue = [0, 1]"] ;
951 -> 952 ;
953 [label="gini = 0.0\nsamples = 4\nvalue = [4, 0]"] ;
951 -> 953 ;
954 [label="gini = 0.0\nsamples = 2\nvalue = [0, 2]"] ;
950 -> 954 ;
955 [label="gini = 0.0\nsamples = 2\nvalue = [0, 2]"] ;
949 -> 955 ;
956 [label="gini = 0.0\nsamples = 3\nvalue = [3, 0]"] ;
948 -> 956 ;
957 [label="gini = 0.0\nsamples = 3\nvalue = [0, 3]"] ;
945 -> 957 ;
958 [label="X[3] <= 2107.725\ngini = 0.32\nsamples = 5\nvalue = [4, 1]"] ;
942 -> 958 ;
959 [label="gini = 0.0\nsamples = 4\nvalue = [4, 0]"] ;
958 -> 959 ;
960 [label="gini = 0.0\nsamples = 1\nvalue = [0, 1]"] ;
958 -> 960 ;
961 [label="gini = 0.0\nsamples = 4\nvalue = [4, 0]"] ;
935 -> 961 ;
962 [label="gini = 0.0\nsamples = 4\nvalue = [0, 4]"] ;
934 -> 962 ;
963 [label="gini = 0.0\nsamples = 5\nvalue = [0, 5]"] ;
933 -> 963 ;
964 [label="X[3] <= 1813.8\ngini = 0.32\nsamples = 10\nvalue = [8, 2]"] ;
932 -> 964 ;
965 [label="gini = 0.0\nsamples = 2\nvalue = [0, 2]"] ;
964 -> 965 ;
966 [label="gini = 0.0\nsamples = 8\nvalue = [8, 0]"] ;
964 -> 966 ;
967 [label="X[0] <= 0.5\ngini = 0.459\nsamples = 42\nvalue = [15, 27]"] ;
931 -> 967 ;
968 [label="X[2] <= 90.9\ngini = 0.5\nsamples = 24\nvalue = [12, 12]"] ;
967 -> 968 ;
969 [label="X[14] <= 1.0\ngini = 0.391\nsamples = 15\nvalue = [4, 11]"] ;
968 -> 969 ;
970 [label="X[1] <= 27.5\ngini = 0.49\nsamples = 7\nvalue = [4, 3]"] ;
969 -> 970 ;
971 [label="gini = 0.0\nsamples = 4\nvalue = [4, 0]"] ;
970 -> 971 ;
972 [label="gini = 0.0\nsamples = 3\nvalue = [0, 3]"] ;
970 -> 972 ;
973 [label="gini = 0.0\nsamples = 8\nvalue = [0, 8]"] ;
969 -> 973 ;
974 [label="X[3] <= 1689.925\ngini = 0.198\nsamples = 9\nvalue = [8, 1]"] ;
968 -> 974 ;
975 [label="gini = 0.0\nsamples = 1\nvalue = [0, 1]"] ;
974 -> 975 ;
976 [label="gini = 0.0\nsamples = 8\nvalue = [8, 0]"] ;
974 -> 976 ;
977 [label="X[1] <= 30.0\ngini = 0.278\nsamples = 18\nvalue = [3, 15]"] ;
967 -> 977 ;
978 [label="X[3] <= 2152.4\ngini = 0.208\nsamples = 17\nvalue = [2, 15]"] ;
977 -> 978 ;
979 [label="X[1] <= 22.0\ngini = 0.408\nsamples = 7\nvalue = [2, 5]"] ;
978 -> 979 ;
980 [label="X[2] <= 94.75\ngini = 0.278\nsamples = 6\nvalue = [1, 5]"] ;
979 -> 980 ;
981 [label="gini = 0.0\nsamples = 4\nvalue = [0, 4]"] ;
980 -> 981 ;
982 [label="X[2] <= 95.2\ngini = 0.5\nsamples = 2\nvalue = [1, 1]"] ;
980 -> 982 ;
983 [label="gini = 0.0\nsamples = 1\nvalue = [1, 0]"] ;
982 -> 983 ;
984 [label="gini = 0.0\nsamples = 1\nvalue = [0, 1]"] ;
982 -> 984 ;
985 [label="gini = 0.0\nsamples = 1\nvalue = [1, 0]"] ;
979 -> 985 ;
986 [label="gini = 0.0\nsamples = 10\nvalue = [0, 10]"] ;
978 -> 986 ;
987 [label="gini = 0.0\nsamples = 1\nvalue = [1, 0]"] ;
977 -> 987 ;
988 [label="X[2] <= 89.25\ngini = 0.305\nsamples = 16\nvalue = [3, 13]"] ;
864 -> 988 ;
989 [label="X[0] <= 0.5\ngini = 0.231\nsamples = 15\nvalue = [2, 13]"] ;
988 -> 989 ;
990 [label="gini = 0.0\nsamples = 7\nvalue = [0, 7]"] ;
989 -> 990 ;
991 [label="X[1] <= 35.5\ngini = 0.375\nsamples = 8\nvalue = [2, 6]"] ;
989 -> 991 ;
992 [label="X[3] <= 2663.05\ngini = 0.444\nsamples = 6\nvalue = [2, 4]"] ;
991 -> 992 ;
993 [label="X[1] <= 33.0\ngini = 0.32\nsamples = 5\nvalue = [1, 4]"] ;
992 -> 993 ;
994 [label="gini = 0.0\nsamples = 4\nvalue = [0, 4]"] ;
993 -> 994 ;
995 [label="gini = 0.0\nsamples = 1\nvalue = [1, 0]"] ;
993 -> 995 ;
996 [label="gini = 0.0\nsamples = 1\nvalue = [1, 0]"] ;
992 -> 996 ;
997 [label="gini = 0.0\nsamples = 2\nvalue = [0, 2]"] ;
991 -> 997 ;
998 [label="gini = 0.0\nsamples = 1\nvalue = [1, 0]"] ;
988 -> 998 ;
999 [label="X[2] <= 79.475\ngini = 0.473\nsamples = 26\nvalue = [16, 10]"] ;
863 -> 999 ;
1000 [label="X[3] <= 1780.3\ngini = 0.278\nsamples = 12\nvalue = [10, 2]"] ;
999 -> 1000 ;
1001 [label="X[1] <= 23.5\ngini = 0.408\nsamples = 7\nvalue = [5, 2]"] ;
1000 -> 1001 ;
1002 [label="X[2] <= 75.95\ngini = 0.278\nsamples = 6\nvalue = [5, 1]"] ;
1001 -> 1002 ;
1003 [label="gini = 0.0\nsamples = 4\nvalue = [4, 0]"] ;
1002 -> 1003 ;
1004 [label="X[3] <= 991.325\ngini = 0.5\nsamples = 2\nvalue = [1, 1]"] ;
1002 -> 1004 ;
1005 [label="gini = 0.0\nsamples = 1\nvalue = [1, 0]"] ;
1004 -> 1005 ;
1006 [label="gini = 0.0\nsamples = 1\nvalue = [0, 1]"] ;
1004 -> 1006 ;
1007 [label="gini = 0.0\nsamples = 1\nvalue = [0, 1]"] ;
1001 -> 1007 ;
1008 [label="gini = 0.0\nsamples = 5\nvalue = [5, 0]"] ;
1000 -> 1008 ;
1009 [label="X[13] <= 1.0\ngini = 0.49\nsamples = 14\nvalue = [6, 8]"] ;
999 -> 1009 ;
1010 [label="X[3] <= 1079.0\ngini = 0.444\nsamples = 12\nvalue = [4, 8]"] ;
1009 -> 1010 ;
1011 [label="gini = 0.0\nsamples = 1\nvalue = [1, 0]"] ;
1010 -> 1011 ;
1012 [label="X[3] <= 1892.175\ngini = 0.397\nsamples = 11\nvalue = [3, 8]"] ;
1010 -> 1012 ;
1013 [label="gini = 0.0\nsamples = 5\nvalue = [0, 5]"] ;
1012 -> 1013 ;
1014 [label="X[15] <= 1.0\ngini = 0.5\nsamples = 6\nvalue = [3, 3]"] ;
1012 -> 1014 ;
1015 [label="X[3] <= 2046.875\ngini = 0.375\nsamples = 4\nvalue = [1, 3]"] ;
1014 -> 1015 ;
1016 [label="gini = 0.0\nsamples = 1\nvalue = [1, 0]"] ;
1015 -> 1016 ;
1017 [label="gini = 0.0\nsamples = 3\nvalue = [0, 3]"] ;
1015 -> 1017 ;
1018 [label="gini = 0.0\nsamples = 2\nvalue = [2, 0]"] ;
1014 -> 1018 ;
1019 [label="gini = 0.0\nsamples = 2\nvalue = [2, 0]"] ;
1009 -> 1019 ;
1020 [label="gini = 0.0\nsamples = 3\nvalue = [3, 0]"] ;
862 -> 1020 ;
1021 [label="gini = 0.0\nsamples = 7\nvalue = [0, 7]"] ;
861 -> 1021 ;
1022 [label="gini = 0.0\nsamples = 4\nvalue = [4, 0]"] ;
860 -> 1022 ;
1023 [label="X[3] <= 2217.4\ngini = 0.38\nsamples = 47\nvalue = [12, 35]"] ;
859 -> 1023 ;
1024 [label="X[2] <= 101.575\ngini = 0.452\nsamples = 29\nvalue = [10, 19]"] ;
1023 -> 1024 ;
1025 [label="X[17] <= 0.5\ngini = 0.291\nsamples = 17\nvalue = [3, 14]"] ;
1024 -> 1025 ;
1026 [label="gini = 0.0\nsamples = 1\nvalue = [1, 0]"] ;
1025 -> 1026 ;
1027 [label="X[18] <= 2.5\ngini = 0.219\nsamples = 16\nvalue = [2, 14]"] ;
1025 -> 1027 ;
1028 [label="X[3] <= 1415.275\ngini = 0.133\nsamples = 14\nvalue = [1, 13]"] ;
1027 -> 1028 ;
1029 [label="X[3] <= 1392.4\ngini = 0.278\nsamples = 6\nvalue = [1, 5]"] ;
1028 -> 1029 ;
1030 [label="gini = 0.0\nsamples = 5\nvalue = [0, 5]"] ;
1029 -> 1030 ;
1031 [label="gini = 0.0\nsamples = 1\nvalue = [1, 0]"] ;
1029 -> 1031 ;
1032 [label="gini = 0.0\nsamples = 8\nvalue = [0, 8]"] ;
1028 -> 1032 ;
1033 [label="X[3] <= 1582.35\ngini = 0.5\nsamples = 2\nvalue = [1, 1]"] ;
1027 -> 1033 ;
1034 [label="gini = 0.0\nsamples = 1\nvalue = [0, 1]"] ;
1033 -> 1034 ;
1035 [label="gini = 0.0\nsamples = 1\nvalue = [1, 0]"] ;
1033 -> 1035 ;
1036 [label="X[1] <= 14.0\ngini = 0.486\nsamples = 12\nvalue = [7, 5]"] ;
1024 -> 1036 ;
1037 [label="X[6] <= 0.5\ngini = 0.444\nsamples = 6\nvalue = [2, 4]"] ;
1036 -> 1037 ;
1038 [label="X[3] <= 1218.475\ngini = 0.32\nsamples = 5\nvalue = [1, 4]"] ;
1037 -> 1038 ;
1039 [label="X[3] <= 1164.2\ngini = 0.5\nsamples = 2\nvalue = [1, 1]"] ;
1038 -> 1039 ;
1040 [label="gini = 0.0\nsamples = 1\nvalue = [0, 1]"] ;
1039 -> 1040 ;
1041 [label="gini = 0.0\nsamples = 1\nvalue = [1, 0]"] ;
1039 -> 1041 ;
1042 [label="gini = 0.0\nsamples = 3\nvalue = [0, 3]"] ;
1038 -> 1042 ;
1043 [label="gini = 0.0\nsamples = 1\nvalue = [1, 0]"] ;
1037 -> 1043 ;
1044 [label="X[6] <= 0.5\ngini = 0.278\nsamples = 6\nvalue = [5, 1]"] ;
1036 -> 1044 ;
1045 [label="gini = 0.0\nsamples = 5\nvalue = [5, 0]"] ;
1044 -> 1045 ;
1046 [label="gini = 0.0\nsamples = 1\nvalue = [0, 1]"] ;
1044 -> 1046 ;
1047 [label="X[1] <= 22.5\ngini = 0.198\nsamples = 18\nvalue = [2, 16]"] ;
1023 -> 1047 ;
1048 [label="X[2] <= 103.375\ngini = 0.444\nsamples = 3\nvalue = [1, 2]"] ;
1047 -> 1048 ;
1049 [label="gini = 0.0\nsamples = 1\nvalue = [1, 0]"] ;
1048 -> 1049 ;
1050 [label="gini = 0.0\nsamples = 2\nvalue = [0, 2]"] ;
1048 -> 1050 ;
1051 [label="X[2] <= 104.1\ngini = 0.124\nsamples = 15\nvalue = [1, 14]"] ;
1047 -> 1051 ;
1052 [label="gini = 0.0\nsamples = 9\nvalue = [0, 9]"] ;
1051 -> 1052 ;
1053 [label="X[2] <= 104.2\ngini = 0.278\nsamples = 6\nvalue = [1, 5]"] ;
1051 -> 1053 ;
1054 [label="gini = 0.0\nsamples = 1\nvalue = [1, 0]"] ;
1053 -> 1054 ;
1055 [label="gini = 0.0\nsamples = 5\nvalue = [0, 5]"] ;
1053 -> 1055 ;
1056 [label="X[1] <= 31.5\ngini = 0.432\nsamples = 19\nvalue = [13, 6]"] ;
858 -> 1056 ;
1057 [label="X[2] <= 100.75\ngini = 0.5\nsamples = 10\nvalue = [5, 5]"] ;
1056 -> 1057 ;
1058 [label="X[4] <= 0.5\ngini = 0.32\nsamples = 5\nvalue = [1, 4]"] ;
1057 -> 1058 ;
1059 [label="gini = 0.0\nsamples = 4\nvalue = [0, 4]"] ;
1058 -> 1059 ;
1060 [label="gini = 0.0\nsamples = 1\nvalue = [1, 0]"] ;
1058 -> 1060 ;
1061 [label="X[0] <= 0.5\ngini = 0.32\nsamples = 5\nvalue = [4, 1]"] ;
1057 -> 1061 ;
1062 [label="gini = 0.0\nsamples = 1\nvalue = [0, 1]"] ;
1061 -> 1062 ;
1063 [label="gini = 0.0\nsamples = 4\nvalue = [4, 0]"] ;
1061 -> 1063 ;
1064 [label="X[2] <= 92.275\ngini = 0.198\nsamples = 9\nvalue = [8, 1]"] ;
1056 -> 1064 ;
1065 [label="gini = 0.0\nsamples = 7\nvalue = [7, 0]"] ;
1064 -> 1065 ;
1066 [label="X[3] <= 2950.9\ngini = 0.5\nsamples = 2\nvalue = [1, 1]"] ;
1064 -> 1066 ;
1067 [label="gini = 0.0\nsamples = 1\nvalue = [0, 1]"] ;
1066 -> 1067 ;
1068 [label="gini = 0.0\nsamples = 1\nvalue = [1, 0]"] ;
1066 -> 1068 ;
1069 [label="gini = 0.0\nsamples = 10\nvalue = [0, 10]"] ;
857 -> 1069 ;
1070 [label="X[2] <= 95.6\ngini = 0.471\nsamples = 311\nvalue = [193, 118]"] ;
750 -> 1070 ;
1071 [label="X[0] <= 0.5\ngini = 0.403\nsamples = 161\nvalue = [116, 45]"] ;
1070 -> 1071 ;
1072 [label="X[1] <= 37.5\ngini = 0.322\nsamples = 104\nvalue = [83, 21]"] ;
1071 -> 1072 ;
1073 [label="gini = 0.0\nsamples = 15\nvalue = [15, 0]"] ;
1072 -> 1073 ;
1074 [label="X[1] <= 56.5\ngini = 0.361\nsamples = 89\nvalue = [68, 21]"] ;
1072 -> 1074 ;
1075 [label="X[3] <= 3256.95\ngini = 0.398\nsamples = 73\nvalue = [53, 20]"] ;
1074 -> 1075 ;
1076 [label="gini = 0.0\nsamples = 7\nvalue = [7, 0]"] ;
1075 -> 1076 ;
1077 [label="X[3] <= 3279.15\ngini = 0.422\nsamples = 66\nvalue = [46, 20]"] ;
1075 -> 1077 ;
1078 [label="gini = 0.0\nsamples = 2\nvalue = [0, 2]"] ;
1077 -> 1078 ;
1079 [label="X[8] <= 1.0\ngini = 0.404\nsamples = 64\nvalue = [46, 18]"] ;
1077 -> 1079 ;
1080 [label="X[1] <= 55.5\ngini = 0.208\nsamples = 17\nvalue = [15, 2]"] ;
1079 -> 1080 ;
1081 [label="X[15] <= 1.0\ngini = 0.124\nsamples = 15\nvalue = [14, 1]"] ;
1080 -> 1081 ;
1082 [label="gini = 0.0\nsamples = 11\nvalue = [11, 0]"] ;
1081 -> 1082 ;
1083 [label="X[1] <= 44.5\ngini = 0.375\nsamples = 4\nvalue = [3, 1]"] ;
1081 -> 1083 ;
1084 [label="gini = 0.0\nsamples = 2\nvalue = [2, 0]"] ;
1083 -> 1084 ;
1085 [label="X[1] <= 49.5\ngini = 0.5\nsamples = 2\nvalue = [1, 1]"] ;
1083 -> 1085 ;
1086 [label="gini = 0.0\nsamples = 1\nvalue = [0, 1]"] ;
1085 -> 1086 ;
1087 [label="gini = 0.0\nsamples = 1\nvalue = [1, 0]"] ;
1085 -> 1087 ;
1088 [label="X[4] <= 0.5\ngini = 0.5\nsamples = 2\nvalue = [1, 1]"] ;
1080 -> 1088 ;
1089 [label="gini = 0.0\nsamples = 1\nvalue = [0, 1]"] ;
1088 -> 1089 ;
1090 [label="gini = 0.0\nsamples = 1\nvalue = [1, 0]"] ;
1088 -> 1090 ;
1091 [label="X[1] <= 41.5\ngini = 0.449\nsamples = 47\nvalue = [31, 16]"] ;
1079 -> 1091 ;
1092 [label="X[13] <= 1.0\ngini = 0.198\nsamples = 9\nvalue = [8, 1]"] ;
1091 -> 1092 ;
1093 [label="gini = 0.0\nsamples = 8\nvalue = [8, 0]"] ;
1092 -> 1093 ;
1094 [label="gini = 0.0\nsamples = 1\nvalue = [0, 1]"] ;
1092 -> 1094 ;
1095 [label="X[1] <= 53.5\ngini = 0.478\nsamples = 38\nvalue = [23, 15]"] ;
1091 -> 1095 ;
1096 [label="X[2] <= 78.875\ngini = 0.497\nsamples = 28\nvalue = [15, 13]"] ;
1095 -> 1096 ;
1097 [label="gini = 0.0\nsamples = 2\nvalue = [0, 2]"] ;
1096 -> 1097 ;
1098 [label="X[14] <= 1.0\ngini = 0.488\nsamples = 26\nvalue = [15, 11]"] ;
1096 -> 1098 ;
1099 [label="X[12] <= 1.0\ngini = 0.415\nsamples = 17\nvalue = [12, 5]"] ;
1098 -> 1099 ;
1100 [label="gini = 0.0\nsamples = 7\nvalue = [7, 0]"] ;
1099 -> 1100 ;
1101 [label="X[6] <= 0.5\ngini = 0.5\nsamples = 10\nvalue = [5, 5]"] ;
1099 -> 1101 ;
1102 [label="X[1] <= 44.5\ngini = 0.469\nsamples = 8\nvalue = [3, 5]"] ;
1101 -> 1102 ;
1103 [label="X[2] <= 85.35\ngini = 0.48\nsamples = 5\nvalue = [3, 2]"] ;
1102 -> 1103 ;
1104 [label="X[17] <= 0.5\ngini = 0.444\nsamples = 3\nvalue = [1, 2]"] ;
1103 -> 1104 ;
1105 [label="gini = 0.0\nsamples = 1\nvalue = [1, 0]"] ;
1104 -> 1105 ;
1106 [label="gini = 0.0\nsamples = 2\nvalue = [0, 2]"] ;
1104 -> 1106 ;
1107 [label="gini = 0.0\nsamples = 2\nvalue = [2, 0]"] ;
1103 -> 1107 ;
1108 [label="gini = 0.0\nsamples = 3\nvalue = [0, 3]"] ;
1102 -> 1108 ;
1109 [label="gini = 0.0\nsamples = 2\nvalue = [2, 0]"] ;
1101 -> 1109 ;
1110 [label="X[1] <= 46.0\ngini = 0.444\nsamples = 9\nvalue = [3, 6]"] ;
1098 -> 1110 ;
1111 [label="gini = 0.0\nsamples = 3\nvalue = [0, 3]"] ;
1110 -> 1111 ;
1112 [label="X[1] <= 49.5\ngini = 0.5\nsamples = 6\nvalue = [3, 3]"] ;
1110 -> 1112 ;
1113 [label="gini = 0.0\nsamples = 2\nvalue = [2, 0]"] ;
1112 -> 1113 ;
1114 [label="X[11] <= 1.0\ngini = 0.375\nsamples = 4\nvalue = [1, 3]"] ;
1112 -> 1114 ;
1115 [label="gini = 0.0\nsamples = 3\nvalue = [0, 3]"] ;
1114 -> 1115 ;
1116 [label="gini = 0.0\nsamples = 1\nvalue = [1, 0]"] ;
1114 -> 1116 ;
1117 [label="X[18] <= 1.5\ngini = 0.32\nsamples = 10\nvalue = [8, 2]"] ;
1095 -> 1117 ;
1118 [label="gini = 0.0\nsamples = 7\nvalue = [7, 0]"] ;
1117 -> 1118 ;
1119 [label="X[3] <= 4301.525\ngini = 0.444\nsamples = 3\nvalue = [1, 2]"] ;
1117 -> 1119 ;
1120 [label="gini = 0.0\nsamples = 1\nvalue = [1, 0]"] ;
1119 -> 1120 ;
1121 [label="gini = 0.0\nsamples = 2\nvalue = [0, 2]"] ;
1119 -> 1121 ;
1122 [label="X[3] <= 5935.925\ngini = 0.117\nsamples = 16\nvalue = [15, 1]"] ;
1074 -> 1122 ;
1123 [label="gini = 0.0\nsamples = 12\nvalue = [12, 0]"] ;
1122 -> 1123 ;
1124 [label="X[1] <= 65.5\ngini = 0.375\nsamples = 4\nvalue = [3, 1]"] ;
1122 -> 1124 ;
1125 [label="gini = 0.0\nsamples = 1\nvalue = [0, 1]"] ;
1124 -> 1125 ;
1126 [label="gini = 0.0\nsamples = 3\nvalue = [3, 0]"] ;
1124 -> 1126 ;
1127 [label="X[3] <= 3643.025\ngini = 0.488\nsamples = 57\nvalue = [33, 24]"] ;
1071 -> 1127 ;
1128 [label="X[17] <= 0.5\ngini = 0.43\nsamples = 16\nvalue = [5, 11]"] ;
1127 -> 1128 ;
1129 [label="X[1] <= 45.5\ngini = 0.375\nsamples = 4\nvalue = [3, 1]"] ;
1128 -> 1129 ;
1130 [label="gini = 0.0\nsamples = 3\nvalue = [3, 0]"] ;
1129 -> 1130 ;
1131 [label="gini = 0.0\nsamples = 1\nvalue = [0, 1]"] ;
1129 -> 1131 ;
1132 [label="X[11] <= 1.0\ngini = 0.278\nsamples = 12\nvalue = [2, 10]"] ;
1128 -> 1132 ;
1133 [label="gini = 0.0\nsamples = 9\nvalue = [0, 9]"] ;
1132 -> 1133 ;
1134 [label="X[1] <= 35.0\ngini = 0.444\nsamples = 3\nvalue = [2, 1]"] ;
1132 -> 1134 ;
1135 [label="gini = 0.0\nsamples = 1\nvalue = [0, 1]"] ;
1134 -> 1135 ;
1136 [label="gini = 0.0\nsamples = 2\nvalue = [2, 0]"] ;
1134 -> 1136 ;
1137 [label="X[3] <= 4099.225\ngini = 0.433\nsamples = 41\nvalue = [28, 13]"] ;
1127 -> 1137 ;
1138 [label="X[18] <= 2.5\ngini = 0.142\nsamples = 13\nvalue = [12, 1]"] ;
1137 -> 1138 ;
1139 [label="gini = 0.0\nsamples = 12\nvalue = [12, 0]"] ;
1138 -> 1139 ;
1140 [label="gini = 0.0\nsamples = 1\nvalue = [0, 1]"] ;
1138 -> 1140 ;
1141 [label="X[3] <= 4896.775\ngini = 0.49\nsamples = 28\nvalue = [16, 12]"] ;
1137 -> 1141 ;
1142 [label="X[11] <= 1.0\ngini = 0.397\nsamples = 11\nvalue = [3, 8]"] ;
1141 -> 1142 ;
1143 [label="X[3] <= 4443.3\ngini = 0.375\nsamples = 4\nvalue = [3, 1]"] ;
1142 -> 1143 ;
1144 [label="gini = 0.0\nsamples = 3\nvalue = [3, 0]"] ;
1143 -> 1144 ;
1145 [label="gini = 0.0\nsamples = 1\nvalue = [0, 1]"] ;
1143 -> 1145 ;
1146 [label="gini = 0.0\nsamples = 7\nvalue = [0, 7]"] ;
1142 -> 1146 ;
1147 [label="X[12] <= 1.0\ngini = 0.36\nsamples = 17\nvalue = [13, 4]"] ;
1141 -> 1147 ;
1148 [label="X[3] <= 5078.075\ngini = 0.5\nsamples = 8\nvalue = [4, 4]"] ;
1147 -> 1148 ;
1149 [label="gini = 0.0\nsamples = 3\nvalue = [3, 0]"] ;
1148 -> 1149 ;
1150 [label="X[2] <= 94.25\ngini = 0.32\nsamples = 5\nvalue = [1, 4]"] ;
1148 -> 1150 ;
1151 [label="gini = 0.0\nsamples = 4\nvalue = [0, 4]"] ;
1150 -> 1151 ;
1152 [label="gini = 0.0\nsamples = 1\nvalue = [1, 0]"] ;
1150 -> 1152 ;
1153 [label="gini = 0.0\nsamples = 9\nvalue = [9, 0]"] ;
1147 -> 1153 ;
1154 [label="X[4] <= 0.5\ngini = 0.5\nsamples = 150\nvalue = [77, 73]"] ;
1070 -> 1154 ;
1155 [label="X[13] <= 1.0\ngini = 0.469\nsamples = 72\nvalue = [45, 27]"] ;
1154 -> 1155 ;
1156 [label="X[3] <= 3136.8\ngini = 0.499\nsamples = 48\nvalue = [25, 23]"] ;
1155 -> 1156 ;
1157 [label="gini = 0.0\nsamples = 3\nvalue = [3, 0]"] ;
1156 -> 1157 ;
1158 [label="X[3] <= 3630.55\ngini = 0.5\nsamples = 45\nvalue = [22, 23]"] ;
1156 -> 1158 ;
1159 [label="X[1] <= 33.5\ngini = 0.375\nsamples = 12\nvalue = [3, 9]"] ;
1158 -> 1159 ;
1160 [label="X[1] <= 31.5\ngini = 0.5\nsamples = 6\nvalue = [3, 3]"] ;
1159 -> 1160 ;
1161 [label="gini = 0.0\nsamples = 2\nvalue = [0, 2]"] ;
1160 -> 1161 ;
1162 [label="X[5] <= 0.5\ngini = 0.375\nsamples = 4\nvalue = [3, 1]"] ;
1160 -> 1162 ;
1163 [label="gini = 0.0\nsamples = 3\nvalue = [3, 0]"] ;
1162 -> 1163 ;
1164 [label="gini = 0.0\nsamples = 1\nvalue = [0, 1]"] ;
1162 -> 1164 ;
1165 [label="gini = 0.0\nsamples = 6\nvalue = [0, 6]"] ;
1159 -> 1165 ;
1166 [label="X[3] <= 6771.2\ngini = 0.489\nsamples = 33\nvalue = [19, 14]"] ;
1158 -> 1166 ;
1167 [label="X[3] <= 6398.85\ngini = 0.475\nsamples = 31\nvalue = [19, 12]"] ;
1166 -> 1167 ;
1168 [label="X[3] <= 5076.475\ngini = 0.49\nsamples = 28\nvalue = [16, 12]"] ;
1167 -> 1168 ;
1169 [label="X[2] <= 96.2\ngini = 0.415\nsamples = 17\nvalue = [12, 5]"] ;
1168 -> 1169 ;
1170 [label="gini = 0.0\nsamples = 1\nvalue = [0, 1]"] ;
1169 -> 1170 ;
1171 [label="X[1] <= 42.5\ngini = 0.375\nsamples = 16\nvalue = [12, 4]"] ;
1169 -> 1171 ;
1172 [label="X[3] <= 4228.7\ngini = 0.48\nsamples = 10\nvalue = [6, 4]"] ;
1171 -> 1172 ;
1173 [label="X[1] <= 39.5\ngini = 0.375\nsamples = 8\nvalue = [6, 2]"] ;
1172 -> 1173 ;
1174 [label="X[5] <= 0.5\ngini = 0.48\nsamples = 5\nvalue = [3, 2]"] ;
1173 -> 1174 ;
1175 [label="X[3] <= 3902.5\ngini = 0.375\nsamples = 4\nvalue = [3, 1]"] ;
1174 -> 1175 ;
1176 [label="gini = 0.0\nsamples = 2\nvalue = [2, 0]"] ;
1175 -> 1176 ;
1177 [label="X[0] <= 0.5\ngini = 0.5\nsamples = 2\nvalue = [1, 1]"] ;
1175 -> 1177 ;
1178 [label="gini = 0.0\nsamples = 1\nvalue = [0, 1]"] ;
1177 -> 1178 ;
1179 [label="gini = 0.0\nsamples = 1\nvalue = [1, 0]"] ;
1177 -> 1179 ;
1180 [label="gini = 0.0\nsamples = 1\nvalue = [0, 1]"] ;
1174 -> 1180 ;
1181 [label="gini = 0.0\nsamples = 3\nvalue = [3, 0]"] ;
1173 -> 1181 ;
1182 [label="gini = 0.0\nsamples = 2\nvalue = [0, 2]"] ;
1172 -> 1182 ;
1183 [label="gini = 0.0\nsamples = 6\nvalue = [6, 0]"] ;
1171 -> 1183 ;
1184 [label="X[1] <= 54.0\ngini = 0.463\nsamples = 11\nvalue = [4, 7]"] ;
1168 -> 1184 ;
1185 [label="gini = 0.0\nsamples = 3\nvalue = [0, 3]"] ;
1184 -> 1185 ;
1186 [label="X[3] <= 5682.35\ngini = 0.5\nsamples = 8\nvalue = [4, 4]"] ;
1184 -> 1186 ;
1187 [label="gini = 0.0\nsamples = 2\nvalue = [2, 0]"] ;
1186 -> 1187 ;
1188 [label="X[17] <= 0.5\ngini = 0.444\nsamples = 6\nvalue = [2, 4]"] ;
1186 -> 1188 ;
1189 [label="gini = 0.0\nsamples = 1\nvalue = [1, 0]"] ;
1188 -> 1189 ;
1190 [label="X[2] <= 100.225\ngini = 0.32\nsamples = 5\nvalue = [1, 4]"] ;
1188 -> 1190 ;
1191 [label="X[1] <= 60.5\ngini = 0.5\nsamples = 2\nvalue = [1, 1]"] ;
1190 -> 1191 ;
1192 [label="gini = 0.0\nsamples = 1\nvalue = [1, 0]"] ;
1191 -> 1192 ;
1193 [label="gini = 0.0\nsamples = 1\nvalue = [0, 1]"] ;
1191 -> 1193 ;
1194 [label="gini = 0.0\nsamples = 3\nvalue = [0, 3]"] ;
1190 -> 1194 ;
1195 [label="gini = 0.0\nsamples = 3\nvalue = [3, 0]"] ;
1167 -> 1195 ;
1196 [label="gini = 0.0\nsamples = 2\nvalue = [0, 2]"] ;
1166 -> 1196 ;
1197 [label="X[2] <= 110.15\ngini = 0.278\nsamples = 24\nvalue = [20, 4]"] ;
1155 -> 1197 ;
1198 [label="X[1] <= 32.5\ngini = 0.18\nsamples = 20\nvalue = [18, 2]"] ;
1197 -> 1198 ;
1199 [label="X[1] <= 30.5\ngini = 0.5\nsamples = 2\nvalue = [1, 1]"] ;
1198 -> 1199 ;
1200 [label="gini = 0.0\nsamples = 1\nvalue = [1, 0]"] ;
1199 -> 1200 ;
1201 [label="gini = 0.0\nsamples = 1\nvalue = [0, 1]"] ;
1199 -> 1201 ;
1202 [label="X[2] <= 101.4\ngini = 0.105\nsamples = 18\nvalue = [17, 1]"] ;
1198 -> 1202 ;
1203 [label="X[2] <= 100.075\ngini = 0.278\nsamples = 6\nvalue = [5, 1]"] ;
1202 -> 1203 ;
1204 [label="gini = 0.0\nsamples = 5\nvalue = [5, 0]"] ;
1203 -> 1204 ;
1205 [label="gini = 0.0\nsamples = 1\nvalue = [0, 1]"] ;
1203 -> 1205 ;
1206 [label="gini = 0.0\nsamples = 12\nvalue = [12, 0]"] ;
1202 -> 1206 ;
1207 [label="X[5] <= 0.5\ngini = 0.5\nsamples = 4\nvalue = [2, 2]"] ;
1197 -> 1207 ;
1208 [label="gini = 0.0\nsamples = 2\nvalue = [0, 2]"] ;
1207 -> 1208 ;
1209 [label="gini = 0.0\nsamples = 2\nvalue = [2, 0]"] ;
1207 -> 1209 ;
1210 [label="X[1] <= 38.5\ngini = 0.484\nsamples = 78\nvalue = [32, 46]"] ;
1154 -> 1210 ;
1211 [label="X[2] <= 100.425\ngini = 0.484\nsamples = 17\nvalue = [10, 7]"] ;
1210 -> 1211 ;
1212 [label="X[11] <= 1.0\ngini = 0.408\nsamples = 7\nvalue = [2, 5]"] ;
1211 -> 1212 ;
1213 [label="gini = 0.0\nsamples = 4\nvalue = [0, 4]"] ;
1212 -> 1213 ;
1214 [label="X[0] <= 0.5\ngini = 0.444\nsamples = 3\nvalue = [2, 1]"] ;
1212 -> 1214 ;
1215 [label="gini = 0.0\nsamples = 2\nvalue = [2, 0]"] ;
1214 -> 1215 ;
1216 [label="gini = 0.0\nsamples = 1\nvalue = [0, 1]"] ;
1214 -> 1216 ;
1217 [label="X[5] <= 0.5\ngini = 0.32\nsamples = 10\nvalue = [8, 2]"] ;
1211 -> 1217 ;
1218 [label="X[3] <= 3544.95\ngini = 0.5\nsamples = 4\nvalue = [2, 2]"] ;
1217 -> 1218 ;
1219 [label="gini = 0.0\nsamples = 2\nvalue = [2, 0]"] ;
1218 -> 1219 ;
1220 [label="gini = 0.0\nsamples = 2\nvalue = [0, 2]"] ;
1218 -> 1220 ;
1221 [label="gini = 0.0\nsamples = 6\nvalue = [6, 0]"] ;
1217 -> 1221 ;
1222 [label="X[1] <= 44.5\ngini = 0.461\nsamples = 61\nvalue = [22, 39]"] ;
1210 -> 1222 ;
1223 [label="X[2] <= 100.425\ngini = 0.133\nsamples = 14\nvalue = [1, 13]"] ;
1222 -> 1223 ;
1224 [label="X[3] <= 4205.35\ngini = 0.32\nsamples = 5\nvalue = [1, 4]"] ;
1223 -> 1224 ;
1225 [label="gini = 0.0\nsamples = 4\nvalue = [0, 4]"] ;
1224 -> 1225 ;
1226 [label="gini = 0.0\nsamples = 1\nvalue = [1, 0]"] ;
1224 -> 1226 ;
1227 [label="gini = 0.0\nsamples = 9\nvalue = [0, 9]"] ;
1223 -> 1227 ;
1228 [label="X[2] <= 99.25\ngini = 0.494\nsamples = 47\nvalue = [21, 26]"] ;
1222 -> 1228 ;
1229 [label="X[11] <= 1.0\ngini = 0.444\nsamples = 18\nvalue = [12, 6]"] ;
1228 -> 1229 ;
1230 [label="X[2] <= 98.775\ngini = 0.408\nsamples = 7\nvalue = [2, 5]"] ;
1229 -> 1230 ;
1231 [label="gini = 0.0\nsamples = 5\nvalue = [0, 5]"] ;
1230 -> 1231 ;
1232 [label="gini = 0.0\nsamples = 2\nvalue = [2, 0]"] ;
1230 -> 1232 ;
1233 [label="X[2] <= 95.825\ngini = 0.165\nsamples = 11\nvalue = [10, 1]"] ;
1229 -> 1233 ;
1234 [label="X[2] <= 95.7\ngini = 0.5\nsamples = 2\nvalue = [1, 1]"] ;
1233 -> 1234 ;
1235 [label="gini = 0.0\nsamples = 1\nvalue = [1, 0]"] ;
1234 -> 1235 ;
1236 [label="gini = 0.0\nsamples = 1\nvalue = [0, 1]"] ;
1234 -> 1236 ;
1237 [label="gini = 0.0\nsamples = 9\nvalue = [9, 0]"] ;
1233 -> 1237 ;
1238 [label="X[5] <= 0.5\ngini = 0.428\nsamples = 29\nvalue = [9, 20]"] ;
1228 -> 1238 ;
1239 [label="X[0] <= 0.5\ngini = 0.444\nsamples = 9\nvalue = [6, 3]"] ;
1238 -> 1239 ;
1240 [label="X[3] <= 6037.65\ngini = 0.48\nsamples = 5\nvalue = [2, 3]"] ;
1239 -> 1240 ;
1241 [label="X[2] <= 103.675\ngini = 0.444\nsamples = 3\nvalue = [2, 1]"] ;
1240 -> 1241 ;
1242 [label="gini = 0.0\nsamples = 2\nvalue = [2, 0]"] ;
1241 -> 1242 ;
1243 [label="gini = 0.0\nsamples = 1\nvalue = [0, 1]"] ;
1241 -> 1243 ;
1244 [label="gini = 0.0\nsamples = 2\nvalue = [0, 2]"] ;
1240 -> 1244 ;
1245 [label="gini = 0.0\nsamples = 4\nvalue = [4, 0]"] ;
1239 -> 1245 ;
1246 [label="X[2] <= 107.55\ngini = 0.255\nsamples = 20\nvalue = [3, 17]"] ;
1238 -> 1246 ;
1247 [label="X[1] <= 48.0\ngini = 0.111\nsamples = 17\nvalue = [1, 16]"] ;
1246 -> 1247 ;
1248 [label="X[3] <= 5127.05\ngini = 0.375\nsamples = 4\nvalue = [1, 3]"] ;
1247 -> 1248 ;
1249 [label="gini = 0.0\nsamples = 3\nvalue = [0, 3]"] ;
1248 -> 1249 ;
1250 [label="gini = 0.0\nsamples = 1\nvalue = [1, 0]"] ;
1248 -> 1250 ;
1251 [label="gini = 0.0\nsamples = 13\nvalue = [0, 13]"] ;
1247 -> 1251 ;
1252 [label="X[18] <= 1.0\ngini = 0.444\nsamples = 3\nvalue = [2, 1]"] ;
1246 -> 1252 ;
1253 [label="gini = 0.0\nsamples = 1\nvalue = [1, 0]"] ;
1252 -> 1253 ;
1254 [label="X[1] <= 54.0\ngini = 0.5\nsamples = 2\nvalue = [1, 1]"] ;
1252 -> 1254 ;
1255 [label="gini = 0.0\nsamples = 1\nvalue = [0, 1]"] ;
1254 -> 1255 ;
1256 [label="gini = 0.0\nsamples = 1\nvalue = [1, 0]"] ;
1254 -> 1256 ;
1257 [label="X[2] <= 91.45\ngini = 0.366\nsamples = 987\nvalue = [749, 238]"] ;
1 -> 1257 ;
1258 [label="X[1] <= 2.5\ngini = 0.333\nsamples = 839\nvalue = [662, 177]"] ;
1257 -> 1258 ;
1259 [label="X[17] <= 0.5\ngini = 0.442\nsamples = 203\nvalue = [136, 67]"] ;
1258 -> 1259 ;
1260 [label="X[0] <= 0.5\ngini = 0.371\nsamples = 130\nvalue = [98, 32]"] ;
1259 -> 1260 ;
1261 [label="X[3] <= 39.0\ngini = 0.354\nsamples = 126\nvalue = [97, 29]"] ;
1260 -> 1261 ;
1262 [label="X[3] <= 19.225\ngini = 0.398\nsamples = 95\nvalue = [69, 26]"] ;
1261 -> 1262 ;
1263 [label="gini = 0.0\nsamples = 8\nvalue = [8, 0]"] ;
1262 -> 1263 ;
1264 [label="X[2] <= 30.2\ngini = 0.419\nsamples = 87\nvalue = [61, 26]"] ;
1262 -> 1264 ;
1265 [label="X[18] <= 2.5\ngini = 0.412\nsamples = 86\nvalue = [61, 25]"] ;
1264 -> 1265 ;
1266 [label="X[18] <= 0.5\ngini = 0.278\nsamples = 24\nvalue = [20, 4]"] ;
1265 -> 1266 ;
1267 [label="X[6] <= 0.5\ngini = 0.444\nsamples = 6\nvalue = [4, 2]"] ;
1266 -> 1267 ;
1268 [label="X[3] <= 19.975\ngini = 0.32\nsamples = 5\nvalue = [4, 1]"] ;
1267 -> 1268 ;
1269 [label="gini = 0.0\nsamples = 2\nvalue = [2, 0]"] ;
1268 -> 1269 ;
1270 [label="X[2] <= 20.125\ngini = 0.444\nsamples = 3\nvalue = [2, 1]"] ;
1268 -> 1270 ;
1271 [label="gini = 0.0\nsamples = 1\nvalue = [0, 1]"] ;
1270 -> 1271 ;
1272 [label="gini = 0.0\nsamples = 2\nvalue = [2, 0]"] ;
1270 -> 1272 ;
1273 [label="gini = 0.0\nsamples = 1\nvalue = [0, 1]"] ;
1267 -> 1273 ;
