digraph Tree {
node [shape=box] ;
0 [label="X[9] <= 0.807\nentropy = 0.843\nsamples = 5634\nvalue = [4108, 1526]"] ;
1 [label="X[0] <= 3.657\nentropy = 0.985\nsamples = 2827\nvalue = [1620, 1207]"] ;
0 -> 1 [labeldistance=2.5, labelangle=45, headlabel="True"] ;
2 [label="X[8] <= 0.512\nentropy = 0.894\nsamples = 576\nvalue = [179, 397]"] ;
1 -> 2 ;
3 [label="X[16] <= 0.785\nentropy = 0.99\nsamples = 245\nvalue = [108, 137]"] ;
2 -> 3 ;
4 [label="X[15] <= 0.318\nentropy = 0.993\nsamples = 104\nvalue = [57, 47]"] ;
3 -> 4 ;
5 [label="entropy = 0.997\nsamples = 101\nvalue = [54, 47]"] ;
4 -> 5 ;
6 [label="entropy = 0.0\nsamples = 3\nvalue = [3, 0]"] ;
4 -> 6 ;
7 [label="X[6] <= 0.19\nentropy = 0.944\nsamples = 141\nvalue = [51, 90]"] ;
3 -> 7 ;
8 [label="entropy = 0.659\nsamples = 41\nvalue = [7, 34]"] ;
7 -> 8 ;
9 [label="entropy = 0.99\nsamples = 100\nvalue = [44, 56]"] ;
7 -> 9 ;
10 [label="X[7] <= 1.524\nentropy = 0.75\nsamples = 331\nvalue = [71, 260]"] ;
2 -> 10 ;
11 [label="X[0] <= 1.308\nentropy = 0.825\nsamples = 228\nvalue = [59, 169]"] ;
10 -> 11 ;
12 [label="entropy = 0.597\nsamples = 138\nvalue = [20, 118]"] ;
11 -> 12 ;
13 [label="entropy = 0.987\nsamples = 90\nvalue = [39, 51]"] ;
11 -> 13 ;
14 [label="X[5] <= 0.59\nentropy = 0.519\nsamples = 103\nvalue = [12, 91]"] ;
10 -> 14 ;
15 [label="entropy = 0.54\nsamples = 97\nvalue = [12, 85]"] ;
14 -> 15 ;
16 [label="entropy = 0.0\nsamples = 6\nvalue = [0, 6]"] ;
14 -> 16 ;
17 [label="X[8] <= 0.378\nentropy = 0.943\nsamples = 2251\nvalue = [1441, 810]"] ;
1 -> 17 ;
18 [label="X[15] <= 0.862\nentropy = 0.708\nsamples = 751\nvalue = [606, 145]"] ;
17 -> 18 ;
19 [label="X[10] <= 1.839\nentropy = 0.832\nsamples = 440\nvalue = [324, 116]"] ;
18 -> 19 ;
20 [label="entropy = 0.883\nsamples = 299\nvalue = [209, 90]"] ;
19 -> 20 ;
21 [label="entropy = 0.69\nsamples = 141\nvalue = [115, 26]"] ;
19 -> 21 ;
22 [label="X[15] <= 1.689\nentropy = 0.447\nsamples = 311\nvalue = [282, 29]"] ;
18 -> 22 ;
23 [label="entropy = 0.567\nsamples = 187\nvalue = [162, 25]"] ;
22 -> 23 ;
24 [label="entropy = 0.206\nsamples = 124\nvalue = [120, 4]"] ;
22 -> 24 ;
25 [label="X[15] <= 0.263\nentropy = 0.991\nsamples = 1500\nvalue = [835, 665]"] ;
17 -> 25 ;
26 [label="X[0] <= 20.576\nentropy = 0.996\nsamples = 1118\nvalue = [519, 599]"] ;
25 -> 26 ;
27 [label="entropy = 0.945\nsamples = 540\nvalue = [196, 344]"] ;
26 -> 27 ;
28 [label="entropy = 0.99\nsamples = 578\nvalue = [323, 255]"] ;
26 -> 28 ;
29 [label="X[17] <= 1.814\nentropy = 0.664\nsamples = 382\nvalue = [316, 66]"] ;
25 -> 29 ;
30 [label="entropy = 0.54\nsamples = 226\nvalue = [198, 28]"] ;
29 -> 30 ;
31 [label="entropy = 0.801\nsamples = 156\nvalue = [118, 38]"] ;
29 -> 31 ;
32 [label="X[15] <= 0.165\nentropy = 0.511\nsamples = 2807\nvalue = [2488, 319]"] ;
0 -> 32 [labeldistance=2.5, labelangle=-45, headlabel="False"] ;
33 [label="X[12] <= 0.957\nentropy = 0.797\nsamples = 987\nvalue = [749, 238]"] ;
32 -> 33 ;
34 [label="X[8] <= 0.197\nentropy = 0.907\nsamples = 403\nvalue = [273, 130]"] ;
33 -> 34 ;
35 [label="X[0] <= 34.163\nentropy = 0.803\nsamples = 192\nvalue = [145, 47]"] ;
34 -> 35 ;
36 [label="entropy = 0.849\nsamples = 149\nvalue = [108, 41]"] ;
35 -> 36 ;
37 [label="entropy = 0.583\nsamples = 43\nvalue = [37, 6]"] ;
35 -> 37 ;
38 [label="X[0] <= 45.014\nentropy = 0.967\nsamples = 211\nvalue = [128, 83]"] ;
34 -> 38 ;
39 [label="entropy = 0.992\nsamples = 150\nvalue = [83, 67]"] ;
38 -> 39 ;
40 [label="entropy = 0.83\nsamples = 61\nvalue = [45, 16]"] ;
38 -> 40 ;
41 [label="X[0] <= 20.025\nentropy = 0.691\nsamples = 584\nvalue = [476, 108]"] ;
33 -> 41 ;
42 [label="X[10] <= 0.776\nentropy = 0.756\nsamples = 432\nvalue = [338, 94]"] ;
41 -> 42 ;
43 [label="entropy = 0.984\nsamples = 40\nvalue = [23, 17]"] ;
42 -> 43 ;
44 [label="entropy = 0.715\nsamples = 392\nvalue = [315, 77]"] ;
42 -> 44 ;
45 [label="X[9] <= 1.916\nentropy = 0.443\nsamples = 152\nvalue = [138, 14]"] ;
41 -> 45 ;
46 [label="entropy = 0.211\nsamples = 60\nvalue = [58, 2]"] ;
45 -> 46 ;
47 [label="entropy = 0.559\nsamples = 92\nvalue = [80, 12]"] ;
45 -> 47 ;
48 [label="X[1] <= 46.928\nentropy = 0.263\nsamples = 1820\nvalue = [1739, 81]"] ;
32 -> 48 ;
49 [label="X[15] <= 1.989\nentropy = 0.106\nsamples = 858\nvalue = [846, 12]"] ;
48 -> 49 ;
50 [label="X[0] <= 3.129\nentropy = 0.153\nsamples = 318\nvalue = [311, 7]"] ;
49 -> 50 ;
51 [label="entropy = 0.469\nsamples = 10\nvalue = [9, 1]"] ;
50 -> 51 ;
52 [label="entropy = 0.139\nsamples = 308\nvalue = [302, 6]"] ;
50 -> 52 ;
53 [label="X[7] <= 1.387\nentropy = 0.076\nsamples = 540\nvalue = [535, 5]"] ;
49 -> 53 ;
54 [label="entropy = 0.05\nsamples = 359\nvalue = [357, 2]"] ;
53 -> 54 ;
55 [label="entropy = 0.122\nsamples = 181\nvalue = [178, 3]"] ;
53 -> 55 ;
56 [label="X[15] <= 1.278\nentropy = 0.372\nsamples = 962\nvalue = [893, 69]"] ;
48 -> 56 ;
57 [label="X[14] <= 0.855\nentropy = 0.53\nsamples = 407\nvalue = [358, 49]"] ;
56 -> 57 ;
58 [label="entropy = 0.32\nsamples = 172\nvalue = [162, 10]"] ;
57 -> 58 ;
59 [label="entropy = 0.648\nsamples = 235\nvalue = [196, 39]"] ;
57 -> 59 ;
60 [label="X[8] <= 0.012\nentropy = 0.224\nsamples = 555\nvalue = [535, 20]"] ;
56 -> 60 ;
61 [label="entropy = 0.143\nsamples = 345\nvalue = [338, 7]"] ;
60 -> 61 ;
62 [label="entropy = 0.335\nsamples = 210\nvalue = [197, 13]"] ;
60 -> 62 ;
}
