digraph Tree {
node [shape=box] ;
0 [label="X[9] <= 0.254\nentropy = 0.843\nsamples = 5634\nvalue = [4108, 1526]"] ;
1 [label="X[0] <= 22.313\nentropy = 0.985\nsamples = 2827\nvalue = [1620, 1207]"] ;
0 -> 1 [labeldistance=2.5, labelangle=45, headlabel="True"] ;
2 [label="X[8] <= 0.077\nentropy = 0.985\nsamples = 1512\nvalue = [647, 865]"] ;
1 -> 2 ;
3 [label="X[0] <= 4.855\nentropy = 0.973\nsamples = 587\nvalue = [350, 237]"] ;
2 -> 3 ;
4 [label="X[12] <= 0.927\nentropy = 0.991\nsamples = 279\nvalue = [124, 155]"] ;
3 -> 4 ;
5 [label="entropy = 0.975\nsamples = 231\nvalue = [94, 137]"] ;
4 -> 5 ;
6 [label="entropy = 0.954\nsamples = 48\nvalue = [30, 18]"] ;
4 -> 6 ;
7 [label="X[10] <= 1.123\nentropy = 0.836\nsamples = 308\nvalue = [226, 82]"] ;
3 -> 7 ;
8 [label="entropy = 0.904\nsamples = 213\nvalue = [145, 68]"] ;
7 -> 8 ;
9 [label="entropy = 0.603\nsamples = 95\nvalue = [81, 14]"] ;
7 -> 9 ;
10 [label="X[0] <= 17.724\nentropy = 0.906\nsamples = 925\nvalue = [297, 628]"] ;
2 -> 10 ;
11 [label="X[0] <= 12.829\nentropy = 0.878\nsamples = 821\nvalue = [244, 577]"] ;
10 -> 11 ;
12 [label="entropy = 0.846\nsamples = 692\nvalue = [189, 503]"] ;
11 -> 12 ;
13 [label="entropy = 0.984\nsamples = 129\nvalue = [55, 74]"] ;
11 -> 13 ;
14 [label="X[14] <= 1.613\nentropy = 1.0\nsamples = 104\nvalue = [53, 51]"] ;
10 -> 14 ;
15 [label="entropy = 0.971\nsamples = 50\nvalue = [30, 20]"] ;
14 -> 15 ;
16 [label="entropy = 0.984\nsamples = 54\nvalue = [23, 31]"] ;
14 -> 16 ;
17 [label="X[15] <= 0.236\nentropy = 0.827\nsamples = 1315\nvalue = [973, 342]"] ;
1 -> 17 ;
18 [label="X[8] <= 0.255\nentropy = 0.96\nsamples = 682\nvalue = [421, 261]"] ;
17 -> 18 ;
19 [label="X[6] <= 0.643\nentropy = 0.681\nsamples = 144\nvalue = [118, 26]"] ;
18 -> 19 ;
20 [label="entropy = 0.879\nsamples = 67\nvalue = [47, 20]"] ;
19 -> 20 ;
21 [label="entropy = 0.395\nsamples = 77\nvalue = [71, 6]"] ;
19 -> 21 ;
22 [label="X[7] <= 1.958\nentropy = 0.988\nsamples = 538\nvalue = [303, 235]"] ;
18 -> 22 ;
23 [label="entropy = 0.894\nsamples = 132\nvalue = [91, 41]"] ;
22 -> 23 ;
24 [label="entropy = 0.999\nsamples = 406\nvalue = [212, 194]"] ;
22 -> 24 ;
25 [label="X[8] <= 0.841\nentropy = 0.552\nsamples = 633\nvalue = [552, 81]"] ;
17 -> 25 ;
26 [label="X[16] <= 0.875\nentropy = 0.372\nsamples = 265\nvalue = [246, 19]"] ;
25 -> 26 ;
27 [label="entropy = 0.182\nsamples = 109\nvalue = [106, 3]"] ;
26 -> 27 ;
28 [label="entropy = 0.477\nsamples = 156\nvalue = [140, 16]"] ;
26 -> 28 ;
29 [label="X[15] <= 1.389\nentropy = 0.654\nsamples = 368\nvalue = [306, 62]"] ;
25 -> 29 ;
30 [label="entropy = 0.724\nsamples = 234\nvalue = [187, 47]"] ;
29 -> 30 ;
31 [label="entropy = 0.506\nsamples = 134\nvalue = [119, 15]"] ;
29 -> 31 ;
32 [label="X[15] <= 0.267\nentropy = 0.511\nsamples = 2807\nvalue = [2488, 319]"] ;
0 -> 32 [labeldistance=2.5, labelangle=-45, headlabel="False"] ;
33 [label="X[12] <= 0.713\nentropy = 0.797\nsamples = 987\nvalue = [749, 238]"] ;
32 -> 33 ;
34 [label="X[8] <= 0.865\nentropy = 0.907\nsamples = 403\nvalue = [273, 130]"] ;
33 -> 34 ;
35 [label="X[0] <= 50.8\nentropy = 0.803\nsamples = 192\nvalue = [145, 47]"] ;
34 -> 35 ;
36 [label="entropy = 0.828\nsamples = 180\nvalue = [133, 47]"] ;
35 -> 36 ;
37 [label="entropy = 0.0\nsamples = 12\nvalue = [12, 0]"] ;
35 -> 37 ;
38 [label="X[10] <= 1.855\nentropy = 0.967\nsamples = 211\nvalue = [128, 83]"] ;
34 -> 38 ;
39 [label="entropy = 0.994\nsamples = 125\nvalue = [68, 57]"] ;
38 -> 39 ;
40 [label="entropy = 0.884\nsamples = 86\nvalue = [60, 26]"] ;
38 -> 40 ;
41 [label="X[0] <= 30.323\nentropy = 0.691\nsamples = 584\nvalue = [476, 108]"] ;
33 -> 41 ;
42 [label="X[10] <= 0.162\nentropy = 0.724\nsamples = 493\nvalue = [394, 99]"] ;
41 -> 42 ;
43 [label="entropy = 0.964\nsamples = 54\nvalue = [33, 21]"] ;
42 -> 43 ;
44 [label="entropy = 0.675\nsamples = 439\nvalue = [361, 78]"] ;
42 -> 44 ;
45 [label="X[13] <= 1.262\nentropy = 0.466\nsamples = 91\nvalue = [82, 9]"] ;
41 -> 45 ;
46 [label="entropy = 0.28\nsamples = 62\nvalue = [59, 3]"] ;
45 -> 46 ;
47 [label="entropy = 0.736\nsamples = 29\nvalue = [23, 6]"] ;
45 -> 47 ;
48 [label="X[1] <= 40.02\nentropy = 0.263\nsamples = 1820\nvalue = [1739, 81]"] ;
32 -> 48 ;
49 [label="X[4] <= 0.099\nentropy = 0.103\nsamples = 820\nvalue = [809, 11]"] ;
48 -> 49 ;
50 [label="X[17] <= 0.649\nentropy = 0.149\nsamples = 329\nvalue = [322, 7]"] ;
49 -> 50 ;
51 [label="entropy = 0.224\nsamples = 83\nvalue = [80, 3]"] ;
50 -> 51 ;
52 [label="entropy = 0.12\nsamples = 246\nvalue = [242, 4]"] ;
50 -> 52 ;
53 [label="X[16] <= 0.846\nentropy = 0.068\nsamples = 491\nvalue = [487, 4]"] ;
49 -> 53 ;
54 [label="entropy = 0.05\nsamples = 354\nvalue = [352, 2]"] ;
53 -> 54 ;
55 [label="entropy = 0.11\nsamples = 137\nvalue = [135, 2]"] ;
53 -> 55 ;
56 [label="X[15] <= 1.519\nentropy = 0.366\nsamples = 1000\nvalue = [930, 70]"] ;
48 -> 56 ;
57 [label="X[14] <= 0.105\nentropy = 0.519\nsamples = 429\nvalue = [379, 50]"] ;
56 -> 57 ;
58 [label="entropy = 0.319\nsamples = 190\nvalue = [179, 11]"] ;
57 -> 58 ;
59 [label="entropy = 0.642\nsamples = 239\nvalue = [200, 39]"] ;
57 -> 59 ;
60 [label="X[8] <= 0.021\nentropy = 0.219\nsamples = 571\nvalue = [551, 20]"] ;
56 -> 60 ;
61 [label="entropy = 0.138\nsamples = 361\nvalue = [354, 7]"] ;
60 -> 61 ;
62 [label="entropy = 0.335\nsamples = 210\nvalue = [197, 13]"] ;
60 -> 62 ;
}
